187 50
pepper 0.0058838436 0.0043421057 0.0020175106 0.007292414 0.006412823 0.001647901 0.0022060394 0.007918558 -0.0021813314 -0.003989427 7.412489e-05 -0.0064954013 -0.006484965 0.009568925 0.01000373 -0.0014996572 0.010153653 0.0093731135 -0.0069737146 0.0060593183 0.0025498695 0.0021791302 -0.0049861553 -0.008892029 0.0077880225 -0.008875047 -0.004093684 0.0038519257 -0.010301292 -0.0022224218 0.0015035574 -0.0055685965 -0.004935205 0.006721904 -8.9980495e-05 0.0027228177 0.00510728 -0.006804261 -0.0028962162 0.008668663 0.009420333 0.009511526 -0.004596377 0.008371205 -0.009921859 0.00690066 -0.0062188874 0.010668932 0.009645319 -0.0061544254
salt 0.009476462 -0.001353817 0.0008028523 0.007734066 0.0069593587 -0.009427858 -0.0047675236 0.0072270683 0.0038385817 -0.0035071499 -0.007107459 0.0043648053 -0.0022092264 -0.0060141473 -0.006003118 0.009614186 0.0058972146 -0.008958427 0.009338009 -0.003244371 -0.005621913 -0.0058054887 0.005664716 -0.008336693 -0.0094721075 -0.0042461627 -0.00019665634 -0.009594911 0.0030265385 -0.009752285 -0.00510357 -0.0063348524 0.0063199927 -0.008453245 -0.0011818348 -0.004463559 -0.006201398 0.0049303626 -0.0026756783 0.0067915637 -0.0051187105 -0.0018211909 -0.0025460792 -0.003369976 -0.003758034 0.0021802292 0.009025228 -0.00032836193 -0.009199622 0.0069085984
cheese 0.0077662435 0.0069399388 -0.0013329677 -0.0013106772 0.004132619 -0.009912115 -0.009284831 0.002877948 0.004360301 0.0054118 -0.0020700186 0.0017941117 -0.0038702548 0.004992902 0.008409364 0.007551673 -0.0033711835 -0.0075803692 0.0010287038 0.00808842 -0.009560868 0.006077635 -0.00452283 0.00529518 -0.0008114367 -0.009454346 0.0012874327 0.0021399644 0.001002777 -0.005957793 0.0015190894 -0.0014383253 0.0007953038 0.00010504956 -0.0034748358 -0.008297171 0.008249441 0.0073426487 0.007407666 -0.0067364103 0.009941265 0.006923472 -0.009963809 0.009832988 -0.0027265379 -0.005217101 -0.004371403 0.008949336 0.007584803 -0.0025341157
butter -0.0018766258 -0.0061825993 -0.00058320246 -0.0030292454 0.0019933227 -0.008331296 0.0036290062 0.008173902 0.010454055 0.009074306 0.002487061 0.007278662 -0.0070740567 0.009121262 0.011089346 0.0064743496 -0.006928946 0.007341174 0.004580055 0.00144734 -0.0035306052 -0.006167391 -0.008431731 -0.0033888794 0.0052137235 -0.007661982 -0.0028375355 0.00092065625 0.005060786 -0.008519175 -0.008077674 -0.007839095 -0.0015857554 0.0077505433 -0.006362772 -0.0073675103 -0.0034898964 -0.001513403 0.0065679373 -0.00063389004 -0.0071866596 -0.002118144 0.008830635 0.0049458975 0.005267133 0.00798829 0.005649102 0.009467245 0.0014823381 -0.00593031
sugar -0.00956412 0.0058864085 0.0064261383 0.00890191 0.010346828 0.0051473663 0.002431984 -0.01018238 -6.1658895e-05 0.0040642424 -0.0005129219 0.0035341044 0.009127967 0.0068464717 -0.005495016 0.0038284368 0.006569942 0.007419044 -0.0025854548 0.0031311924 -0.0049802815 -0.0069490448 0.0031122318 0.0012796635 -0.0037558556 0.002329693 0.009035804 -0.0064643393 -0.00078748807 -0.0050022667 -0.0026650722 0.00097084057 0.0047950284 0.0022114585 -0.0026203662 0.005641969 -0.009065975 0.0020430149 0.0050602853 0.0060140826 -0.004132302 0.0026482358 0.0009880407 0.004143694 0.0027414584 -0.006790339 -0.00042838158 -0.0067022885 0.007519182 0.009288774
garlic -0.00060776394 -0.008400516 -0.009456984 -0.003865398 0.002596266 -0.0053497152 0.009671883 0.0013364804 0.0100193415 -0.0074922396 -0.0012628661 0.0019245301 0.0043419073 -0.0014908587 0.0025589212 -0.006339318 -0.0024985215 -0.00951756 0.007283327 -0.007034239 -0.0077369567 0.010007969 -0.0062506367 0.007181343 0.004801788 -0.0002601876 0.004635729 -0.005078709 -0.0071046506 -0.0004023761 -0.0044675283 -0.00043849333 -0.00026478217 0.002200378 0.008036389 -0.0036098056 -0.0058567366 0.0027406923 0.00031796985 0.009718803 -0.00019564749 -0.00086633663 0.002477982 0.0032110969 0.008794543 0.00912165 0.0034733843 0.008286723 -0.0058637317 -9.675758e-05
egg -0.009583303 0.0010164116 0.003814477 -0.0008598659 0.006897781 -0.006368472 0.004867295 0.008822811 0.0068876217 0.002137005 -0.0017875573 0.0032537286 -0.0034912024 -0.0007205232 0.003621145 -0.007461728 0.00019262692 -0.0041277744 -0.0048441156 -0.0044609853 -0.0009655567 -0.007126561 0.0046779797 0.0018328504 0.0021701553 -9.984642e-05 0.0046201446 6.480197e-05 -0.009280488 0.0072849807 -0.007728271 -0.0020697953 0.0077562146 -0.001543768 -0.0019239452 -0.0017947325 -0.0041134055 -0.007694866 0.0060322946 -0.0048056813 -0.0060658017 0.0006125017 -0.005749685 -0.009965352 0.0041690622 0.008576743 0.0074618766 -0.0068419278 0.002123802 0.0021233433
juice 0.0001154816 -0.0020369804 0.0030178132 0.008129307 -0.003376808 0.0042880867 0.0059006647 -0.0086338725 0.0012653108 0.009238442 -0.00044784474 0.00043406672 -0.007863265 0.003915684 0.004227988 0.004678529 -0.0039048234 -0.0037864775 -0.00537337 -0.0040495275 0.0045280945 0.005626476 -0.0064912247 -0.0038072502 0.0077183857 -0.0010315125 0.00770162 -0.0017371728 0.0021826525 0.0051041096 -0.009045752 0.009111011 0.0024374006 0.0027574017 -0.0046014227 -0.007963088 -0.009710659 0.002017444 -0.009560623 0.0045981593 -0.009729529 -0.003531019 -0.0037469512 -0.005803907 0.0002809533 0.0065319715 0.008620271 -0.0017533243 0.0016797007 0.007345985
cream 0.0006989231 0.0069715497 -0.006330848 0.003027207 -0.0035026667 -0.008302351 -0.0020386456 -0.001201398 0.0070764907 -8.420382e-05 -0.0029263725 0.0045107016 0.0033903802 -0.0011143943 -0.003544453 0.00016834003 -0.00012182553 -0.0026299525 0.008910227 -0.009470385 0.0016977902 -0.006428515 0.004129599 -0.00256576 3.8154678e-05 -0.0016551609 0.0022168516 -0.0029464574 0.008012345 0.005377683 0.004708373 -0.0054273326 0.002246731 0.0075103436 -0.0007889192 -0.0017053452 -0.0031589768 0.0062146704 0.0053391675 3.3837907e-05 -0.006622981 0.008625102 -0.0009876894 -0.0046647717 0.008396479 -0.0018503504 0.010392003 0.008964796 -0.0033815284 -0.004105107
water -0.009492017 -0.009182677 -0.0025930863 0.0014404756 0.0022437272 0.0054213316 -0.0048465733 -0.0034001411 -0.0052298424 -0.001321878 -0.010151665 0.0037040156 -0.00036840263 0.0021073043 -0.0074933325 0.001092503 0.002143014 -0.0023756542 0.0035553742 0.001867218 -0.0010649643 0.0070861336 0.003907381 -0.0038053943 0.00688414 -0.0077090436 0.004831846 -0.0073638423 -0.008467032 -0.0062066964 -0.002590633 -0.0060368613 0.0014257766 0.0010826768 -0.009830342 -0.007808431 0.002851065 -0.00029030966 0.008934034 0.004985771 -0.00090553844 0.007813366 0.0024397958 0.0070286198 -0.005526833 -0.0074286433 -0.0060353586 0.0018320887 0.0060296264 -0.002063196
flour -0.0047475607 0.008145404 -0.0061581056 0.007974088 -0.0031992705 0.0049963896 -0.008995122 0.009560996 0.010290017 -0.0071627456 -0.008886765 0.005649525 0.008520935 0.0030858703 -0.007616711 0.0046853484 0.0054877996 -0.0006972904 0.00077024987 -0.0026406632 0.0064146644 -0.0035773688 0.0035570322 -0.006251792 0.009625303 -0.008201689 -0.009160362 0.006995302 0.007018988 0.0048772637 -0.004288396 -0.0067306263 0.0010299649 -0.0019240441 -0.0095356535 -0.0026255136 0.007906462 -0.0043084947 0.004906976 0.007976382 0.0069967234 0.0014476902 -0.005842268 0.00891802 -0.0040180967 0.010449205 -0.009220085 0.0077914014 0.00010356542 -0.007373427
oil -0.007958008 0.0073507624 0.010125576 0.0047655636 0.008133441 0.0060830154 0.002558662 0.0054768776 0.0022780783 0.004206287 -0.0102971075 -0.0030598356 0.007630262 0.0006380976 -6.497892e-05 -0.006163421 0.005442035 -0.0058618584 0.003033659 0.003964411 -0.005346869 0.0046092253 -0.008344085 -0.0055077737 -0.0025876919 -0.0034901414 0.0039038316 0.007065858 0.00692849 4.3904074e-05 0.006133781 -0.008525354 -0.0033562195 0.009582612 0.0073546492 0.0069655166 -0.0032152336 0.0026512777 0.0091930805 0.004491592 0.0027699573 0.0077660037 -0.010154297 0.0074848332 -0.0074808626 0.0023720649 0.0035598478 0.008212422 0.0046265996 -0.007407263
onion -0.0058968533 -0.0034614622 0.0072548026 -0.001166458 -0.0036749404 -0.0047153584 -0.002633311 0.0025695714 -0.0076255207 0.0025265557 -0.0002172408 0.001693137 -0.0058221524 0.0061714896 0.0107526425 0.00549228 0.00078938 -0.002530062 -0.0012456251 -0.0092980275 -0.010035707 -0.00971497 -0.0030416185 0.004628284 0.003201583 -0.008743631 -0.009492 -0.0043766927 0.007200849 -0.0052322503 -0.0032720726 -0.00745817 0.0043264823 -0.0061323685 -0.0052706627 0.009494052 -0.0091057 -0.008267591 -0.0019496792 0.0022192865 0.0065201144 -0.0055600097 0.0029658477 0.0025779896 0.00035190498 -0.0056220684 0.009111773 -0.0020218221 -0.0005495739 -0.00032024493
vanilla 0.007760745 0.0057795625 0.005322644 0.0034597062 0.007052086 -0.0042409394 -0.006407727 -0.0077268607 0.0075289398 0.0027350213 -0.0013248367 -0.0072770678 -0.0059229797 -0.0041680275 -0.004486273 -0.006380869 0.0037255771 0.009429599 0.005095642 0.003171202 -0.0061104023 -0.0044052354 0.0014523185 0.002240184 0.0026864973 -0.0058704545 -0.002717795 -0.0030935449 -6.875728e-05 -0.00694266 0.001287961 -0.0070348904 -0.0044008335 0.004529988 -0.00013177519 -0.006553669 0.009309711 -0.008427348 0.007123493 8.819926e-05 -0.0063724136 -0.0067130392 0.0045845998 -0.0051086796 0.0018517456 -0.009191967 0.008260999 0.0011422946 -0.0066099344 0.004786691
milk 0.0016347672 -0.007575463 0.008411968 -0.0061160093 0.0032852578 0.009255241 -0.0001415507 -0.004226268 0.0026265378 0.0025591438 -0.0028402556 0.0009553722 -0.00955632 -0.0019996518 0.004634978 0.007864629 -0.0024219584 0.007407445 -0.0037549518 -0.008181368 0.004939779 -0.004941654 0.0057120887 0.007895162 0.00021020962 -0.0072042164 -0.0028647468 0.0029712052 0.0024242627 -0.005444305 0.009188691 -0.009804825 -0.007717731 0.007000356 0.00760527 0.009911405 -0.006269881 -0.0066175475 0.0013658241 -0.0011119237 2.3321689e-05 0.0023996704 0.0027044406 -0.004969018 0.0043315794 0.0019420215 0.0021025387 0.0104205 -0.004350537 0.005479627
lemon 0.0010325138 0.0051737507 0.003244939 0.006674473 0.0069714854 -0.005298979 0.0083773695 -0.0061803353 0.00052288343 -0.0071789185 -0.010083218 -0.008954347 -0.008740258 -0.0005857529 0.008286394 0.0013587585 0.007253904 0.006837428 0.0079948325 9.788184e-05 0.001923886 0.0082255155 0.0048587765 0.0031106325 0.009022511 -0.009943632 0.0019184031 0.0014670216 -0.009575178 0.006908676 0.0019976003 -0.005597622 -0.0051584975 0.0017087648 -0.0074512423 -0.008454735 0.002604862 0.005756334 0.0015880106 0.005099042 0.0022371793 0.00930832 -0.006011075 -0.00026152132 -0.009935622 -0.0026010056 0.004874211 0.0063072313 0.001465555 -0.0027438735
orange 0.006023447 -0.00013573955 -0.002042149 0.0042519434 0.00295526 -0.008175649 -0.004375681 -0.004620336 -0.008754575 0.008002512 0.0037572603 0.0018269946 -0.006881515 -6.031308e-05 0.0062159654 -0.009285756 -0.009148026 0.008049387 0.0044546872 0.0027689864 0.0060930005 0.009537131 -0.0036325273 0.008082577 -0.001383319 -0.00397804 -0.0004439528 0.0053036613 -0.006173237 0.0014251164 -0.007704937 0.005342515 0.010010396 -0.007164136 -0.0042646737 -0.0051037497 -8.788243e-05 0.007689629 0.009263699 -0.006471667 0.009347244 0.003533508 0.0038659493 -4.254076e-06 0.004207399 0.0016483114 -0.0016672026 0.009864484 -0.0007249316 0.0023104928
greens 0.009501754 0.0015897136 -0.00888707 -0.0036393313 0.006430849 0.009004656 0.00034410483 -0.00841855 -0.0007059423 -0.0041450346 0.0015010433 0.0074088746 -0.0014709072 0.0026159226 0.0061229127 -0.009607248 -0.007936414 -0.004960499 0.010068588 0.00749379 -0.0003784044 -0.006022704 0.00090280245 -0.0073132715 -0.0068823854 0.0014385086 0.0074709607 0.008660485 -0.0002738309 0.0094898995 0.0044329017 0.007919969 0.0051321434 0.0060885907 0.003993075 0.009933706 -0.00029419374 -0.0024257656 0.002852788 0.0076475516 0.0058219642 -0.004577061 -0.0060063954 -0.0027479155 -0.00094810076 0.0076580723 0.0026348617 0.0036116734 0.0032272437 -0.005727571
tomato 0.008892084 0.00957504 0.0010838808 0.006158969 -0.0015523395 0.008430701 -0.009315493 -0.0014763811 0.0031577814 0.002590671 0.00029159678 8.727185e-06 0.00797415 -0.00876287 0.008733055 0.0008375028 0.0055861548 -0.008879597 -0.0031071939 0.003233369 0.007927587 -0.005738901 -0.0077643148 0.008702749 0.00985126 0.0059757805 0.0008948672 0.0048537534 -0.0027217518 0.003830181 -0.009741701 0.008916452 0.0013146834 -0.0022817643 -0.00050369225 -0.002094291 -0.0078092944 -0.002107722 -0.008458498 -0.0061670663 0.009582944 -0.0062811812 -0.005291464 -0.0041849683 -0.0013259586 0.0008154909 -0.0037361 -0.0067618866 -0.005640056 -0.0045030834
cinnamon 0.0018738662 -0.0063000256 -0.008260525 0.0033715453 0.005551231 0.00038448168 0.0016764704 -0.004455023 -0.008470036 0.0037736164 0.0071436814 0.003584387 0.004798841 0.009796968 -0.0032134303 0.005337539 -0.0004979875 0.0036479202 -0.0031002667 -0.0036426806 0.0032864707 0.0027943894 0.0055344775 0.003473387 0.0034454202 0.0030199804 0.008355501 -0.005919337 0.004588017 0.008245628 -0.0021265415 -0.003582932 -0.0024437986 0.0027650394 0.00067467784 0.0024360733 -0.007833358 -0.0073105884 -0.0046443036 -0.0010568004 -0.0092753535 -5.405098e-05 0.00090836687 -0.00017420412 0.0022918303 0.008404888 0.009793861 -0.000104586994 0.009840281 -0.00968131
vegetables 0.009003273 0.010053832 -0.0050023966 0.0031557449 0.003658017 -0.0018396971 -0.008383129 -0.0034299768 0.008843517 -0.00064325414 -0.009107387 -0.006143737 -0.0013450896 -0.0071395235 0.006056745 0.002963756 0.0038237183 -0.00870405 0.007356799 0.00092005386 0.0009773006 0.0029351467 -0.009828292 -0.000970921 0.0070290426 0.00028322678 -0.00024804185 -0.0088085625 -0.0007002651 0.0069118966 -0.0033885713 -0.0012856792 0.006675425 -0.0007364262 0.0012573391 -0.0058776704 -0.0060048844 -0.0041745673 0.0073534423 0.0005817652 0.000531946 0.00677924 0.0064635826 0.0049932515 -0.005219641 0.0035937387 0.008501915 0.0007637973 -0.0015505672 0.009365865
clove 0.0006667441 -0.0010752963 0.002938782 -0.009805901 0.00053970533 -0.0070239855 -0.004351252 -0.008789316 -7.7406075e-05 -0.0035067995 -0.0010863639 -0.009848438 -0.007429276 0.009522551 0.008796457 -0.00025671054 -0.0045843082 -0.005318268 -0.009194712 0.006398331 -0.008002876 0.0017507625 0.0021784294 0.0005972887 0.00510478 -0.003106081 -0.00013833628 0.0025860688 -0.0020930883 0.004596815 -0.0063926647 0.008811148 0.0003995534 0.003920071 0.006964114 0.0065628127 0.0039278185 -0.00911146 -0.007247572 0.009545788 -0.0076255146 -0.0035384502 0.005505445 0.001763116 0.0025322197 -0.0073823314 0.009268341 -2.1550535e-05 -0.008749253 0.0037638843
fat -0.0063344846 0.002568278 0.007313722 0.0040997597 0.008732862 -0.003551585 0.009053655 -0.0006509764 -0.0012093843 0.00047877347 0.005795872 0.0027887207 0.00026223218 -0.005614999 0.00023910204 0.003882145 0.004278134 -0.0029163468 0.0038483934 -0.0046132663 0.007892344 -0.0029053658 -0.0065241223 0.009515643 0.0020681988 -0.006435526 -0.008939558 -0.0036373474 0.0074372557 -0.009154139 0.0025768501 0.0063036336 -0.0017429084 -0.0021662556 -0.0027730707 -0.008084039 -0.008784527 0.00011389622 0.00570102 0.0032154785 0.0075395494 -0.0014331967 -0.009675181 0.0026193212 -0.008219115 0.0066768765 0.005063011 0.0014282627 -0.0028507784 0.00705804
olive 0.0013083112 0.0028190182 -0.00029596646 -0.0057171443 0.00133327 -0.008165003 -0.0041571558 0.004364846 0.0021317087 0.00951887 -0.0076539377 -0.00092555786 -0.0061396696 0.0063413107 0.008834274 -0.004027722 0.0018212934 -0.006587929 0.0069428557 0.008803104 -0.005094548 -0.0069469092 0.00511231 0.0071216985 0.00047561454 0.007582374 -0.0026681365 0.0072350227 -0.0046782084 -0.0038121012 0.0038579765 -0.008737268 -0.0066197175 0.004935508 0.008683448 -0.005401861 -0.002664739 -0.002958716 0.010099968 -0.0010983143 0.0011771044 -0.008455524 -0.00073141 -0.00619491 -0.009292582 0.008408678 -0.005930131 -0.0038005046 -0.007033037 -0.002392756
potato 0.006216732 -0.0014407836 -0.0050590304 -0.009215521 0.009660824 -0.0023587446 -0.0007006423 -0.006189285 0.009846365 -0.0025365746 -0.008359283 -0.004503896 -0.00648382 -0.007987623 0.007872267 -0.007303403 -0.0008448437 0.007811379 0.009002849 -0.0006221936 0.0040245065 0.009045347 0.0031466119 -0.006768282 -0.0082606105 0.0076258597 0.0071765673 -0.00081982656 0.0020557411 -0.0019079412 0.0066951923 0.0020259093 -0.0071038175 0.007746539 0.008331882 -0.0011293902 -0.0006472443 -0.009683554 -0.0072647566 -0.0014515853 -0.009621518 0.008437575 0.005022001 6.560934e-05 -0.0012625145 -0.0060107335 0.0035623366 -0.0037844044 -0.0020411673 -0.007344069
baking soda 4.3423905e-05 -0.006453816 -0.0013276343 0.00031991708 -0.00100693 0.0070660496 0.0058333557 -0.0054207966 -0.0058734026 -0.008547266 -0.006021593 0.008491522 -0.0034851062 -0.0040778895 -0.009336057 0.0037043374 -0.0073868106 0.008374446 -0.0072585475 0.0065511134 -0.0019314005 -0.008064175 0.006802125 -0.009331132 0.0073303846 -0.004213932 0.0031664954 -0.0028241887 -0.0069241812 0.000120332654 0.008043248 0.002518623 -0.0069343974 -0.0021080466 0.009196455 0.00555388 0.0036401392 0.00014223724 0.00043226534 -0.0024408316 -0.0048479103 0.00061353785 -0.0077787763 0.007355969 0.0044532917 -0.007274475 -0.008889154 -0.0075669973 -0.0084257815 0.004463745
wine -0.0018039026 -0.00037405684 0.0049741096 -0.0005336776 -0.009568993 -0.00015801817 -0.0028982018 0.008414149 -0.007812783 -0.009667181 0.008637092 -0.0058124717 -0.00540771 0.0024566134 -0.008848847 -0.005585257 -0.0075131343 0.00044341362 0.00013984193 -0.008439023 -0.007566363 -0.0007442349 0.0062858816 -0.008779417 0.0049467026 0.00510147 0.0072414456 0.005019476 0.007228561 0.007847318 -0.008487462 -0.0011651556 0.008713754 0.009793273 -0.002991484 -0.008335717 -0.0032438834 0.0006120785 0.003994117 0.0032795595 0.0063072513 -0.003635504 0.007675945 0.00771072 0.0047911755 0.0012367235 0.0032734247 -0.007111921 0.003367926 0.008595305
chili -0.0052404604 -0.0044525587 -0.003869865 0.003197651 -0.0029777724 -0.0054523796 -0.008003433 -0.00792395 0.0068294927 -0.0005777124 0.0032908139 0.0040854565 -0.009330754 0.009285464 0.0026473284 -0.003448999 0.00038201947 0.003903207 0.0025062808 -0.002467873 -1.6269038e-05 -0.008670289 0.0030514095 0.00768956 -0.00060708437 0.001433537 -0.0046277037 -0.008081234 0.0030203802 -0.0043182475 -0.00395947 0.004976361 0.005181092 -0.0053314436 0.0046952087 0.0094484165 -0.005237126 0.00057288085 0.0060517183 -0.004132711 -0.009731307 -2.0065292e-05 -0.0008268211 -0.008800964 -0.0006158261 0.0066364533 0.0067825895 -0.0057743853 -0.008119208 0.0060680863
stick -0.009171268 -0.008295799 -0.0071117966 -0.0009925539 -0.008937326 0.0039811614 0.0014919249 0.002182227 0.008709697 -0.0058452697 -0.005807873 0.0048213955 0.0024106957 0.00015562391 0.0034394558 -0.0033183016 0.007794239 0.0053072474 -0.009736482 0.00922171 0.0054578106 0.00029365576 0.00680533 0.0011900928 -0.0008664882 0.002796104 -0.0055818744 0.008191664 0.0054085343 0.007245782 0.0029566742 -0.0031492868 -0.005854124 -0.0067784735 -0.002403053 0.00795806 0.0031590501 -0.004711171 -0.008101183 0.00085847324 0.008396254 0.0055575646 -0.010284716 -0.005517849 0.0043581272 0.002506946 0.007947627 -0.001210372 0.00032047209 0.0019359797
vinegar 0.008599891 0.000774473 -0.0039816564 -0.0038341868 0.0061145267 0.007597424 0.009190719 0.0054190126 0.0017533866 -0.008960786 0.006511571 0.008039792 0.008350258 0.006623656 0.0069221323 0.004142094 0.0047410666 -0.0006138117 0.008513397 0.009766726 -0.009323442 0.0048582656 0.0044882353 0.0075972425 -0.008620573 -0.0035837537 0.008479986 0.006331849 0.001604491 0.00492753 -0.005441294 -0.009865212 -0.0027416823 0.00788463 -0.002073595 -0.0012410072 0.009369072 -0.00015160623 -0.008458884 -0.0035922902 0.007896384 0.002711245 -0.009613286 -0.0024284967 -0.0005303414 0.005251224 0.0075509907 -0.008650052 0.0037580857 -0.010054734
coconut 0.002680003 -0.0068607144 0.004904693 -0.0025960666 0.0043675476 0.0074850204 -0.003926795 -0.009108059 0.004540174 0.007827988 -0.0035992477 0.007470208 0.0015004473 0.004360263 -0.0012105881 0.00094684307 0.0074040596 -0.008427577 -0.0013781169 -0.0024372535 -0.00041086326 -0.00011781478 0.006250893 0.0031403715 0.0045344653 -0.0015367428 0.006772287 -0.0043828874 -0.008231693 -0.0075618024 0.0049840235 -0.00861368 0.006427318 0.0029405653 0.00787719 -0.003355248 -0.009890192 -0.003915294 0.0012981581 0.007813193 0.0039018898 0.0035282376 -0.009610013 -0.00538888 0.0044893534 0.0079991035 -0.004119491 -0.005357558 0.00862757 0.00932796
beef 0.0095299585 -0.00088048185 -0.009405052 0.0021846143 -0.0036809628 -0.0010256042 0.0037314936 0.0054768915 -0.00041726348 0.007100337 0.002923724 -0.0052161533 0.00941426 0.0068199094 0.01004584 -0.008315455 5.2658237e-05 -0.009233862 0.002669055 0.007450638 -0.0077715497 -0.0027047514 -2.5263935e-05 -0.006960711 -0.0065871137 -0.006773492 0.0050029955 0.009886933 0.0076002544 -0.0031282068 0.009398346 0.0036624968 0.0004765077 0.005256067 0.009161171 0.004648091 -0.007291061 -0.009957006 0.0016057647 0.0020949636 -0.009873494 -0.008744848 -0.006496182 -0.0056125624 -0.00583312 0.005817943 0.010130962 0.0027275607 0.0069483034 -0.009278485
baking powder -0.0049208542 -0.008259255 0.0017622409 -0.0004586147 0.007340776 0.0022580307 0.004284697 -0.0070940433 -0.0022662175 -0.0039000632 -0.0023845918 0.0024937445 -0.00753595 0.008123208 0.002152056 -0.006700175 -0.009679798 0.0073166303 -1.7888337e-05 0.001363821 0.009656141 -0.00934911 -0.007827323 0.0022261962 0.0012540652 -0.0007888908 1.0222377e-05 -0.0062500397 -0.008974292 -0.0050051883 0.0023523355 -0.009316079 0.0010697799 -0.009393711 0.0031705583 -0.008252466 -0.000415856 -0.006853993 -0.0007832496 -0.0006566369 0.007789669 0.004807785 0.009600399 0.0020639733 0.007685687 -0.005003648 -0.004996968 0.009459375 -0.009807905 -0.00389185
ginger -0.001243306 0.004227643 -0.0030470092 -0.0065941922 0.00047142932 0.0028584176 -0.00043419146 0.002776657 -0.003244288 0.0045885905 -0.0022446257 -0.0050950446 0.0051554693 0.008236532 -0.005457068 0.005506007 0.0022791366 0.009546945 -0.0038236633 -0.0047650184 -0.0032432987 0.0072035166 0.008048051 -0.0029608004 0.00015101673 -0.009394031 0.003526408 -0.009538725 -0.0025796602 0.006730617 -0.009738625 -0.008728313 0.0034681996 0.010043487 -0.0048459307 0.00516576 0.00055225316 -0.0058989325 0.004478993 -0.005216032 0.009829853 0.004915276 -0.009701032 0.0018262302 -0.0034492998 0.00086189946 0.0010899251 0.00063401734 -0.00796538 0.0071071875
banana -0.008177164 -0.000120044 -0.004650957 -0.005146149 -0.0069128377 -0.0047418205 -0.008432971 -0.0063731675 -0.0076051364 -0.0009833376 0.0083895335 0.0031492726 -0.003753967 -0.0033106476 -0.0058250474 0.001754899 0.006884484 0.0016048362 0.00071496185 -0.004737733 0.008869186 0.00044374078 0.0033690145 -0.0019153304 0.0068918513 -0.00473172 0.005885895 -0.0057174875 0.002909103 0.0058138412 0.002152817 0.0013599161 -0.008147802 0.007479191 -0.008820006 0.006967835 -0.009143941 -0.010299681 0.0013647125 0.008342904 -0.006063791 0.007731093 -0.0042059794 -0.0031864105 -0.0027353305 0.0025020652 -0.007185929 0.0043199207 0.008120463 0.006584752
candy 0.007349493 -0.0042448035 0.0054935087 0.0024069417 0.008088862 -0.0010078751 -0.0028015517 -0.0063677398 0.006257925 0.0001789016 -0.008533622 -0.0027622469 0.0007430672 -0.0050555295 0.0011841912 -0.008960041 0.002554377 0.004862731 -0.0026957244 -0.0033746937 -0.009290929 -0.0026852207 0.0054896018 -0.0038545963 -0.0043034526 0.005618367 -0.003376122 -0.0069314 -0.008471309 -0.0075961817 0.0014721798 -0.0005194827 -0.008003676 0.001764777 -0.0020723918 -0.00063094427 0.0071636955 0.0034885912 -0.004824611 0.0004999088 -0.007853625 -0.003787366 0.00077684136 -0.0060234405 0.0006638611 -0.00021438193 0.002235472 0.005788095 0.006387633 0.009541415
candies -0.006482866 -0.00090135424 0.0025370172 -0.0044793966 -0.006203114 0.009120289 0.0048891394 -0.0015558436 0.004240811 0.010055912 -0.008503643 0.0017674781 0.008710231 -0.0063038482 0.0027414842 -0.0033130096 0.006338054 0.008814721 -0.00978263 0.0053879665 -0.005195793 0.0035222084 -0.004310382 -0.0077385544 0.0056961305 -0.0040062857 -0.0007666599 0.0045442004 -0.009749565 0.0054356502 0.0049869246 0.0058436613 -0.0038015489 -1.7660157e-05 0.008636398 -0.00014968938 0.004224981 0.0095073925 -0.001846346 -0.00095944304 -0.0051778243 0.00577298 -0.008699486 0.006992808 -0.00034673285 0.008417713 0.006462487 0.007589271 0.006238096 -0.0049530943
extract 0.0073689423 0.0075724223 0.0014363214 -0.007836389 -0.007992142 0.0067244964 0.0033533678 0.0046230946 -0.0049943025 0.0067576123 -0.0033690832 -0.0059004077 0.0071549774 -0.0051849997 0.0054114778 -0.006484069 0.0018429848 0.0015709528 0.00784947 -0.0059861755 -0.0065472554 0.0041911425 -0.0045826985 0.0059321164 -0.004609347 0.0012437346 -0.0065634353 -0.009559994 0.00374525 -0.009035755 -0.0007153744 -0.008448547 -0.0010286553 0.00834005 0.0014910002 0.007507651 0.006709792 0.0018740678 -0.008853542 0.0063909856 -0.009674 0.0015781132 0.0038154193 0.009510468 -0.0014068524 -0.008588023 0.0039218296 0.009076166 0.0021403069 0.0013548977
chives 0.0030676508 -0.007944848 0.008511347 -0.0076106773 0.00037276465 -0.009946759 0.0016002164 0.0022073924 -0.0064007123 0.0015335217 0.006320898 0.004582646 0.0073554586 -0.0036619965 0.0061390214 0.0045653107 0.00969149 -0.004228071 -0.0028809542 0.006833514 -0.008536449 5.2805914e-05 0.008890102 0.008702996 -0.0008773368 0.005337734 0.009789102 0.0055810767 -0.008590651 0.0054443358 0.0005649109 0.007863475 -0.009734775 0.009678591 0.0020223714 -0.0072877314 0.0008477897 0.0069310623 -0.004406342 -0.0025209747 0.00086794846 0.009191259 -0.00425072 -0.008738416 -0.003317434 -0.0031440658 -0.008809333 0.0015777778 -0.0049567055 -0.0016839342
honey -0.007378826 -0.0069996547 0.0017692379 0.00079232873 -0.0071724686 0.004042177 0.003734376 0.0042526512 -0.006862534 0.0022500579 -0.004932145 -0.0022479706 0.004608719 0.008512363 0.010720385 0.000745708 0.0014569304 0.0053021437 0.0030860344 -0.001361023 0.004403392 -0.005017629 -0.005945415 0.0013419811 0.0050840583 -0.0025949744 -0.009584945 0.008183486 -0.005607995 -0.00526062 -0.009713824 0.0071959198 -0.0042007207 -0.007480607 -0.0035748428 0.008532604 -0.0020283489 -0.007390294 -0.00058714725 0.005327547 0.0029207084 0.008141927 -0.0042434544 0.009371612 -0.0052710823 -0.0034142483 0.008702543 0.00759246 -0.007852638 -0.009036915
cilantro -0.0062827114 -0.00035302946 0.009259307 0.0082292035 0.009277811 0.00028218038 -0.0056503406 -0.00047498927 0.0063055977 -0.00563695 -0.005146283 0.0043606986 -0.0056849746 -0.007839411 -0.0019913483 0.006957288 0.009166857 0.006466717 0.008047253 -0.0061414507 -0.009809228 0.005381912 0.001063874 0.00840575 -0.0092288675 0.0035988807 -0.004126146 0.002923226 -0.00011943064 -0.009502379 0.008049791 0.0061735823 -0.0041684196 0.0087118 -0.008917302 -0.0097177345 0.0026445116 -0.0037615197 -0.00730901 0.0007550906 0.0044349846 -0.005973689 -0.006176836 -0.0039947554 -0.006305313 -0.005208167 0.00080373837 0.0007142457 0.007166214 0.0048806635
basil 0.006374781 -0.008168189 0.008244067 -0.008290905 -0.0012969603 0.0067270026 0.001220397 0.003655235 0.006576929 0.0061737313 -0.009859558 0.004314574 0.0065821735 -0.0042762356 -0.00484884 0.005796987 0.009764352 -0.009642926 0.0092055155 -0.00064283644 -0.0074498095 -0.0014706686 0.008054119 0.0077947103 -0.0059791445 0.0093115205 -0.0030570112 -0.0040121293 0.0011563536 0.0085134 -0.0073168348 -0.009824543 0.009550896 -0.009062797 -0.0010062365 0.00547106 -0.00378813 0.009505167 -0.00074743736 -0.006873762 -0.007057702 -0.0079595195 -0.0062845796 0.004973604 0.00040937233 0.004351711 0.009129991 0.0069970973 0.0027675899 -0.005002151
corn -0.005887273 -0.004741071 0.009976425 -0.009216512 0.008867425 -0.0040346924 -0.0072032176 -0.003910287 0.0021754864 0.009070799 0.0033528334 0.0011028383 -0.0065990174 -0.004827774 -0.0051315944 0.003763923 0.0042727008 -0.008671343 -0.009000094 -0.00685203 -0.006468812 -0.0013048485 0.0068948073 -0.008039121 0.008625915 -0.008770777 -0.008599178 0.005228261 0.009659197 0.006823067 0.0016064594 -0.007250209 -0.004146993 -0.0035717164 0.0083655305 0.0067743952 0.0027317288 0.0053451997 0.004870571 -0.00014855748 -0.008765793 0.0064824796 -0.007667027 0.00089895184 0.0016640233 -0.008797231 0.009599659 0.008587553 -0.008648434 0.0019667326
nuts 0.004627792 -0.00048387656 0.00017392794 -0.0052044704 -0.0033937679 0.0075920275 -0.007091573 -0.007657133 -0.00031537877 -0.004913467 -0.0021286814 -0.0043818457 -0.0032073907 -0.004564523 0.004178094 0.0072104833 0.0068296283 -6.877925e-05 0.004409026 -0.0021952558 -0.004592546 -0.003611914 0.003205182 -0.0023800451 -1.7746572e-05 -0.0028481 0.00486985 0.0040373453 0.0018832147 0.009808181 0.0038327707 0.0017867527 0.005346311 -0.004457239 0.0044557555 0.0045941267 0.0049781366 -0.009698009 -0.004088352 0.009045475 0.0015535856 0.007582702 0.008788338 -0.0021313722 -0.0078536235 0.0067709032 -0.009258883 -0.0040463805 -0.008852884 0.0034376832
chicken 0.00078733586 0.0056482446 0.002044308 -0.0039105816 0.0047341874 -0.007821377 -0.0039475868 -0.0065990007 -0.004799483 0.007087147 0.00022765157 0.008338108 -0.008889031 0.007671911 0.006943877 -0.003005672 0.005111673 0.0006815821 0.0023414919 0.002005716 0.009691232 0.000385662 -0.009652615 -5.863524e-05 0.0099297175 -0.006283593 0.0025051436 -0.0082057025 -0.009790168 -0.0041093193 -0.008330784 0.0015341828 -0.001330395 0.0030845953 0.0020112086 -0.0052751536 0.0014198178 -0.009362275 0.0033370932 -0.008858233 0.002126377 -0.0022861606 -0.008064112 0.00074005243 0.0011359738 -0.00037247755 0.007213113 -0.006774302 0.0054298257 -0.0055543105
yogurt 0.0067478735 -0.0009060753 0.0024704565 0.0018799758 -0.0021410394 -0.0067443918 0.0088884 -0.0004900693 -0.0022447235 0.0069909454 0.008915944 0.010022235 0.0044971076 0.0069855866 -0.008319164 0.0066715092 0.009835627 -0.009102648 0.007808645 -0.008938529 0.007961436 -0.0026055176 0.0013012973 0.0068171197 0.0002320027 0.0005355375 -0.00911406 0.00522653 -0.007670087 0.0018980368 -0.007067294 0.005914133 -0.009050222 -0.0017370055 -0.0051951134 0.0027433066 -0.005110804 0.004477885 -0.0066024694 0.0040358994 0.003922006 -0.0076548713 -0.0011807062 0.0069980505 -0.0022587704 -0.0029138331 0.00086156046 0.009784415 -0.0011388984 -0.007020183
rice -0.007961626 -0.008923873 -0.0073605566 0.00224006 0.00047148266 -0.0062867803 -0.004840642 0.008324953 -0.0032928702 0.001259353 -0.009963272 0.0046978053 -0.008407259 -0.00908033 -0.005064337 -0.0044415165 0.008117821 -0.002192025 -0.005341524 -0.0035815139 0.007919676 -0.0014628811 -0.0010538626 0.007981972 0.0062926016 0.0029379274 -0.009598378 -0.009742867 -0.000999088 -0.00080896553 -0.0035832184 -0.0071128644 -0.0020502592 0.0027963503 0.0067173075 0.0069087106 -0.00069666293 -0.00044528837 -0.007096196 0.0060332394 -0.000254619 0.009334544 -0.00014538203 -0.008898041 0.004011306 -0.008144884 0.0077192336 -0.0036037385 -0.0033315152 -0.005271835
carrot -0.000498475 0.008985666 0.002586016 0.007931899 -0.009314916 -0.009883061 0.00030945492 -0.0019241651 0.007730118 -0.0016039257 -0.0040549883 -0.005473402 -0.006744474 -0.008201068 -0.0025085518 -0.0063413074 -0.0068685506 0.0067281206 0.007657509 -0.0052305744 0.00039076273 -0.0036774024 -0.00931882 -0.006804571 -0.008593586 0.0073859664 -0.0032172492 -0.0095308935 0.0024899575 0.0064873383 0.008392999 0.007262484 -0.0079036625 -0.0021213668 0.006437788 0.009429458 -0.008904149 0.002540103 0.006733735 -0.008538827 -0.0025508255 0.0028515235 -0.005513499 0.0011034909 -0.009878285 0.004580661 -0.0061116894 -0.007096145 -0.0044749104 -0.0081318915
seeds 0.0016643719 0.00027988257 -0.002456267 0.008763936 0.006323667 0.0004882821 -0.007912064 0.00017162011 0.005707594 -0.002272783 -0.0016338887 0.000660979 0.001348413 -0.005788704 -0.006884688 -0.0063897646 0.005669623 -0.0051762317 0.0027540906 -0.008249903 0.006770633 0.0012148805 -0.0006490777 -0.006609826 -0.00035971313 0.0016867338 0.0050244723 -0.007053762 -0.00037882087 0.0012708717 0.008453324 0.009215529 -0.0026418825 -0.0036479074 0.0053190603 0.001936308 -0.00933772 0.0065595615 0.005970593 -0.0073085423 0.008860533 -0.008283427 0.0061956616 0.004232949 0.00613615 0.0052054464 0.0010749926 0.010289424 0.009828662 -0.008629162
broth -0.00052456633 0.0069311736 0.0061557787 -0.0043232543 -0.0012800955 0.0019131998 -0.006020023 0.0031489877 0.008200305 0.0024645727 0.007054799 0.0032881266 -0.0004210269 -0.0042986204 -0.0011958367 0.0055183624 0.00083513244 -0.0046121967 0.00906294 -0.0052412096 -0.004379713 -0.003970744 -0.008508755 0.0017993439 -0.0034989407 -0.0052225455 0.007963857 0.004010201 0.0070925984 -0.0036565678 0.0019905535 0.0039890236 -0.005806298 0.00843101 -0.009880903 -0.0007088879 -0.006792799 0.0073741875 0.00957306 0.0031859009 0.008554343 -0.007001472 -0.010101799 -0.009604963 -0.005154259 0.007976682 -0.00042413687 0.0013375356 -0.00029449127 -0.008667243
ice 0.005595645 -0.008605046 0.0067804805 -0.0007608285 0.006750731 0.0017125976 -0.008731191 -0.00965935 0.006548638 0.005867959 -0.0036951161 -0.0008082056 -0.005911499 0.00066254305 0.002587073 -0.0096611455 -0.0030760795 0.0038416872 -0.0038821376 -0.0009558016 -0.006922041 -0.0005382788 0.0012308971 0.007938364 0.0009160347 -0.00047808982 -0.009553739 0.0008421118 -0.0063493634 -0.008937076 -0.0012090201 -0.0066625783 -0.0047392086 0.008433214 -0.0018043102 0.002113875 0.007495586 -0.007595792 -0.001556296 0.0070210965 -0.0035326509 0.003039587 0.0020872287 -0.0011125889 -0.0013376895 -0.0052743084 -6.265094e-05 0.006837852 -0.0058358368 0.0065048086
pecans 0.004552616 -0.0009361248 -0.004421526 0.003933682 -0.0069898344 -0.0073409867 -0.0024310416 -0.00029547318 -0.0009917557 0.0073773228 0.007168245 -0.0022656757 0.004309242 0.003218809 0.00051096576 -0.008073573 -0.003140326 -0.009646461 -0.00990418 0.0016401948 0.0013699625 0.0026469661 0.0077724843 0.007947366 0.0009144797 0.007057903 0.0043581985 -0.008541051 -0.004668639 -1.2500719e-05 0.009716723 0.002999485 -0.0041829376 -0.0011957128 -0.0075428477 0.0019290453 -0.004979284 -0.005546965 -0.0011130068 -0.00042458746 0.008408537 0.009346925 -0.003743965 -0.0067498344 -0.0019755312 0.009164766 -0.008005341 -0.006804698 -0.0050908453 -0.0011029558
oats 0.000893152 0.0065831803 -0.0047778194 0.006358296 -0.005658445 -0.002111831 0.0016411627 0.0018261669 0.005139701 0.0009836963 -0.009216876 0.0029865792 0.0056594545 -0.006272784 -0.004149422 0.0005152531 -0.007129741 0.0033314985 0.009400724 -0.0088067055 -0.009914807 0.0037240798 -0.0038877442 -0.0019904715 0.0069349124 -0.00910203 -0.005554218 -0.005413345 -0.0062362347 -0.0038796794 0.000560603 0.0005900789 -1.0433241e-05 -0.0073791975 0.009300254 0.006588564 0.00353721 0.00020405509 0.006645284 -0.0072988435 -0.009537169 -0.0050221826 0.0057773795 -0.008680193 -0.00856716 -0.0051132534 0.00042898147 0.004903173 -0.0064001763 -0.006007199
bacon -0.003358203 0.009098635 -0.006460133 -0.0017316538 -0.0042541204 0.003124848 0.009022296 -0.007795184 -0.004658119 0.007114237 0.007558798 0.007563577 0.0015982465 -0.005301966 -0.008011379 -0.007914996 0.0070995125 -0.0024645864 0.0014727802 -0.0076644756 -0.0056369016 -0.006119495 0.0046067024 -0.008303782 0.002876615 0.0029427798 -0.009191252 -0.004968881 -0.007426743 -0.00072754704 -0.0095707765 -0.008914305 0.000673281 0.0087103965 -0.005365184 0.0064325132 0.0018338695 0.00794725 0.0013744719 0.010152054 -0.008751994 0.005413657 -0.0010897247 0.00721233 -0.0009253971 0.0050428906 0.0071011838 0.0023996604 0.0049315766 0.008353096
sausage 0.0018212162 0.010002008 -0.005623245 -0.0058165193 -0.0051844334 0.0076223346 0.002783842 -0.006298017 0.0041972226 -0.0027357985 -0.002754725 0.0051496713 0.0010030207 0.003113104 0.00327843 0.0022036235 -0.0013623905 -0.0029659749 0.0030086476 0.0009995009 -0.0017418892 0.0033559154 0.00044840304 -0.000499782 -0.0020264345 0.002088601 -0.0005339057 -0.006257758 0.0013130498 0.00875853 -0.008731404 -0.0060039456 -0.008675663 -1.0326445e-05 -0.0021266823 -0.004434117 0.003927412 -0.0049898173 -0.0017940572 -0.0012019549 -0.00530727 0.0056214896 -0.005319891 -0.009815024 0.005003814 5.2081858e-05 0.0025312244 -0.008144116 0.007051057 0.0077562653
mustard 0.0024053873 0.0029346494 0.006071831 0.0036508113 0.0011671995 0.006229572 -0.00038788453 -0.003620036 0.009005603 -0.00013005042 -0.0039077858 0.009523216 0.0076314863 0.0009555661 0.0070685134 -0.0021925296 -0.009023332 -0.0014747571 -0.0034013176 0.0059504127 -0.0046988516 -0.0022655062 0.0016145222 -0.0006076178 -0.001032314 0.0077791996 -0.007927916 7.874738e-05 -0.004273613 -0.0062974957 -0.010035452 -0.006451007 0.008110841 -0.0006538504 0.007866612 0.0005213413 0.0019383375 0.0032773654 -0.0050390307 0.007739003 -0.009180372 -0.007990313 0.002884088 0.007611518 0.005690346 0.0006029088 0.009251142 -0.0058735916 -0.0064998665 -0.0005326755
lime 0.008245061 0.001859736 0.0037094862 -0.0043254397 -0.007108285 0.0077481344 -0.0007169486 -0.0003181632 0.009226615 -0.009575726 0.00974132 0.00773037 -0.00025407088 -0.009657663 0.0023101955 -0.008768927 -0.00708598 -0.005081397 -0.0066894977 0.005267388 0.0052412264 -0.0059191585 -0.006880852 -0.007597984 0.0073827193 0.009645924 0.005528594 -0.0015717961 0.008320257 0.008635408 -0.00051788724 -0.009408786 -0.0065408847 -0.008190373 0.008790453 -0.0058604414 0.00078268786 -0.0047426657 0.0025385914 0.0061539426 0.007917714 0.005551061 -0.009888942 0.00993139 -0.0008095098 -0.00013390681 -0.0012127628 -0.008586198 0.0017605396 -0.005014759
penne 0.0053700805 -0.0075829043 -0.006707449 0.007542959 -0.003656406 -0.00451538 -0.0019767587 0.0044862875 -0.006952511 -0.00067868 -0.0052456325 -0.003408553 -0.0008815141 0.009376465 0.0054835067 0.006213182 0.0035982493 0.003493092 -0.007321147 0.0036261918 0.0060685896 -0.0028782785 0.008560725 0.0027173941 -0.0064877993 0.0043327734 0.0076320427 -0.0063655935 -0.008271559 -0.00887452 0.005858205 0.0017922962 0.004654845 0.0052650413 -0.0023024776 -0.0076306514 -0.004127875 -0.0064117797 -0.0041575283 0.009331686 -0.0013561693 0.0022075742 0.0072956313 -0.0010872205 -0.009778783 -0.0090705985 -0.0050832 0.0022905578 0.0010567848 -0.006088757
celery -0.00048724157 0.006390308 0.003738199 -0.0046036774 0.009574527 -0.00681533 -0.00914515 0.00038223772 0.0026512304 0.0051646666 -0.0020170154 0.007444242 -0.0039577675 -0.004670531 0.0032971636 -0.0032894155 0.0013428576 0.0015370479 -0.002251768 -0.009487981 -0.007853715 0.008705115 0.0051817396 0.0095208315 0.0058215414 0.0014812894 -0.0039245985 -0.0021829796 0.0007129929 0.004083213 0.00033156504 -0.0001294191 -0.0011633679 -0.0055211955 0.009892624 0.0007548954 0.0051057376 -0.006159436 0.005446938 0.0061367177 0.00378642 0.00786594 0.0038251507 -0.0038306578 -0.0039034376 -0.004060413 -0.000590259 -0.0075389342 0.0063205482 -0.0069365306
dill -0.0062512313 -0.0074991835 0.0027277505 0.008774939 -0.005044442 -0.003719883 0.0011973842 0.009469764 0.00078005367 -0.001236013 -0.00975464 -0.008834575 0.008578242 -0.009568696 0.00166707 -0.008567972 -0.0069379504 -0.0017604096 -0.0069588665 -0.009724913 -0.00071314635 0.008041482 -0.004254603 -0.000488528 -0.00679366 -0.0060433387 -0.003403152 0.008128116 -0.0056082243 0.0068781553 0.004552885 -0.0024302227 0.0039028693 -0.0065144026 -0.0060343333 -0.004642893 -0.008120201 0.007848965 0.0011784268 0.009115678 0.003956105 0.009438043 -0.004566598 0.0058511333 0.0010921451 0.0016870525 -0.0027596813 -0.0081354445 0.002476888 -0.009374714
cucumber 0.008501954 -0.0033011544 0.0058532436 0.003483467 -0.0044357483 0.0031789525 -0.0002837935 0.003307208 -0.004189995 0.0087797595 0.008296346 -0.0070314403 -0.008042 -0.0022097155 0.009835874 -0.0071767997 -0.0040242127 0.0036018812 -0.0060121994 -0.003516999 -0.00961508 -0.007589455 0.0060304254 0.0005363391 -0.0041422355 0.0043781064 0.0037538703 -0.0075375806 -0.008481555 0.0022505966 -0.0049405736 0.007511035 -0.0091948565 0.0018761096 -0.0021970747 0.00045460052 0.006373481 0.0028298432 -0.0071768644 0.0062074275 -0.0018069536 -0.0030811469 0.0052352278 -0.005008904 0.0053177536 0.00821667 -0.004241983 -0.0023410115 0.0005139544 -0.009628891
gelatin 0.009762427 0.0065243943 0.0009751076 -0.0034529583 0.002252385 -0.0022953507 -0.0007743892 -0.0008491217 0.0057239626 0.004372204 0.00208085 -0.0028826324 -0.006433909 -0.0017797886 0.0037510388 0.005131385 0.0059805587 0.00040358666 -0.004400891 -0.005010399 -0.0018215847 0.00985076 0.006298224 0.0019551178 -0.0003693643 0.0021794909 0.009572776 -0.0019397808 -0.0051864996 -0.0024925678 -0.0020298467 0.0025241137 0.005075793 0.0058458033 0.00852569 0.0067728288 0.0018956492 -0.005555009 -0.0017133437 -0.006777592 0.009193285 9.968879e-05 -0.008153838 0.0075016534 0.005217942 0.009583959 0.003862029 0.0049361363 0.009110974 -0.008246945
watermelon -0.009370856 -0.004096909 -0.0013890843 -0.0076759215 -0.0055831475 0.0014739298 0.009812914 0.006150717 0.002951298 0.0062122294 0.0051521645 -0.0077977367 -0.009889752 -0.0026770488 0.0020474913 0.002117865 0.004448488 0.0054701283 0.0060284203 -0.0037044706 -0.002079487 -0.0008782924 0.0009917418 -0.0039655897 -0.005090293 0.00846505 0.0028598004 -0.007806847 0.0015568063 0.0048938883 0.0006231497 -0.0077190795 0.0055354484 0.006342746 0.0037377528 -0.009677227 -0.00860345 -0.0011341786 -0.0022934945 -0.006852387 0.0044798604 0.00091825816 0.0024792235 -0.0036777828 -0.0019726153 0.0012054328 0.0071694846 -0.000270333 0.004376291 -0.007092598
cracker 0.0055218125 0.00268272 0.0073859002 0.0097130565 0.009034238 -0.0093679195 0.008641286 -0.005727839 0.00082111335 0.0031551933 0.0008344137 -0.0016044631 0.0006367263 0.0013699327 0.009104339 -0.007730934 -0.0029464252 0.008302288 -0.0034218421 0.0005724257 -0.008243955 -0.0062574167 -0.007594247 -0.00334576 -0.0037766723 -0.009692272 0.0004074337 -0.009481162 0.0036812974 -0.0036952102 -0.008917584 0.0098188715 0.0091875605 -0.006460987 0.008204024 -0.0061977296 0.0010589011 0.0072192396 0.010038339 -0.00032430678 0.005224867 0.0059216954 0.008194402 -0.0071991915 -0.0046734083 -0.0086359335 0.00069831236 -0.009740605 -0.0009627112 -0.008116155
soy sauce 0.0072144894 -0.0046962528 0.004002364 0.002869162 0.0026184143 0.008706039 0.0014389901 -0.0048748194 0.006382262 -0.0020451744 0.008931171 -0.005288391 0.00018187179 0.009269572 0.008578368 -0.00377064 -0.0041348934 -0.0038517108 -0.0043283347 0.0014810612 -0.00835999 -0.0010637642 0.008292124 -0.009104942 -0.008862334 -0.0041896896 0.0051060575 -0.0061564473 0.0019270318 0.0002729008 -0.0052722828 -0.004327099 -0.0047593177 -0.0094157765 0.0076750894 0.0003657393 -0.0062460266 -0.010003989 -0.0069071474 0.0020943927 0.008637134 0.007577084 -0.0072237225 0.009284487 0.0005267929 0.0025501784 -0.007736296 0.008466204 -0.0021081853 0.0021358123
pineapple 0.0032684195 0.008032329 -0.00077564013 -0.0017932974 -0.0014238198 0.00033859926 -0.0050405604 -0.0018225958 0.0006588996 -0.0076371348 -0.0074795606 -0.008101266 -0.008170785 -0.0073851924 -0.0083500715 -0.006387019 0.006950767 0.008556085 0.0010346983 -0.0045527904 0.0017842434 0.0067918575 -0.001773931 -0.009158516 0.004943489 0.008445754 -0.0038428137 0.00861254 -0.00249131 -0.0088031115 -0.006765684 -0.008608349 0.0003750121 0.007900734 0.0018161321 -0.00035872558 0.0010039546 -0.00470062 0.0014099958 -0.0025880206 0.008672331 -0.0028011482 -0.006132654 0.0019007012 0.0038324983 -0.009061137 0.0072929785 0.00963533 -0.0041341665 -0.0026576708
liquid -0.008122835 0.008594865 -0.0004655774 0.01010434 -0.0061106044 -0.003744623 0.0009291286 0.004342604 0.00074177916 -0.009725846 0.0046576723 0.009564422 0.0011860695 -0.0074199275 0.0039139665 0.007476618 0.0061961683 0.0055561597 -0.003278595 -0.0092997495 -0.0100542195 -0.0053988113 0.003968839 0.006260183 -0.005386215 -0.007726327 0.0071817357 0.0077603054 -0.00032062072 0.001044079 0.0053160987 0.004542709 0.005421559 0.0035213032 -0.0064272126 0.005656248 -0.007216283 -0.0030411894 5.634682e-05 0.005030672 0.0021583817 0.009780666 -0.0048264195 -0.00299167 0.0012608869 0.0010702382 0.0065730424 0.00798409 -0.008179644 0.0059029814
rhubarb 0.0044244127 0.009132827 -0.0061595794 0.007459784 -0.007601157 -0.008444194 0.0002671822 -0.0034742067 0.008386048 0.0041755307 0.0018940807 -0.0063700858 -0.0008655862 0.0026677423 0.0053801523 -0.0005306229 -0.0048601762 -0.0053176074 0.0022192174 0.0076130466 0.009768438 -0.0028326411 0.0066288626 0.0070744995 -5.7908073e-05 0.005116422 -0.0010845184 0.006693601 -0.008752063 0.008681127 0.0064879972 -0.005292683 0.004292775 -0.0053241584 0.0035367005 -0.009824617 -0.006091151 -0.0046780994 0.0018205632 -0.008696889 -0.0064654816 -0.0053288415 -0.0032266907 -0.008053146 0.0063556097 0.007417995 0.0033870733 -0.004415371 -0.009265973 -0.008694268
strawberry 0.005361903 -0.008544572 -0.0023724162 -0.0035098013 0.0017705576 -0.0061725476 0.009628471 -0.0029042892 -0.0038779129 -0.009615964 -0.007998628 -0.004692948 0.008302165 -0.0015193232 -0.007816408 -0.005292004 0.000932869 0.0058800466 -0.007276234 -0.005079538 0.008220298 -0.0042670355 0.009046208 0.0040017334 -0.0036859205 0.0045217955 -0.007921584 0.0051242616 -0.0036640505 0.0066639553 -1.0204622e-06 -0.009497035 0.0073064016 -0.0037162416 -0.0024716028 0.003392545 0.0053071417 -0.0003732783 0.008965845 0.0038392874 0.004980792 -0.0011880229 0.0063928775 -0.008694246 0.006189671 -0.0022045071 -0.0006401243 0.0030604212 0.0065317643 -0.01000775
strawberries 0.0064244685 -0.0011560095 -0.00036124222 0.0034352182 0.010132365 0.0012949907 -0.006940143 0.009177369 -0.0026307784 0.003401262 -0.00040216773 -0.008097503 0.00036961486 0.0024047564 0.0050870446 0.008806606 0.004686166 0.0034847807 -0.008494837 -0.010078238 0.009880275 0.0089927595 -0.00491763 -0.0057066754 0.007238352 -0.009687182 -0.0049669957 -0.0029208062 0.002208367 0.004812936 0.0060512284 0.008525057 -0.007071594 -0.009888486 -0.0049025603 0.0022428932 0.0026212488 -0.0031717764 0.0068909507 -0.007327595 -0.0065053315 0.00403987 0.008874954 0.008815539 -0.0014557956 0.005134994 0.0073184003 0.0006367289 0.00050449115 0.0008675107
cake 0.009748642 -0.0017888164 0.005783282 -0.0056956313 -0.0017404108 -0.003311606 -0.00409149 -0.009564394 0.003220411 -0.0018930073 -0.009695741 0.0056208493 -0.008778392 0.0064646243 0.0060777557 0.0061592576 -0.007698306 -0.0038613977 -0.0008434957 0.0011759737 -0.0058939015 0.008208212 -0.001044091 0.005159605 0.009495538 0.0022155873 0.0060916585 0.005644053 0.00588249 -0.006404491 -0.0037658429 -0.0054310528 0.0007455382 -0.008699919 0.0068518487 0.008518662 0.0045744684 -0.008617362 0.0070622433 -0.0057012206 -0.008227958 -0.00583393 0.0031595253 0.008974069 -0.0012534381 0.0019353231 0.003068749 -0.007887338 -0.0021160366 -0.0023049181
margarine -0.0018151676 0.007901011 0.0027589274 -0.0069261044 0.005690407 0.0071939463 -0.009555873 0.0038506452 -0.0064374628 -0.0058818157 -0.0056605963 0.0019598913 -0.0042160787 0.009999572 0.003102166 0.0056636953 -0.0073110205 0.0076639997 0.0062640095 -0.006659858 0.007916796 0.004741012 0.006084396 0.003404145 -0.005659252 -0.005014194 0.0065129953 -0.0055871257 0.002050004 -0.009025269 0.009017335 -0.0021014563 0.0061819893 0.0030461065 0.0049127713 -0.0037380727 0.004718011 -0.00396091 0.00504021 0.0054205484 -0.0022409218 -0.0033133738 0.0074570337 -0.004428121 0.00052324275 0.0012808413 -0.0089463005 -0.002253538 -0.0037035265 -0.0030613772
fillets 0.0069182133 -0.0037273115 0.0053025973 0.00017631438 -0.005815105 0.0015809158 0.0004633063 -0.0027167664 0.009643195 0.007678047 -0.00074245187 0.0019444957 -0.0064726425 0.0026136423 0.0038024655 -0.0018966752 -0.0076275095 0.0076912222 -0.0003220881 -0.003580557 -0.000561605 0.009165485 -0.0030487138 0.0038074267 -0.003226431 0.009464764 -0.0015565387 0.005756552 0.0006725103 -0.0032627014 -0.0093299085 -0.0034895209 0.0018279239 -0.0054895105 -0.00784078 0.008785446 -0.0015213386 -0.00018562091 0.009572537 -0.008267791 0.0040487344 0.002655933 -0.00016564397 -0.008356703 -0.0037355912 -0.0009726222 -0.008626395 -0.0093754865 -0.00091533747 0.00020672954
steak -0.0031225367 0.00096270884 -0.0029040654 -0.00918386 -0.006874786 -0.0014636936 0.0017414495 -0.008144011 0.0072703883 -0.008647405 -0.0009933397 0.0013060616 -0.0005046465 0.0056356667 0.007639553 -0.00067213696 0.003354379 0.0071988767 0.0070278016 0.008320075 0.0043719965 0.006308977 8.095553e-05 0.0034680916 -0.009087866 0.0064379424 -0.0079446705 0.008714719 -0.003152509 0.0032809945 0.008119174 -0.0063973702 -0.0075244475 -0.006802582 -0.008266936 0.0074188216 -0.0068540135 0.0016529236 -0.009124321 0.002113858 0.008938764 0.0071462123 -0.0032280476 -0.008725586 0.008934348 0.008948448 -0.0058455425 -0.009102096 -0.009931068 -0.0007606309
fennel -0.001866396 -0.00073501514 0.0007731246 0.0061910436 -0.009446064 -0.009757579 -0.002968223 0.00097221433 0.0017806701 -0.0073551564 0.007199615 0.008026904 -0.006757208 0.003406939 0.006751641 0.008630911 0.009218869 0.0017909766 0.0054107504 0.0025289506 -0.007935124 0.007281642 0.0032417674 0.008074167 -0.0025870048 -0.0026161943 0.00828602 0.006243458 0.007334808 0.0052950424 -0.008149808 -0.0012044326 -0.0030726125 0.0065638707 0.0047279093 -0.0031488377 0.008569956 -0.009121573 0.00628347 -0.008999505 -0.0013263945 0.009513271 -0.0022307811 0.0044464082 0.0068488405 0.0025193081 -0.0033847329 -0.00915 0.0044153305 -0.006940393
pork 0.0070650894 -0.008943446 -0.0043799207 -0.00081054075 0.007992979 -0.008255784 0.007042738 -0.009325112 -0.0066430024 0.0047073886 -0.009630499 -0.0013138718 -0.0020863211 0.0025251978 -0.0011897342 -0.009528569 -0.0004923085 0.0077193747 0.0012612928 0.0022925232 -0.007109462 -0.0075104493 -0.0084459875 -0.0010982716 -0.0002141359 -0.0031981647 -0.0037561823 0.0017645288 -0.007592077 0.0020547973 -0.0060283663 -0.0020807695 -0.0022242465 0.0050735404 0.004703591 0.0045971307 -0.008834341 8.3313374e-05 -0.008828147 0.007257044 -0.0069049154 0.0044527384 0.003835267 -0.0014473378 -0.005035856 -0.0068770098 0.0045980085 0.005776995 0.0025667911 -0.001278789
cranberries -0.0030231555 0.00611033 -0.0034861008 -0.005325107 0.0078290235 0.003439613 0.003391982 0.0046576713 0.0026196619 0.003197085 0.006802193 0.007620048 0.0014141537 -0.005334057 0.00726595 -0.0063601197 -0.0018686779 -0.00030063238 -0.0019124144 -0.003838166 -0.0011636093 0.0072881505 -0.008049883 -0.00461156 -0.0043891696 -0.0010318806 -0.0077593434 0.0004951926 0.0060985903 0.006901572 0.0041112932 0.0066382256 -0.0017332992 0.009878778 -0.009763693 0.00931346 -0.0071402513 -0.006918045 -0.0037330561 0.002349594 0.0012795365 -0.004197332 -0.0058111935 0.009108101 -0.005816588 0.0042484123 -0.005090155 -0.002294989 -0.009199028 -0.0007694613
blueberries -0.0015540138 0.008374718 0.009924147 0.002537964 -0.003635428 0.0038057175 0.0012044461 -0.004672371 0.006693971 0.007953015 0.004163904 0.008273711 -0.0024156952 -0.007791667 -0.00090482156 0.0018907011 0.0056404276 0.0022063234 -0.0005938715 0.0022542658 0.0017293141 0.0036242912 -0.0052325474 0.004186208 -0.008868528 -0.0022625588 -0.0060021607 0.0018139576 -0.0072957785 0.0034781748 0.0054302854 0.003495136 -0.006949645 0.0013749138 0.002146839 0.0071446425 -0.0059363814 0.008227514 0.0028027464 -4.5903784e-05 0.0051172418 0.00887905 -0.0050185956 -0.0059873196 0.0013031135 -0.0015126123 0.0039877747 0.0041900864 0.00848341 0.0029092114
wafers -0.005168225 0.004917128 -0.0010447849 -0.008711038 0.0022366792 0.0052235187 0.0011439455 -0.007335054 0.0029488283 0.0025774154 0.002962519 -0.0029801845 -0.009129412 -0.00016226365 0.0048579546 0.0076492094 -0.0054446254 0.0012110125 3.3445373e-05 0.001677731 0.0035014653 0.0051152436 -0.0044235764 -0.00086629635 0.0072504627 -0.00876638 -0.009000089 -0.0030056925 -0.009426338 0.0029311532 -0.0058665765 -0.0021898947 -0.0019158962 0.0020141907 0.0080601955 -0.0025912577 0.0027993084 -0.009577072 0.0004188199 -0.0052825636 -0.0024097147 0.0075307656 0.0056778663 -0.008674831 -0.0039994665 0.0028707208 0.00072892656 0.008524677 -0.009990889 0.002961853
foie gras 0.005011362 -0.0066690324 0.00043598615 -0.007917896 0.0015622778 0.007298896 0.0046944725 0.0084019145 0.01030325 -0.0023917248 0.003954069 0.0022893785 5.1530456e-05 -0.0029836863 -0.0021239973 0.009509053 -0.0064845225 -0.0067775995 -0.0076321154 0.00082477444 0.0020031494 -0.008320022 0.0078048115 -0.008674554 0.001776933 0.006999005 0.0008183902 -0.0062489333 -0.0012848439 0.0037264272 -0.002552576 0.00489485 -0.0074392813 -0.0036203458 -0.008918956 0.0006677387 0.0066787177 0.0023366734 0.004492194 -0.0027206049 0.005567477 -0.004947656 -0.006904249 -0.0056960764 0.0010569614 -0.00054709794 0.004788207 -0.0023165843 -1.8323384e-05 0.007992375
truffle -0.007912438 0.00770214 0.0022937986 -0.00029511235 -0.00068893284 0.007908991 -0.00046639465 0.0032152536 0.0027663258 -0.008216191 0.008029905 0.007304028 -0.005162741 -0.0071535246 0.008956336 -0.009647753 0.008455051 0.0020377536 -0.0031923954 0.009188003 0.0058334977 -0.006927521 -0.008892961 -0.0062427386 -0.00035517497 -0.00012783868 0.008405145 -0.0034950294 0.0074346135 0.0008422287 0.0046589947 -6.7375746e-05 0.0030776525 -0.003469415 0.0053855153 0.0053724777 0.0015476536 0.0016027604 0.0022749114 -0.003994576 0.0009962718 0.007112834 -0.0012670193 0.008867866 -0.003254528 0.009913433 0.008711437 0.006206645 -0.010049501 0.0084237745
spaghetti -0.0024443187 -0.008724613 0.009247239 0.008792294 -0.007557571 0.00365372 -0.00060596335 0.001671893 -0.0028919906 0.0015365747 -0.007396489 0.00046692527 0.006747945 -0.00701676 0.0020958923 0.0005485258 -0.0061138435 0.0040152716 0.0021357962 -0.0043596495 0.00086882315 -0.004446768 -0.0012459793 0.004206261 0.00599147 0.004430317 -0.0050946265 0.008096476 -0.0035216864 -0.0068205623 0.0020749168 0.0069910767 0.005342829 -0.0054240637 -0.005777234 -0.0050533493 0.0011066315 0.008298558 0.0011450769 0.0070853783 0.0019277747 -0.0008131161 0.005455989 -0.010030578 0.0014435402 0.004612627 0.0013184544 0.0062768566 -0.0070547573 0.0030025681
apple -0.0047862167 0.01011295 0.007685569 0.005773425 0.0051007494 0.008877494 -0.003230873 -0.0046982486 -0.0020760274 0.0010684531 -0.0079145655 -0.0050574606 -0.0038464307 0.009879761 0.0064267097 0.009873102 -0.005012583 -0.0071919756 -0.008232905 -0.009726198 0.0069383555 -0.0055955197 -0.0029021797 -0.006549426 0.001886693 -0.003364572 0.009363187 -0.0013963154 0.0024230536 -0.0061794245 0.009399578 0.0047025247 0.009561805 -0.007845088 -0.0027885 0.0020614967 0.0053699776 0.005328892 -0.0071892794 0.0057043335 0.009939817 0.008696195 0.0024123918 0.0018191831 0.0086054765 0.010066804 -0.003000718 0.00757295 0.0009495469 0.005565173
syrup 0.003073437 -0.0030992883 0.0033580817 -0.007633081 -0.0009155503 3.01157e-05 -0.0027554044 -0.0045913476 0.004291376 0.005279855 -0.0014103716 -9.9541016e-05 -0.005364048 0.0010281721 -0.0006254867 -0.008802488 -0.0007261088 0.0045232126 0.0071866983 -0.0072474037 0.008365186 0.008915473 -0.00012496689 0.0014807299 -0.008529067 0.009840352 -0.0030216041 -0.0035834766 -0.008141718 -0.0022271033 -0.007639607 -0.009325041 -0.009899839 0.001105589 0.009069044 0.007425102 -0.0034173506 0.00040223458 0.004850974 0.00939891 0.009726904 0.008985339 0.0009067785 0.007124828 -0.008347561 -0.00032609684 -0.00018643396 0.0066034175 0.009749698 0.002524958
seasoning 0.0076956563 -0.0025230804 -0.0014413109 0.00488338 -0.00088428106 0.0016620017 0.006229839 -0.0069125947 -0.0009245669 -0.0020816415 0.009656375 0.000634119 0.009078025 -1.3155338e-05 -0.0071950774 -0.0040899944 0.006467891 0.0013981857 0.009854076 0.00352062 -0.0003008937 0.005230988 -0.0014332341 0.005284335 0.0068153674 -0.0062185307 0.0054331 0.005583046 -0.009241923 0.002623838 -0.005270582 -0.0063831913 0.0014546474 0.008941728 0.009470088 -0.003146403 -0.0060903667 0.0020749327 0.003277246 -0.008217332 0.006031826 0.0011570323 0.0026926824 -0.004093259 0.0029382429 -0.0031451145 0.008569753 0.0041347914 -0.0064180847 0.008801227
thyme 0.0042953463 0.0036143214 0.008710429 -0.009165272 0.006190884 0.0040034163 -0.0012840846 -0.0066705737 0.007010398 -0.00972861 0.0046713674 0.0055059455 -0.0074887797 0.0047230995 0.0023736015 0.008388341 -0.006293706 -0.0016741499 -0.009511693 -0.0014899108 -0.0015866258 -0.001469601 0.0073385187 -0.0073421556 -0.00447032 0.0025499787 0.001919204 -0.0077449265 -0.0032248676 -0.00047994847 -0.004433256 -0.0019632576 -0.0067279665 0.008541702 -0.0010364271 0.0039979797 0.0005334816 -0.009478181 -0.004669771 -0.009729524 -0.002671194 -0.007056485 0.0016269985 -0.0020838608 0.006345019 -0.0062955935 -0.0026494432 0.0047277813 0.0033375744 -0.0032987753
jalapeno -0.006993453 0.009769108 0.008248334 0.0041582813 0.0013969607 0.0051361294 -0.007141169 -0.0025334188 0.0043370402 0.0046873693 -0.007073669 -0.0020880117 0.009022663 0.00036476838 0.0031334462 -0.007773659 0.009428065 -0.0056116576 -0.007735776 0.0013041449 -0.009884452 0.0038119704 0.0033893012 0.008371888 0.0050001084 -0.0067725256 0.0040637343 -0.006285127 0.004305134 -0.0036078477 0.00025300388 0.007976892 -0.0018783793 -0.007041632 -0.004935699 0.006249099 0.0009701129 0.00038443875 -0.00804589 0.0078080413 -0.007203045 -0.009583698 0.00090613763 -0.0071363244 0.0072204974 0.0049649994 -0.00059081404 0.0029685686 -0.0011791148 -0.0047026686
worcestershire sauce 0.005374752 0.004516535 0.010088604 0.005947945 0.005115209 -0.004586749 -0.005433305 -0.006925961 -0.001349991 0.003691666 0.009276593 -0.008445752 0.0027064153 0.0031198342 0.009202151 0.005551374 0.003505054 0.0063736956 -0.0013870659 0.00539795 0.005269074 0.003956411 -0.009253799 0.00068174495 -0.0022579515 -0.004731269 0.00065837504 -0.0039243083 -0.0008160542 0.0061280113 -0.008936271 0.0020242399 -0.0076160138 0.0018475979 -0.005505591 -0.0067952625 -0.003220248 0.0038168093 0.0036232742 -0.002824317 0.009543756 0.0060753524 -0.0013568854 0.0060083535 0.008933869 -0.00906763 -0.005618863 0.008844089 0.004592082 -0.0021090547
parsley -0.009018892 0.010106178 -0.009060448 -0.0035690228 -0.0027028557 -0.006801692 6.103156e-05 -0.008950862 -0.009373366 -0.001392929 -0.005837884 0.0032407036 -0.009137113 0.00037911156 0.008551781 0.0021599883 -0.0069963364 -0.0077090682 -0.0052788337 0.006651811 -0.009120076 0.006498836 0.0051739085 0.0049568634 0.0067148563 -0.0028971173 0.005080298 0.0046242015 -0.0009767833 0.0067354837 0.0009897653 0.0022415272 0.009005518 0.0038690083 -0.009724017 -0.006751033 0.0022429829 -0.004042082 0.008148384 0.0014655951 0.008484675 -0.003349101 0.008259372 0.0050712586 -0.0011916024 0.009430731 0.006345468 -0.0034630597 0.003963337 -0.0018269261
gruyere -0.009414777 -0.007547901 -0.0040126015 -0.003261709 0.0047075883 -0.0053571584 0.0030750167 -0.0053416844 -0.007881936 0.008026007 -0.0008165454 -0.0026321518 0.009912496 0.0064290995 -0.004937776 -0.0005260786 0.0024219863 0.008926616 -0.0063178884 -0.009557008 -0.008743077 -0.007745624 -0.0014113323 0.008690515 1.1322584e-05 0.004336366 -0.006570648 0.0017423431 0.001561355 -0.0001295819 0.0032242832 -0.0067391316 -0.00025676255 -0.0073465654 0.008750161 0.0039054516 0.0027384378 0.007423417 0.009898899 0.0016181538 -0.009836665 -0.007721261 0.0010212503 -0.0010878827 -0.008261359 -0.009001731 0.008937946 0.006995044 -9.3234135e-05 -0.008653172
macaroni -0.005909413 0.005725856 -0.0063114376 -0.0036329252 0.004475825 -0.009562691 -0.009070741 -0.009944974 -0.008858272 -0.00092608854 0.0036143572 -0.009250667 -0.00488585 -0.009008763 -0.0061681787 -0.0029527517 0.0011770801 -0.008984266 0.0067008277 0.0045457617 -0.005961503 -0.00096019014 -0.007892611 0.008248923 -0.0059612216 0.007489219 0.00062009034 -0.0011745731 -0.0043205377 -0.0012467599 -0.003590442 -0.0005478147 0.006351631 0.005142203 -0.004729642 0.00891795 0.00761666 -0.0016137401 -0.008561734 0.0071352054 0.0067560812 -0.0019274976 0.002538233 -0.00031593032 -0.0019602634 0.0041198377 -0.0050593726 -0.0019361166 0.009272186 -0.0008531167
pimentos 0.0039650835 0.0049483683 -0.004753053 -0.0020610113 -0.009582628 0.009408975 0.0017462312 0.0034593865 8.158974e-05 -0.0010728945 -0.008321354 0.0005124047 -0.0033890768 -0.0076664095 0.008587805 0.0050601577 0.003596833 -0.006245697 0.001987223 0.005516817 0.007000736 0.0061209393 -0.00010638098 0.005435485 0.006210505 -0.0074518835 0.0034481077 0.006224188 0.0009969829 0.0094576785 0.0062269405 -0.0008549972 0.008866636 0.0005265503 0.00542691 -0.0044831303 0.0034107924 -0.00955647 0.0055549056 -0.007568553 -0.0031884762 -0.009269176 -0.0039451746 0.0009234355 -0.0073402636 0.0011675901 0.004389242 -0.008871788 0.009103066 0.005398543
mayonnaise 0.008341308 -0.006296347 0.009820563 -0.004081599 -0.0002585924 0.0030231136 0.0024517172 0.00290574 -0.0068995254 -0.005409626 0.009777235 0.0072647315 -0.005014592 -0.0075506675 0.009729059 0.0071552224 -0.0064466354 -0.009946938 0.0018348118 0.008057076 -0.0014983618 0.0012413496 -0.0011039547 -0.00043891376 0.0005589563 -0.00341914 0.0069360062 -0.0075048963 0.0055198534 -0.002680708 0.001913085 -0.0047684517 -0.00035537357 0.004116459 -0.004294825 0.007844767 -0.0068038576 0.00040846123 -0.0036806294 0.005628965 -0.00042417913 -0.0095717665 -0.009739042 0.004478967 -0.0051956177 0.0009679142 0.009586717 -0.009489897 0.00065942376 -0.0055147945
salad dressing 0.0049309116 0.00615806 0.005098665 -0.0021967597 0.0023140016 -0.0017073569 0.0046193185 -0.009956705 -0.0019890592 0.00093456043 -0.0041624014 -0.0045812163 0.0016354972 0.000987894 -0.0002142358 0.005021415 -0.00033383546 0.007923202 -0.008400856 0.0041658203 0.00268343 0.008340078 -0.0006793812 -0.0043454063 0.00028233122 0.00043106993 -0.003826149 0.0033275178 0.0073542753 0.0032628635 -0.008225791 -0.0019913616 -0.00500931 0.004903294 -0.00059208024 4.94833e-05 0.0019853176 0.0037802402 -0.0022019113 0.0020325088 -0.006319251 -0.0060668117 -0.0051568854 0.008537266 -0.005384894 -0.0031759501 -0.008960053 0.005390523 0.0066671693 0.00966298
cool whip -0.0014764539 0.0071655177 0.008164892 -0.003357111 -0.004194214 -0.008455595 -0.002225358 -0.0056999205 -0.0048670145 0.0070139347 -0.006523616 -0.008620219 0.00437158 -0.007939103 0.0024434605 -0.0016811425 -0.002745441 -0.0042551206 0.007721531 0.0020932653 0.008392622 0.0013190629 0.00842059 -0.009924344 -0.008015999 -0.007521046 0.006721322 0.0013678137 -0.0034648934 0.0058561317 -0.0051837787 -0.0019017854 0.00285785 -0.009445206 -0.007912624 0.005438336 0.0054637976 -0.0066448417 0.0052479217 -0.008246474 0.005223547 -0.0072146733 -0.0066602575 0.00074390497 -0.006547523 0.009275342 0.0068266024 -0.006226328 6.686968e-05 -0.008321333
cornstarch 0.004586473 -0.006398663 -0.002921001 -0.005535902 0.002569034 -0.00776476 0.0015798153 0.003931499 0.007879603 0.0064106635 0.00055141555 0.004371198 -0.004763687 -0.009803484 0.0048371856 -0.0054864967 -0.0023945055 -0.0034195546 0.008570085 -0.005656038 -0.006809619 0.0015981885 0.009215179 0.00015225442 -0.0042301933 0.0030353726 0.0056886445 -0.008051492 -1.6075766e-05 0.0057200748 0.0023623335 -0.0056731775 -0.0038119813 0.0032575817 -0.009022439 0.009909873 -0.0027404416 0.0009239808 -0.0051108208 0.0031393287 -0.00033680623 0.008555768 0.0076297247 -0.0068437858 0.002299815 -0.005061896 0.002780689 0.0025199396 -0.006751604 -6.156074e-05
cashews -0.0013661439 -0.004363466 0.00060659746 0.007245475 0.0076073036 -0.007955642 -0.0056588794 0.0017951789 -0.0005330316 -0.0034145259 -0.009139698 -0.0040009893 0.00849402 -0.008068098 0.0035490056 -0.006523039 0.0097249 0.009505237 -0.008679168 -0.008492744 0.006138715 0.004930614 -0.0054758997 -0.000924412 -0.004673603 0.0052174544 -0.005735977 0.006370523 -0.00012921041 0.0033651234 -0.0033333802 -0.005076953 -0.0031604515 0.0073338635 0.0067084325 0.007729444 -0.0071494323 -0.009732211 -0.0077050836 -0.009639595 0.0065609966 -0.0022100348 -0.0017295065 -0.009868034 -0.00069484883 -0.008195725 -0.0012326562 -8.216933e-05 0.0042479914 -0.007224963
tea -0.00034653538 -0.005019757 -0.007733201 0.009183746 8.3175844e-05 -0.0042302688 -0.0028425348 0.0073227813 0.0074117687 0.0011046825 0.0019015358 0.0017241581 -0.00450073 -0.00089603435 -0.0025773083 -0.0046537365 -3.88027e-05 0.0028006865 -0.0035539942 0.0050629787 -0.007132138 0.009612366 0.00923812 0.0029245694 -0.0016370247 0.006042847 0.005826762 0.0089044515 0.006314614 0.0032477314 -0.0020099313 0.006608033 -0.00765086 0.008213585 -0.0054544383 -0.00096752605 0.00033500895 0.00095756556 -0.0028279915 -0.001605382 -0.007361398 0.009192924 -0.0046716877 3.5685036e-05 -0.0057739336 0.0011357564 0.007366628 0.0071177166 0.0070827403 0.002033666
kombu 0.0037388292 -0.0023072427 -0.004135021 0.0082060825 0.001637861 -0.008003824 -0.0014021287 -0.0047694677 -0.006617076 -0.0039440966 -0.0061330963 -0.0056598564 0.0039779283 0.00504084 -0.0016210077 -0.006783469 -0.009387807 -0.0036355548 -0.00399695 -0.0066031073 -0.0067116977 0.007983749 -0.0077598644 -0.0011372719 -0.005663826 -0.0065004313 -0.008929259 0.0052575986 0.00783539 -0.0040982617 -9.1651586e-05 0.008318062 0.0033301727 0.007013666 -0.0055772145 0.004877792 0.006866999 -0.0038660148 0.0073458836 0.00091572234 0.0037281828 -0.00071133336 -0.0045132544 0.00980994 -0.004978589 0.0067026857 -0.0007901118 0.0044402694 0.0039935326 -0.0031921305
zucchini -0.0053406544 -0.009168819 -0.0032353185 0.009920982 0.0006065933 0.0045832284 -0.0063095153 0.0075663175 -0.00039863872 0.0047764853 0.0038420684 -0.0063432874 -0.0049820305 -0.004316979 -0.006908184 -0.0036161453 -0.0063973344 -0.0016056903 0.00047911986 0.0026013125 -0.0017643113 0.008770721 -0.005450311 -0.004196954 -0.006361648 -0.009344699 -0.009020203 -0.0024294236 0.005392709 -0.007032276 -0.0015727072 0.00086823484 0.008354901 -0.0023983591 -0.0003556951 -0.00062818703 -0.008516138 0.00943877 -0.0069822893 0.0018766555 -0.009601376 -0.0039547705 0.008734669 0.0029514013 -0.00063910667 0.0038155837 0.0029042982 0.0060641738 -0.009838892 0.0055320854
walnuts 0.0035912436 0.006469653 -0.0069773574 0.008579972 -0.005534157 0.0017871294 0.008072551 -0.004131452 -0.008608954 0.004123684 0.006604927 0.008022568 0.007470609 -0.007955155 -0.008749923 -0.0015206623 0.0019137533 0.00807811 0.0010536623 -0.0051860097 0.0017165613 -0.0008849286 0.004906488 -0.0021561172 0.008512051 0.0023889057 0.009358281 0.0017589596 0.006425834 0.006969817 0.0042141587 -0.0018567499 0.00021071761 -0.0015783537 0.006798984 -0.002197002 -0.004769542 -0.009491094 -0.0065556425 -0.0045887134 -0.0015826605 -0.0028401315 -0.009933871 0.0041513075 -0.0010760583 0.0065372223 0.005108713 -0.008682734 -0.0046741143 -0.0089425305
salmon -0.0016162159 0.0038779743 0.009345013 0.0050012805 0.0016085213 -0.007003042 -0.0004978496 -0.0051501147 0.009216703 -0.00981484 0.0008339722 -0.007112546 -0.0031878822 -0.008649399 0.0032908604 -0.0042078746 0.0040821317 -0.002143969 -0.0015165748 -0.0064282757 -0.005353025 -0.001932027 0.0045778346 -0.007565324 -0.009638882 -0.0099397525 -0.0043203025 0.0021576604 -0.0037206234 0.0053032576 -0.0024344905 0.0015127718 -0.006899297 -0.0013484348 0.0079836175 0.008875629 -0.010083999 0.009743702 -0.004705711 0.0072691995 0.0055360855 -0.0024579058 -0.0063447263 -0.0074273646 -0.0016844987 0.0030174316 0.0018869158 7.985768e-05 -0.006992206 -0.00064317894
mixed salad green 0.0076278322 0.0100479135 -0.00025494455 -0.0014800599 0.0020894096 -0.008236686 0.009908997 0.0047475765 0.003980357 -0.0073239477 -0.0015177524 0.005182315 0.0075069177 0.0017190706 0.007349785 -0.0030377898 0.0086905435 0.0011871636 -0.006468833 0.0047344635 -0.0022174225 0.0079606 0.0058770897 -0.000986639 0.005677284 -0.00796577 0.0067120376 -0.004640359 -1.3623432e-05 -0.0032193076 -0.00793032 -0.010187909 0.0018447896 -0.009620508 -0.00077207264 -0.005204866 0.0023253134 -0.0044194376 -8.807304e-05 0.0055178576 -0.009143234 0.0054512303 0.004177744 0.0029143405 0.007191052 0.008258128 0.0023105931 0.0015290527 -0.007261092 0.006567498
cherries -0.0017601999 -0.004146855 0.010040047 0.0072659454 -0.004085609 0.00590223 0.008967918 -0.0029316915 0.006294308 0.004238631 0.003624712 -0.00337937 0.005417122 -0.00508811 0.0056632515 0.0012421495 -0.008895908 -0.003619974 0.009892448 0.00082716683 0.0034118074 -0.002277088 -0.004604561 0.006636441 -0.0062711625 0.006929517 0.0025510406 -0.006941504 -0.0062011145 -0.0064297537 0.0037516325 -0.005423595 0.0022905914 -0.0032834378 0.0035179018 -0.0032149807 0.0064987503 -0.003914472 0.008847325 -0.0074416394 0.0005775032 0.009641673 -0.009665339 -0.0044498183 -0.0007825778 0.00806629 -0.0014116941 0.0065891477 0.0030190505 0.0043024616
italian dressing 0.0028429306 0.001804279 0.0039687566 0.0025108154 0.007427713 0.0015984583 0.0017361623 -0.008493246 -0.0062382473 -0.0043068314 0.008738645 0.0005012253 0.008158751 0.00526531 -0.008164193 0.009301928 -4.0116844e-05 0.0051426045 0.008692669 -0.0061290865 -0.005164267 0.0017107748 0.00854912 0.0058972337 0.0078110164 0.0081753135 0.00028618844 0.0010324832 -0.0018849084 -0.0013709505 0.0070919115 0.005149842 0.0016815953 0.0053778416 -0.0048327013 -0.008985816 0.009458946 5.078501e-05 0.0015134277 0.004317499 0.004437602 -0.0019200314 -0.0047363387 -0.009998255 -0.0066133556 0.0084054535 0.0071423324 -0.004228092 -0.0072777043 -0.00840056
kiwi 0.0031850412 0.0025600682 -0.00907497 -0.00955881 0.0013236001 0.0028869417 -0.009904436 -0.0011024609 0.00841045 0.00795548 0.0038281844 0.009499436 0.0030140392 0.0032347778 -0.008449381 0.0034233627 0.0012445708 -0.0018091974 0.0058090934 -0.00040045838 0.007392154 -0.00320562 -0.0084815975 0.0067501897 0.0006000724 0.0064604506 0.0071912818 -0.008111728 -0.0007647008 -0.00029771714 0.008144594 -0.0053553763 0.008636548 0.0053224517 -0.0034623875 0.0060830764 -0.002982685 -0.005650462 0.009331488 -0.00048930495 -0.00025664154 0.01007356 -0.009824719 -0.005036031 -0.005406578 -0.0019471775 -0.009147947 0.0039857943 0.0010289314 -0.008322214
tenderloin 0.0007102686 -0.0024854688 -0.005725113 0.007857929 0.0038026453 0.00417381 0.002837836 -0.006472554 0.0060703624 -0.0004893462 0.009140022 0.0079358835 0.009237852 0.000775664 -0.0056196586 0.007931533 0.0048940186 -0.0054644374 -0.003944303 0.0021364659 0.0031367622 0.008039369 0.009274358 -0.004404137 0.0036989278 0.0032435944 -0.004649705 -0.010031006 -0.0050477204 0.0043741916 -0.009867667 0.00920757 -0.0059197396 0.008289925 0.0015972134 -0.009339431 0.004787558 0.007458243 -0.0050213286 -0.00050481653 0.0032042107 0.006705587 0.006816607 -0.000112624264 0.009562778 0.0071438705 -0.005405121 -0.001613661 -0.002719758 0.0006849061
roses -0.006471787 -0.009512787 -0.0027677885 -0.0070478357 0.007304175 -0.0020959717 -0.0085531 0.0049702316 -0.005440987 0.009143379 -0.00081668416 0.0073132846 -0.004958007 -0.008676747 0.00813504 0.0013106953 -0.008620186 -0.004486009 0.0073536905 0.0015796646 0.008551278 -0.0022246498 -0.00089924893 -0.005687239 0.0038756751 0.0055253506 -0.004303933 -0.0016099118 -0.007282635 -0.0049087885 -0.0014820982 0.006918632 0.0031191271 0.010011155 0.0038706071 0.005648197 -0.009584514 0.007663681 -0.0012725786 -0.009513973 -0.0022860216 -0.0034937 -0.0011607007 -0.0023935528 0.0046812394 -0.008970695 0.0024867265 -0.0058751157 0.0011163886 -0.0038023097
brandy 0.001161159 -0.00806909 -0.0063126506 -0.0067079836 0.0097312275 0.001775984 -0.0042588054 0.0019913341 0.002609363 -0.0069389283 -0.0052929698 -0.0055022687 -0.0010219284 -0.0028169907 -0.0073060854 -0.0032222245 0.009254252 -0.00073344447 -0.0086036725 0.0026766635 -0.0036792057 -0.004957065 0.002610582 0.0009071138 -0.00994646 -0.0033213813 0.002275707 -0.0023502815 -0.009428811 -0.0063765114 -0.005720586 0.0049566925 -0.0013545564 -0.008678183 -0.009727353 -0.005177391 0.009004801 0.0064602564 0.002193689 -0.006003054 -0.00948652 0.0013234362 -0.007713542 -0.0053626504 0.009782563 -0.006008282 0.0066211764 0.00093101885 -0.005467451 0.009316659
liqueur 0.005323857 -0.009563183 -0.00015442239 -0.004438106 3.0184347e-05 0.003674861 -0.007254357 0.006090731 -0.0025613094 -0.00715835 0.00870651 -0.005619523 0.0069656516 -0.002029949 0.009600846 -0.003023536 -0.0074962177 -0.009073651 -0.0015472972 0.00048474967 -0.007493586 0.0011983366 0.0049774437 -0.0033399933 -0.00042060646 0.0010085362 -0.0032089928 0.0040827445 -0.0043143015 -0.0095201945 -0.0022853462 0.0023239972 0.0099296495 0.005390625 -0.003934715 -0.009176053 0.0013907446 0.0090055335 0.009959341 0.0057769045 0.0066419393 0.006253563 0.0032523803 4.130194e-05 -0.0009971287 0.0076826573 0.0065999627 0.001521093 0.001272478 -0.0017743262
grand marnier -0.0056323884 -0.0030845585 -0.0037247567 0.006417415 0.008709674 0.006925107 -0.00268199 -0.007943074 -0.005761122 0.00925326 -0.0039775674 -0.0036026349 0.0052560996 0.00078296923 0.0023500843 -0.0049572503 0.004479358 0.005198162 0.0072243284 0.0047203177 -0.0059772944 0.009939096 -0.009716494 0.0016043342 0.009622574 -0.0021687488 0.001474846 -0.000998403 -0.002907954 0.0059290756 -0.006134257 -0.0074944277 -0.0019069432 -0.008930346 -0.005497779 0.0038323437 -0.005683599 -0.009915061 -0.005879688 0.0029229403 0.009525385 0.0045621744 -0.0075657126 -0.0048183324 0.00065604754 -0.006458044 0.001002924 -0.008090725 0.0031707424 0.003203548
sprite -0.003169226 0.008729832 0.005038264 0.00644751 0.009665017 -0.008112711 0.0082263835 -0.007680218 0.00075175386 -0.0012826113 -0.0033479617 -0.0073276693 0.008559381 0.007707453 0.0008656426 0.00761113 -0.00028298542 0.0027720656 0.008827965 0.009359984 0.008900807 0.00045754993 0.009199469 0.007272448 0.003382174 -0.0063069426 0.009655931 0.009724595 -7.0299335e-05 -0.0016385455 0.0055282335 0.0044123093 0.005221547 -0.0043148077 0.005911988 0.005637976 -0.0034314184 0.002384426 7.987334e-05 0.00018156134 0.009917795 -0.0035550492 -0.008581858 0.0030435522 0.0074438206 -0.005200223 -0.008972719 0.00013018394 -0.008162757 -0.00026930645
sesame -0.0063728583 -0.00414199 0.008996157 -0.0026892966 0.010128054 -0.0037509783 -0.009659049 -0.0057736346 -0.0057521006 0.0062169745 -0.009836852 -0.0028104752 0.0017608707 -0.0025283203 -0.006542116 -0.0012738797 0.0019056839 -0.0050737453 0.00726231 -0.0056208894 -0.006401795 0.0030597039 -0.0066437675 -0.0062928586 -0.0013547508 0.009703833 -0.0012628975 0.001924483 0.0005590364 -0.0022392275 0.004713468 0.001985277 0.0019170034 -0.007901319 -0.008132514 -0.0053583244 -0.008125441 0.0082348725 0.0039367545 0.008050503 0.001169331 -0.008947762 0.00068095286 0.009706484 -0.0068470417 0.0030932496 -0.0060095694 0.002990133 -0.0061818277 -0.009036903
medium cheddar 0.0058530276 -0.0050393706 -0.0024960225 0.009026886 -0.0071770395 -0.009697625 0.0068931584 0.0041621095 0.009062365 -0.009371494 0.008782225 -0.0088444045 0.0036768767 -0.003537006 -4.584046e-05 4.355374e-06 -0.005904825 -0.0028833074 -0.0025001876 0.0076118964 -0.0001233777 0.008526809 -0.0070860116 0.002785986 0.004162445 0.0015870329 0.0013277145 -0.010024984 -0.0050669597 -0.007252988 0.0035783239 -0.0014489269 0.0049980176 -0.0030412525 -0.002719139 -0.003254095 -0.0062874896 0.0016817681 0.0025714678 -0.0023467022 -0.0029966538 0.0055206288 0.00473609 0.0037622321 -0.0064662895 0.0067133894 0.00808332 -0.0059854393 0.007849592 -0.0009827164
hamburger 0.0074647362 -0.0051926575 -0.00074390863 0.0059011 0.0009923427 0.0014614008 -0.008225991 -0.0004137463 -0.00018478229 0.0030309146 0.00782175 0.006726239 -0.0013933874 -0.0066064443 0.0035113269 0.004371912 -0.009786136 -0.007143261 0.004763313 0.0022936498 0.003137493 0.0055148317 0.0037632992 -0.008118948 0.009119417 -0.009839842 0.0019779128 -0.003475798 0.009078489 0.0015337425 0.009730329 0.000816827 0.00034722468 0.007537956 0.0023514638 -0.00910776 -0.00085798476 0.0006892007 -0.0011814329 0.001952597 0.009968842 -0.0030317877 -0.0060568275 -0.008860041 -0.00028592107 -0.005733466 -0.0026426231 0.006693493 0.0025777868 -0.0042555626
broccoli -0.006366575 -0.004814663 0.0075478237 0.007344111 0.0031432402 0.008160181 -0.0075524175 -0.0057510044 -0.0038545048 -0.0024623391 -0.006741821 -0.0077070035 0.0061150086 0.007458906 0.0027269144 -0.009147298 0.006470102 -0.0029083733 0.0068467036 0.0048721726 -0.00061801926 0.0008683359 0.009741172 -0.008146265 0.0063784877 -0.004544525 0.0010200083 0.0055992734 -0.009474103 -0.0015830671 -0.008850881 -0.00067537284 0.004728693 -0.009008362 0.0006185264 -0.009673801 -0.0086369645 -0.0058322027 -0.0046009272 0.004963323 0.0049507543 0.0032702915 -0.0056321947 -0.00029668704 0.008854254 0.00995758 -0.006839192 0.0034173185 0.004938426 0.00022017371
oregano 0.0045279963 -0.0076796366 -0.0014448179 0.0068042055 0.0027659144 0.00097447267 0.0039126766 0.002404311 0.0031711916 -0.009197983 0.009650591 -0.0078013903 -0.0024367329 0.006993638 0.0010237034 0.006189791 0.0051689404 0.0031966888 -0.0018218028 0.005590261 -0.0050429637 -0.00489094 -0.00083030557 0.00867416 -0.0047461228 -0.0055664107 0.0048125186 -0.0016849707 -0.009691055 0.0015264218 0.0006220599 0.0028101925 0.009204048 -0.0039622765 0.004996487 0.0019796458 -0.009959752 0.006979613 0.0012840747 0.0012832673 -0.009160075 0.007041457 -0.0026336533 -0.001044861 -0.008414197 -0.008756839 -0.007891686 0.003447295 0.003666026 -0.010016356
marinade 0.0013833108 -0.003037081 0.006720779 0.005375948 -0.008425258 0.0003911366 -0.005054712 0.0072191753 0.007249464 -0.002232319 -7.564677e-05 -0.009534967 -0.0011232324 -0.0018074517 0.0013010601 -0.008649228 0.008352081 0.000897144 -0.009789213 -0.0015392232 -0.0024252476 -0.005761301 -0.002794356 0.0053736055 0.0021372864 -0.0045280936 0.00021663701 0.008151434 -0.0037805405 0.007629827 -0.009251664 0.008631024 -0.0022916452 -0.0073691723 0.009063253 -0.007511757 -0.0048915227 -0.001779579 3.0824696e-05 -0.00058409147 -0.0058800154 0.007253473 -0.00579661 0.0017491605 0.009077527 0.00896375 -0.007601353 -0.008278518 -0.009563709 0.0036287277
sirloin -0.006361219 0.006783517 -0.0008177748 0.008924387 -0.005505471 -0.008417328 -0.0007276692 -0.0070016976 -0.005702605 -0.00079323695 0.008003862 -0.008674053 -0.008043341 -0.007558328 0.007123328 -0.0043039555 0.007449765 0.0055685756 -0.00063954684 0.0032041809 -0.008942535 -0.0009496857 -0.002283283 0.0019996564 -0.0027093191 0.0069598537 0.010023712 -0.0067937803 0.009683739 0.0049763573 -0.003466311 0.0041155736 -0.009235656 0.0033341863 0.0057844557 0.0073126177 0.009672956 0.0048273704 0.00040006993 -0.0072111203 0.005663159 0.0040222295 -0.0073027504 -0.004151152 -0.008377752 0.0043001645 0.005608959 0.007001538 0.0007264889 -0.006458324
asparagus 0.0017606096 0.0065437257 0.0014286188 0.008685959 0.0023823243 -0.003031777 0.00079474924 -0.0082664555 -0.00875001 -0.0036579156 -0.0015784928 0.0022019283 0.008178032 0.0035966246 -0.003159593 -0.004020487 0.00051879167 -0.005844555 0.0031788428 -0.0037810444 -0.0024617768 -0.009191256 -0.008060062 -0.009407501 -0.0089631695 -0.0038756356 -0.002545887 0.005168233 0.0088426005 0.0058473665 -0.0034522098 0.008474215 0.0023564515 0.000925735 -0.0069774846 -0.0011141904 0.0006120232 0.0015285589 -0.0032933438 0.005334772 0.006156784 0.0018390407 -0.00869981 -0.005685999 -0.0042415494 0.0036107393 0.0066017867 -0.009306571 -0.0018528033 0.006394853
tortilla -0.008303761 0.006521676 0.00978952 0.0039782524 0.0036039613 0.007682693 -0.007719201 0.0077983136 0.002382051 -0.009341982 -0.0055638268 0.004945193 0.007429046 -0.0013587275 0.008998587 0.00066158304 0.0032720556 -0.0069666123 -0.0057265153 -0.004370117 0.0042604846 0.0007204654 0.006193151 -0.0046539456 -0.002749569 0.0065693436 0.00044108854 -0.0009931515 0.007308512 0.006987846 -0.0076190643 0.0009168313 -0.009673698 0.008382095 0.0050859554 -0.0051947166 0.0036685686 -0.007883112 0.0055424585 -5.028219e-05 -0.0039098943 0.007889359 0.003123649 0.0030815455 0.0021233063 -0.008492602 -0.007180359 0.0023380432 0.0041013476 -0.0012639556
lentils -0.009015313 -0.008014169 -0.0076720375 -0.0043422263 -0.008139204 0.0009045371 0.0058626262 -0.008243735 -0.007665167 -0.00051312125 0.0057934746 -0.0045197373 -0.0093052145 0.0031593898 0.0001534276 0.006351438 0.009292364 0.008351174 -0.0047001056 -0.0072203143 -0.0037924517 0.0037884878 0.0035874306 0.00044300675 0.0033851536 0.005363556 0.0015997128 0.009821258 0.009694375 -0.009062276 -0.0077810087 -0.005360868 0.0042996234 -0.0051012966 -0.0033676852 -0.00014841696 -0.009306346 0.0063572563 -0.0015375195 0.0028449637 0.001438799 0.008058555 0.002359101 -0.0013251327 0.0030347088 0.009813905 0.00089633017 0.0035248138 0.0023502265 -0.0031593523
vinaigrette -0.00041954682 0.004215003 -0.0071482114 -0.0077848327 0.0024728486 -0.0015848033 -0.00629554 0.0061208033 0.008635462 0.0033393272 -0.009952405 -0.005824458 0.007815654 0.0017532753 -0.008037697 -0.004398507 -0.007211528 -0.007013805 -0.004489275 0.0028457977 0.0024878557 -0.00956016 0.00957905 0.003991213 -0.0034044748 -0.0044239745 0.0032344956 0.0011092672 -0.0019765107 0.007903365 -0.0021453828 -0.0072740195 -0.003465136 -0.009092298 0.00978655 0.0005809628 0.0020024264 -0.0010053698 0.004698704 -0.009404597 -0.002468113 0.0028267237 -0.0046031214 -0.0034872082 0.0035465427 -0.0019169332 -0.005216882 -0.0060230005 -0.0038960772 0.006348656
berbere 0.003938622 0.0056237294 0.00016028532 -0.0017570874 0.0006477916 0.008691825 1.29769005e-05 0.0011693897 0.006627899 -0.0017766763 -0.0029931606 -0.008343765 -0.0042244713 -0.0073484234 0.004450232 -0.0069644577 -0.006372988 -0.007032055 0.0043034675 -0.0054817423 0.0052145096 0.00702949 0.0061898883 0.009257968 -0.0046215015 -0.00581781 -0.006333579 -0.000108206674 0.008208554 -0.00842286 0.00611684 -0.0063072867 -0.008993206 -0.006537928 0.008290459 -0.0008936381 0.007610292 -0.009727685 0.0020584355 0.0022309104 0.00048112642 0.0053513716 -0.004184086 0.009409542 0.0025039848 -0.006008871 -0.007105841 0.0033261594 0.0018895463 0.009451295
saltine -0.008982569 0.007425029 -0.0019171244 -0.0004690079 -0.0042616455 -0.00992751 0.0021357397 0.0020607444 0.0026106902 -0.00027589718 0.0008460319 -0.0009775558 -0.007944186 0.009270935 0.0064609144 0.0029594842 0.004900642 -0.0061935745 -0.0075069317 0.002361246 0.0048120716 -0.004438695 0.0029464415 0.0032224378 0.000816826 -0.005828422 -0.0032644195 0.008549038 -0.008671246 -0.0005770779 0.0010313375 0.00026744735 -0.0058898977 -0.002553149 -0.005420754 0.004312394 0.000589215 0.004099894 0.0057282634 0.007459414 0.0009489698 -0.009434506 -0.004064823 0.005055955 -0.0013583081 -0.003154867 -0.0031842259 0.0080135055 0.008952941 -0.006122641
teriyaki sauce 0.006227345 0.008206395 -0.0052902335 -0.003590037 -0.0071350886 0.00364192 0.0076089986 0.0056912876 -0.00046999045 0.0041966075 -0.008984162 0.0002584087 0.00980729 -0.0087266285 0.0047837617 0.009186614 -0.0002117988 -0.005704923 -0.00085729477 -0.008190193 -0.0027209204 -0.0016761788 0.0080332635 -0.002880645 -0.0084323995 0.006432195 -0.004639992 0.008258047 -0.008330491 0.0018903755 0.0043599466 0.0012030541 0.007582312 0.0011616376 0.0035902364 -0.00085249817 0.001146761 -0.006214266 0.003988652 0.004618215 -0.0018735729 -0.0073187524 -0.00928401 0.009091595 0.0056369607 0.0021563536 0.0056954273 -0.0070792953 0.008182395 0.0016221878
cookie -0.0014030975 -0.003809931 0.0035299896 -0.0014167333 -0.0042992556 0.0059862966 -0.0005426615 -0.0056304126 -0.004568493 0.008166398 0.0056348243 -0.0021893647 0.0006711231 0.0066077923 -0.00717532 0.001279357 -0.00027560536 -0.005727336 -0.0046572066 0.0056072655 0.0078725945 -0.0009596061 0.004723624 -0.005454065 -0.0037792157 0.0066312114 0.00944737 -0.009111929 0.009318017 0.0003917033 0.0062474473 0.0015167171 0.008926698 -0.008312326 0.0040004617 0.001408157 -0.0023248163 0.00058373355 -0.00065368396 -0.0028969992 0.009331196 -0.003586149 -0.001775238 0.0075118905 0.0057914197 -0.00820529 -0.0067841364 0.0049658064 0.0064436207 0.0043306137
stevia 0.0021605818 0.009882858 0.0062093455 0.00481546 0.009427238 0.005760509 0.0052796714 -0.008583847 -0.0020011668 0.0027582336 -0.005635021 -0.0051956773 0.0070293522 -1.7881051e-05 -0.0022856982 -0.005914159 0.009173277 -0.001085942 0.008221877 -0.0052765706 0.005752263 0.0021613836 0.0029265475 -0.004825677 0.0047025527 0.001690287 0.0054988437 -0.0021926505 0.009563032 -0.003187409 0.0045084823 -0.000587809 -0.00026026543 -0.005967067 0.0076374994 0.0036559775 -0.009530115 -0.0012131782 -0.007845029 -0.005812834 -0.00209685 0.007982201 0.0062872977 -0.0073815915 0.0038477138 -0.0056737154 0.0077433703 -0.0022417007 0.0071784467 -0.003858749
halibut -0.006764962 0.0071056685 0.002503779 0.004511114 0.009424189 -0.009426441 0.006256253 0.007782141 -0.006001915 -0.007847737 0.006392118 -0.0015313425 0.007324282 -0.009247698 -0.0042928997 -0.0018750963 -0.005219186 0.0034687005 -0.008538732 -0.0051517626 0.009786267 0.004529472 -0.0055875084 0.005168302 -0.00082024134 -0.0043610716 0.0021753453 -0.00035424167 -0.006444045 0.0005755646 -0.00894491 -0.003592352 0.0089465175 -0.009857929 -0.0005883936 -0.001594502 -0.0015794561 -0.00047424197 0.00397009 0.0055024037 0.008392694 0.0034475767 -0.0039718216 -0.008390137 -0.007950961 0.0029199177 -0.002176987 0.0009010139 -0.0020477986 0.008410517
squash 0.008630421 -0.0040446143 -0.0048137745 0.008706495 -0.008549742 -0.008738309 0.000115683164 -0.0010045986 -0.0060282517 0.004842132 -0.0018146217 -0.007037809 0.00965362 -0.008539439 0.0045767887 -0.0027684623 0.006839745 0.0043006116 -0.007969619 -0.0009096143 0.00025622855 -0.003112803 -0.007081701 0.0048681227 -0.008163887 -0.0018910983 -0.0075610154 -0.0056397356 2.2104103e-05 -0.0017616035 0.004096869 0.0063249064 -0.008575904 -0.003907275 -0.0026392736 0.009956736 0.005494924 -0.0075305747 0.0021435532 0.006599939 0.009073861 -0.007515169 0.008783279 0.0069716894 0.008470764 0.00086643756 0.0028862862 0.0003998181 0.0036858232 0.0003582165
lemonade -0.0010667447 0.0019362741 0.009534607 0.0065346495 0.005543099 -0.0094683 0.0027202093 -0.0009578248 -0.008043247 -0.0083205765 0.0064683934 0.0044288104 0.00400634 0.00782127 -0.0064528757 0.0036358186 0.009235122 0.004090426 0.0050167874 -0.0007685198 -0.0012410682 -0.0016724223 0.0024681801 0.0058465106 -0.006424134 0.0032628826 -0.007992164 -0.0019222703 0.0078015765 -0.0053305933 -0.005800036 -0.0036745411 0.008998469 -0.008993319 0.0010494435 -7.7357414e-05 0.0057222275 -0.008794783 -0.00530221 0.010098829 0.0013663194 0.0014707366 0.0033953579 -6.88511e-05 0.006103317 0.009145491 0.0012259297 0.0054889093 -0.0048519783 0.00231565
chips -0.008751134 0.0035514822 0.003060464 -0.0023312354 0.0020863437 -0.002248946 -0.008013433 0.0073176487 0.009254422 0.0015222573 -0.008852354 -0.004900578 0.0017991491 0.0024576073 -0.0062731574 0.006650398 0.006273999 -0.0032323536 -0.008495924 0.006240062 0.0012750111 -0.005191295 0.0046358407 0.007910126 -0.005635944 0.0002574961 0.00064390496 -0.0063709603 0.0020323556 -0.002041116 -0.0068913703 0.006652461 -0.0017546958 0.0018638467 -0.0042827465 -0.007354462 -0.003524679 -0.00960567 -0.0010145976 0.005213665 0.00057129626 -0.0025876698 -0.007446715 0.005010223 0.0062431837 0.0059980904 -0.00066602865 0.009100295 -0.006410718 -0.0034624054
chocolate -0.002112879 -0.00032222766 -0.0041792057 0.002503916 0.0022927779 -0.0065109273 0.00412259 0.0076374426 0.0067485534 0.007941515 0.009651863 0.002662385 0.00600448 0.009658903 0.003610636 0.009076704 -0.0066782823 -0.002850896 -0.0049308166 -0.009642425 0.009848881 -0.008794445 -0.0048332317 0.009078087 -0.0057413867 0.00903344 -0.004953869 0.0079379035 -0.0033228267 -0.0019300345 -0.008956288 0.005394904 0.0017453749 -0.00024148215 -0.007168136 -0.0058196164 -0.0048040203 -0.010044777 -0.0050037997 0.0032752068 -0.009811324 0.0048266724 0.0083351815 -0.008843003 -0.0019263006 0.007922125 0.009934808 0.00042261873 -0.00047215962 -0.008844707
raspberries 0.007005133 0.0045502745 0.0093272 -0.008467802 0.007964468 -0.003148991 0.0022846875 -0.0044846158 -0.0049397764 -0.0005324499 0.0068178205 0.0070041465 0.0059448243 -0.009117076 0.002182877 -0.008982971 -0.0023179797 -0.00036512222 -0.00972799 0.0054383897 -0.007277996 0.0008158924 -0.0054751737 0.009896624 0.0013592069 0.009177185 0.003349968 -0.006768786 -0.0006491989 -0.0042290944 -0.0099814795 0.0065312157 -0.008607775 -0.0018585038 0.0052187433 0.0071398495 -0.008758155 0.00236164 0.008407353 -0.009333491 0.0039365576 -0.004281694 0.008137503 0.0032727004 -0.009517623 0.0067557343 -0.0075320126 2.2858514e-05 -0.00948854 -0.0067419666
pectin -0.004867853 -0.0061918804 0.007875553 -0.0011700551 -0.0070397407 -0.0059548477 0.0033473938 -0.0067049805 0.008018504 0.009301254 0.005711721 -0.0042387787 -0.0033101768 0.006264219 0.00090738153 -0.008389664 -0.0069005108 -0.0058602258 0.001809255 -0.00073354685 -0.007903845 -0.0031223102 0.009307957 -0.0044422434 -0.006863523 0.00922297 -0.008296968 0.00412524 0.006207601 -0.0028568204 -0.002921132 0.0027187043 -0.0071098018 -0.007296953 0.0043494985 0.00067711354 -0.004769048 -0.0052924296 -0.007905255 0.0052670036 0.003283975 -0.0066301697 -0.0032278958 -0.003894738 0.0053338516 0.0065113218 0.0076825838 -0.008467936 0.0011004664 -0.0068002674
certo -0.00987399 -0.00951378 -0.009156025 -0.0031614085 0.007859547 0.0027491278 0.0034251416 -2.8245664e-05 -0.004190343 -0.0005788969 -0.00019334543 0.008895821 0.006866927 0.0027621703 0.0015825377 -0.005559444 -0.0069405506 -0.008192475 -0.009336579 -0.008376286 -0.006667041 -0.004903354 -0.0043635527 -0.008042158 0.004140465 -0.0050419467 0.008726612 0.006054529 -0.0034259183 -0.003098527 0.0012620123 0.007664676 0.009140002 -0.005670255 0.0006813092 2.1638329e-05 0.009179453 0.007922432 0.005020072 -0.0072737276 0.0017476378 0.00020253436 -0.009874172 -0.009392274 -0.0071131033 0.0036048405 -0.0031234818 0.006366428 -0.00081588706 0.0033511322
bread 0.009081632 -0.0068056844 0.007903637 -0.0018248461 -0.0012718029 0.004957491 -0.008414829 0.0073222658 0.006521089 0.007454432 -0.009765858 -0.008684252 -0.0054956092 0.0026772008 0.007680866 0.0010182613 0.001180312 0.0037410266 0.0005780921 0.00277249 0.0074381954 0.006307978 0.003709681 -0.0038743196 0.0075502764 -0.008233394 0.0058020996 0.0014104808 -0.00026815638 0.0031281742 -0.0021681667 -0.009644688 -0.0022381693 0.009001888 -0.007779481 -0.004070289 -0.0034799434 0.003057888 0.009338112 0.0078923805 -0.007847759 -0.00027102054 0.0052233925 -0.0009480834 0.0022816672 0.0016441696 0.0074584205 0.0046080337 0.00014675045 0.0049622376
raisins -0.006093547 0.005777321 -0.004998223 -0.0061709755 -0.00079960347 0.0065411306 -0.008062295 0.0086913835 -0.007589649 0.010020312 -0.009266371 0.00022099858 0.0057957554 -0.0038074316 0.008762811 -0.003711551 -0.0008875712 -0.0007056161 0.0018286597 -0.004226268 0.0022888682 -0.00556075 0.00420493 -0.0074702874 0.0034377165 -0.009926544 0.008223201 0.009300268 -0.0053398325 0.0064148614 0.004726578 -0.008614215 0.0037730245 0.0076833074 0.0038554564 0.007374713 0.005247082 0.005513305 -0.00635128 -0.0076898895 -0.0011007393 -0.00085044926 -0.0085555175 -0.0065338085 0.007446629 0.0047993776 -0.0008951886 0.003088794 -0.009832284 -0.009724134
crabmeat 0.004037872 0.006280976 -0.00788234 0.0020442803 -0.0014165974 2.5249019e-05 -0.0011135262 0.0009003401 0.0018388525 0.0042028176 -0.0020440125 0.007662096 0.009480378 -0.008510695 0.008222706 0.008675813 0.004971406 -0.005311008 0.009333008 0.00084179436 -0.008243359 0.009543747 0.0036440936 0.0012468757 -0.0016496858 0.0016687049 -0.006771628 0.0009754974 0.007933484 0.0013543273 0.0056986655 -0.0012042236 0.009426747 0.0015389173 -0.0055217836 -0.001225251 -0.005189663 -0.00894033 -0.0037845501 0.007072787 0.009364635 0.0068278452 0.003982767 0.001984601 0.0075495993 0.0026453722 -0.000880937 -0.008159067 -0.006126864 -0.004954147
jar -0.005716565 -0.0064509804 0.009973757 -0.008542088 0.0018121056 -0.00056060095 0.009769265 0.0038705252 -0.0076060183 -0.008300503 -0.005476771 -0.0014842161 0.009692591 0.0054250886 0.0026494542 0.0032775446 0.00631703 0.0012238642 0.009247222 -0.009972824 0.007822303 0.0006144952 -0.0032410126 -0.0077230395 -0.006973753 0.009153526 -0.007211992 0.0066547985 -0.0014227749 0.0020763194 0.0060469517 -0.0009443983 -0.0010439993 0.0050119995 -0.0023399978 0.009816679 -0.00777437 0.008651619 -0.0017984193 0.0076512923 0.004354724 -0.0015966037 -0.0010037418 0.003078711 -0.003262282 -0.006557888 -0.0021752522 0.003018063 0.004737249 0.0063011744
pizza dough -0.003328956 0.008306154 -0.0069624763 -0.0039429916 0.0021546532 0.0055810804 0.005121674 -0.0068584215 -0.000400684 0.00093115063 -0.003164025 -0.0065838215 0.0034639293 0.0011789781 0.004137312 -0.009615777 0.008040662 0.00938541 -0.0037885173 0.0075632804 -0.008270456 -0.004085375 -0.00911778 -0.0078103994 0.008641051 -0.003834136 0.009755685 0.007631143 -0.007336893 -7.19248e-05 0.00028395033 0.0018386464 -0.008562836 0.0081154145 -0.0038965463 -0.0031981664 0.0022634694 0.0032391704 0.0058047147 -0.0005614606 -0.002103666 -0.0064448547 0.0033250966 0.0049568554 0.0019718911 -0.0025666198 0.010123987 -0.007861874 -0.003937952 0.006560989
leek 0.00011553882 -0.0037507568 0.008500218 0.005811219 0.007359227 -0.00049255526 -0.00013438624 -0.0004016825 0.004627426 -0.0052227513 -0.008247305 -0.0037885963 -0.0074349483 0.0024182908 -0.0028484524 -0.008933628 0.0027424474 -0.001102522 0.007785186 0.003715482 -0.0034862987 0.00081606116 -0.0014859595 -0.0021328954 -0.0076214424 -0.0035368623 0.0024188182 -0.0004625295 -0.005580821 0.0012990348 0.0063460586 -0.008703685 0.0032205323 0.006749746 -0.008264093 0.0013833183 -0.007827352 -0.008918019 -0.006451307 0.0016238376 0.0051957923 0.0009027616 -0.0048844814 0.00068762526 -0.00669548 -0.0016617803 0.0026997968 -0.005488983 -0.0064658998 0.009774533
nutmeg -0.0018651146 0.0063272067 -0.008089106 0.0070466916 0.0031266809 -0.0091391215 0.006263967 -0.0015746083 -0.001045528 0.009305108 0.009191659 -0.0017501797 -0.001222026 -0.0013590003 -0.0015162907 0.00041449285 -0.0055794474 -0.0064965333 0.006507697 -0.00016760611 0.0018364168 0.004783497 -0.0066232374 -0.007310515 0.0010389221 0.0024111823 -0.0033393637 0.009812639 0.0029096166 0.0014605771 -0.0031877425 -0.005725518 0.008654544 0.009973716 0.005431313 -0.0024220645 0.0012395607 -0.006586257 -0.0045626457 -0.0063580708 -0.00028713763 0.0075176875 -0.008968245 0.005896984 -0.0060918974 0.0044425484 0.007525834 -0.008620668 0.0058408347 7.382194e-05
tequila 0.004193884 0.0050483244 -0.008144984 -0.005530298 0.00626334 0.0067892415 -0.0028517172 0.0033902503 -0.00786874 -0.008544474 0.0075699124 0.0075608343 0.004828187 0.005270676 -0.008790166 0.0048563858 0.0039558723 0.009771098 0.0046335724 0.0038063088 -0.0038225132 -0.0024146023 -0.0027529045 0.0035351482 0.009507941 -0.0069742156 0.008244209 -0.0074124797 0.008809586 0.0047454834 0.00880195 0.0044780765 0.003159161 -0.004748849 0.006795931 0.0061231777 0.008469082 0.006413932 -0.003337426 0.009279781 -0.004589608 0.009754462 -0.010049425 -0.0073664645 0.0008783292 -0.008443451 0.005743467 0.009189826 -0.0035655482 -0.0051108524
triple sec -0.009392083 0.00038514737 -0.0009846197 -0.0058751768 -0.006488323 0.0064449785 0.004562159 0.004091825 -0.004215543 0.00030899775 0.008308641 -0.00462532 0.0005164254 -5.0797655e-05 0.008905466 -0.009871066 -0.0015037627 0.0028680477 -0.0077326004 -0.007930048 -0.0007887553 -0.002205033 -0.009543417 -0.0026444108 0.0048364745 0.0013697785 -0.0037967085 0.008214687 -0.0056471773 -0.0029842916 -0.005952461 -0.0050278828 0.009876952 -0.0037711305 0.009755029 0.0077911746 0.003944894 0.006585759 -0.009416383 0.0038705566 0.00855121 -0.0042649903 0.0012039001 -0.0018768325 0.009909464 -0.0034301365 0.0085624615 0.009969479 -0.0027448148 -0.0006595492
buttermilk -0.0052042236 -0.0074819666 0.0038159024 -0.0075865793 0.009629392 -0.0005283966 -0.0060987873 0.0059801796 -0.0052765445 0.009039369 0.0058144396 -0.0070671975 -0.008769521 0.00660432 -0.002053484 -0.0026981153 0.0039148973 0.0045885267 -0.0083734915 0.0029379434 0.0015580788 0.0044791144 0.005134851 0.0060010776 -0.008283283 0.0018252145 -0.0053117415 0.009392914 -0.0071889497 0.0065643922 0.0041120322 0.008328228 -0.0050031655 -0.0023485925 -0.004340673 -0.008010452 -0.005817244 -0.008738195 -0.0001459154 -0.0076968665 0.006629048 0.0070570046 -7.704776e-05 0.0075549795 -0.0034089468 -0.008627879 -0.005951961 -0.003923989 0.004042252 0.0066337795
chile -0.0020039252 -0.0030102292 0.005969296 0.0022655898 -0.004014077 -0.0023384872 0.009337796 -0.00065454084 0.0015695816 -0.004187778 -0.0044436343 -0.008702691 -0.00076592644 0.008007933 -0.0040947916 -0.00081440853 -0.005104488 0.00014021949 -0.004529029 -0.0066730487 -0.008299129 0.0014699068 -0.0042283847 0.009460019 0.002901469 0.009397265 -0.0030906533 -0.0085765 -0.0046622134 0.009010371 0.0012526321 -0.0074832514 -0.0071044117 9.980833e-05 -0.003711331 0.008154399 -0.008893938 0.009244833 -0.0061292197 0.003405413 -0.0024185963 0.0011853914 0.00224349 -0.004658133 0.0030710434 -0.0018540072 0.003088378 0.006983343 -0.0012650624 -0.00096089573
poblano chiles 0.006142266 0.004941331 0.0041265967 -0.007983552 -0.0030366734 -0.0067638457 -0.0085151065 0.0029963339 -0.0027001922 0.0020203532 -0.006308173 -0.0007616472 -0.0018212146 -0.008194231 -0.0032521589 0.0020125725 -0.002910568 -0.008188758 0.00079717266 -0.0047060545 0.008379728 0.009010444 0.005523085 -0.0038459308 -0.008796566 0.0030234065 0.009181164 0.007827241 -0.009227015 0.0028616043 0.004493848 -0.009225566 0.0014852977 0.007613643 -0.0058167605 0.0018428727 0.0074331462 0.0074649467 -0.0076367646 0.0046412153 0.00709964 0.0012452679 0.003316394 0.0055949176 -0.0012152627 0.007904292 -0.0017997682 0.0044445973 -0.01006509 -0.007870313
grain -0.004217467 -0.0017984818 -0.006731974 0.0017606531 -0.008423612 -0.006639878 -0.009286482 0.00072014745 -0.004928266 0.002432874 -0.0005746366 0.0049020727 -0.009102263 -0.009950392 -0.0014107927 0.00977451 0.007592623 0.003838898 -0.0076049785 -0.0004362341 0.0010113621 -0.007850739 0.0040133526 0.009640429 0.00045331006 0.009294769 0.006944736 0.0062587773 -0.00843895 0.0059092483 -0.003878998 -0.0027297004 -0.001578 0.006352109 -0.001415774 -0.0040771635 -0.0003222642 0.00888902 0.004116972 -0.0015974416 0.0072350446 0.008996403 -0.00063359534 0.006533267 -0.0043985606 0.001360225 -0.0013037617 -0.0060630753 0.0028236988 -0.0071701347
yeast 0.004068329 0.0016154911 -0.008094441 -0.003291355 0.0010542601 0.0068304427 -0.008782339 -0.008487429 0.005884473 -0.002857616 -0.009773257 -0.006321835 0.00095463754 -0.008714555 0.0048431796 0.008758361 -0.0074684643 0.005801628 -0.0041012354 -0.005037233 -0.004142481 -0.0027516948 -0.0075095007 0.005600868 0.007825082 -0.003732046 -0.0081053125 0.0009805126 -0.006825207 0.0010837812 -0.0075879986 0.005316564 0.003655849 -0.0011670641 0.007522326 0.009233305 -0.004452294 0.0016234514 0.0074854237 0.00465922 -0.0043308884 0.0007291812 0.008742096 0.0057791905 -0.006829124 -0.0004395829 -0.0027104898 0.00250359 -0.004570087 0.0074280947
avocado -0.0058846334 0.009513926 -0.0032825405 -0.0054782727 0.0061787767 -0.00073878776 -0.0050811996 0.008053927 -0.006825761 0.0041177236 -0.008354361 0.00060641667 0.0062403074 0.0037680862 0.009255321 -0.009046542 0.0054816282 0.002946592 -2.4552268e-05 0.0007947856 -0.002111391 -0.008300986 0.005503188 0.0079298755 -0.006678452 0.0036771684 0.00878813 -0.0004203235 0.0008894762 0.0046103206 -0.0077383723 0.003998763 -0.0045122053 -0.0034142784 0.0090443315 -0.0027820314 0.0026219594 0.0007018322 0.0047619604 -0.0032945422 -0.0041960673 -0.0019129195 0.0014972487 -0.009897215 -0.0023238622 -0.006163963 -0.0038129534 0.00133679 -0.002545397 0.0043745693
