187 50
pepper -0.003324237 0.006544254 0.0069123325 0.0036805405 0.009715306 0.007899703 -0.0007874577 -0.0019053159 0.0078756 0.0069866744 0.0019270261 0.0015419079 -0.0037625036 0.007637891 0.0066908346 -0.007812999 -0.0069748173 -0.0017313214 0.005031241 -0.0014263231 0.010089071 -0.0095186895 0.009496431 -0.007914916 0.009132481 0.005288592 -0.008808147 0.0020962362 0.004000821 0.0013043098 0.00025406404 0.0004923619 0.006725597 0.008807208 -0.0021499852 -0.008411444 -0.0061608604 -0.0048614983 0.010474792 -0.008120443 -0.0006138837 0.0034502416 0.004710985 0.009000993 -0.008286206 -0.004689817 0.0021489204 -0.0015719314 -0.0059976843 -0.0076663266
salt -0.0005804744 -0.0008358014 -0.008973953 0.0076021333 0.0030842058 0.0066938004 0.006333349 -0.0064951675 -0.0012840085 0.0023438851 0.0062486934 -0.0046952562 0.0020923698 0.0064261653 -0.0027706895 -0.008626121 0.0007904954 0.00035828442 -0.0068763033 0.006703554 0.0076916227 0.010088439 -0.0015739637 0.0026213622 -0.009312585 -0.0054244515 0.007271972 0.008785114 -0.0030771333 0.009751696 0.01021259 0.0025258192 -0.0063478746 0.005707138 -0.007541086 0.0045698467 0.0025989509 0.0022908186 -0.0006775768 -0.008223517 0.0048906114 0.0056564524 -0.0028396703 -0.007274013 -0.00087013486 0.0034858354 -0.0037985214 0.0044727717 -0.00791348 -0.0029657648
cheese 0.00092354894 0.0003738735 -0.009601103 -0.0047003194 0.00048938685 -0.008064606 0.009663017 -0.0017948296 -0.0026072634 -0.0034253502 0.0017509413 0.0043900334 -0.001677639 -0.008818411 -0.00028155214 0.0055988696 -0.008496947 -0.0074264393 0.0004233448 0.00914443 0.005700924 -0.0021390491 0.0006383587 0.0072523127 -0.007729623 -0.006302226 0.0066234623 -0.003950962 -0.009346685 0.006805468 -0.0027368376 -0.0030504568 -0.0009979856 0.008196825 -0.003909717 0.00848647 -0.0051703155 0.004425444 0.00044812987 0.0010935361 -0.005523718 0.006602674 0.008914962 -0.004673338 -0.0006122707 8.1139915e-05 0.0050655655 -0.009630858 -0.0067178174 -0.00027662504
butter -0.0011749996 0.009832304 0.0082474025 0.008895319 0.0053737666 0.004596585 0.0061592716 -0.001403729 0.0040072785 0.0021166203 -0.0070011537 0.004025808 -0.000595978 0.008003085 0.010199221 -0.00082574564 -0.004080158 0.005536537 0.0013125183 0.009086839 0.0008025038 0.0024869079 0.0038263947 0.00076226547 -0.006487013 -0.004062297 0.006724104 0.007375898 0.0046142866 -0.0026957064 0.0042943098 -0.0013257219 0.0029909762 0.0039937817 -0.0071461066 -0.0033633579 0.009815902 0.00492467 0.0028381567 0.0075831874 0.0021662884 -0.006821843 0.00037502116 -0.006652279 -0.0054054065 0.0029897331 -0.0028646255 -0.008021616 0.00822278 -0.007969222
sugar 0.005262285 0.0045724325 -0.0043277694 -0.005791714 -0.0033479468 -0.004776608 -0.0057608457 -0.009446406 -0.0066948025 0.008815672 -0.009155403 -0.004685166 0.007225367 -0.006584761 0.0071269847 0.007182386 -0.0027443115 0.0012373358 -0.008507131 0.0061504534 0.0090259025 0.010030598 0.006780962 0.006775534 -0.0045011863 -0.00656464 0.0005838903 -0.0001537889 0.008530143 -0.0052876384 0.0032525018 0.006158172 -0.002576419 -0.0071037323 -0.0022382508 -0.004798408 -0.0071609346 -0.00085546734 -0.0021766303 -0.007963002 0.0039340085 0.008294397 0.004502383 -0.0042687887 -0.0083362935 -0.00017781327 -0.0056019314 -0.0093272 -0.005340403 0.0036813098
garlic -0.009540826 -0.004154712 0.007883626 -0.0015804942 -0.008382422 -0.007897879 -0.008273403 0.0016308057 0.0018108985 0.0016036868 -0.0050644344 0.009714416 0.005641871 0.002115595 -0.006120021 -0.0014503008 -0.0033311117 -0.0029873045 -5.9915717e-05 0.004757555 -0.0036925238 0.0023957484 -0.00884312 -0.0036807414 0.004533267 -0.008709859 -0.00019499904 -0.001503697 -0.0024785772 -0.0067176614 -0.009184184 0.005946975 0.0015032059 0.008631918 -0.007263242 -0.008390817 0.003800103 -0.0029680822 -0.0016254488 0.0029776525 0.00078549865 -0.009003979 -0.0053981133 0.008774986 0.0015191262 0.009066071 0.0030680774 -0.0060606296 -0.0004783322 -0.008586489
egg 0.0077776075 0.009667034 0.009460228 -0.0050224364 -0.008080362 -0.004212922 -0.008702142 0.0030250251 0.0023814228 -0.0034521152 -0.0021710359 0.005808069 0.002526376 0.0060023316 0.0023746598 -0.004594117 -0.0030121568 -0.0013263891 0.00062166125 0.004831389 -0.0050294576 -0.0020094146 -0.0009229099 -0.005213791 -0.0019015303 0.0050440333 0.006641338 -0.0038006345 -0.003589649 0.0024076928 -0.0057455436 0.006307032 0.00094686483 -0.0010648156 0.0034486887 -0.009482673 -0.0034495387 0.0023187299 -0.007033648 -0.0008843063 0.0015127943 -0.0031589866 0.0020066013 -0.004393151 -0.008603473 0.0007219175 0.000624045 -0.008995658 1.9102707e-05 -0.007057201
juice 0.007102372 -0.0075151646 0.0071481974 0.00043138347 0.0067126006 -0.0067347377 -0.005389606 -0.0021834518 0.0009771277 0.0035788447 -0.0077855014 0.0007062675 -0.0017138564 0.0080342395 -0.0065855617 0.0048746043 0.00041423066 -0.0049331468 0.0024735418 0.0058310227 -0.0046147774 -0.00011775995 -0.0068136165 0.0076439325 -0.009654506 -0.0028449988 -0.0049096816 0.0038417878 -0.0071024834 -0.0026004652 -0.0016815612 -0.007978356 0.0035535083 -0.006953487 0.0019958622 0.0035970556 0.0028414666 0.002226499 0.0049216514 -0.0034756637 -0.008249226 0.008794486 0.0017856502 -0.0028409648 0.0033475268 -0.0064637586 0.006554568 0.008837142 0.0042518415 0.009710972
cream 0.0066918386 -0.004662381 0.002473131 0.009514156 0.009200269 0.007035705 -0.010154807 -0.005302873 0.0031859747 -0.00935199 0.009144942 0.008687613 0.002729408 0.0033003201 0.008451357 0.003173129 -0.0012180742 0.0092088925 0.007425531 0.0018812739 0.0011411416 0.006571208 -0.0045812246 0.0016794526 0.0036016125 -0.0048560286 0.0022360256 -0.002907618 0.0044571366 0.00076158973 -0.00020626902 -0.006682088 -0.0008048933 0.002186854 0.007526223 -0.0019919006 -0.009202254 -0.0058961436 -0.0016469174 -0.0051341965 0.0034829266 0.008700692 0.010566737 0.0029420739 -0.009216598 -0.008999738 0.006379138 -0.003397858 -0.0022959325 -0.008482376
water -0.007547496 0.009149593 -0.0095459735 0.005416 0.00901557 0.0071246815 -0.0062931227 -0.006938817 -0.0035702733 -0.0036310214 -0.0033958412 -0.006260904 0.005150831 -0.0041394415 0.00042360227 0.005504429 -0.008005801 0.0022925003 -0.0009876095 0.0071617896 0.008415444 0.0092070475 -0.005815362 -0.004807649 -0.0027718714 0.008386475 0.0017003908 0.0037669726 -0.005011862 0.009403272 -0.002182183 -0.0020561516 0.007221197 0.0015007454 -0.004016213 0.00073315104 0.0040354 0.007498955 0.0050811283 -0.00735383 -0.00819732 -0.00968307 -0.006886825 4.3891792e-05 0.002041206 -0.006005841 -0.0014094766 -0.009867351 0.0012035234 -0.00031920997
flour 0.004107974 -0.008487235 0.008322109 0.0044812066 0.0032334565 -0.0002405253 -0.008314037 0.0036315795 -0.0034533688 0.005274559 -0.00020538784 -0.0060848463 -0.0016796049 0.005700379 -0.0009895483 0.001336174 0.0030167133 0.004620562 -0.0047034356 0.004903174 0.0060744714 0.0030001383 -0.0031694244 0.007821868 -0.006122089 0.0031284138 -0.0046587605 0.006678535 0.0014408119 -0.0058442457 -0.0024425816 -0.009674878 -0.008306329 -0.004578545 -0.007484969 -0.0033332566 0.0047025857 0.005276919 -0.008380767 0.008552109 0.009252792 0.0042830002 0.0032840201 0.009637479 0.0008293263 -0.0038126938 0.0057301973 0.007221687 -0.007940532 -0.0037723742
oil -0.0044212383 -0.0017526853 0.0031147439 0.005735064 0.008689734 -0.00020867065 0.0036270095 -0.0074253585 0.0035830978 0.00061496213 0.0039517065 0.0015493989 3.1561773e-05 0.0043103327 0.0019023042 -0.0016218291 -0.0037101316 0.001405799 0.00077589526 -0.008464989 -0.0061958167 0.000685105 0.0045480123 0.003500127 0.0070526516 0.0038100267 0.0054550036 -0.007079395 -0.004831744 -0.0030915935 -0.0061209556 0.0032629285 0.009727965 0.0030830102 -0.0075779343 -0.0075367778 -0.004449455 0.00067399634 -0.004067282 -0.005326188 -0.0011270688 -0.0076828687 -0.004848861 0.00621607 -0.0050962036 -0.00504442 0.0096900845 0.0029280875 0.008815647 -0.006820769
onion -0.0069240495 0.008247825 -0.0016948082 0.0015101804 0.0068358853 -0.003340953 7.1274466e-05 0.00682564 0.00078729057 0.006348744 -0.00892824 0.0040527335 -0.0055293622 0.009786802 -0.0073299757 -0.0056173396 -0.005698492 -0.0037475922 -0.0062963255 0.0017816669 0.0046017705 0.0076956977 0.003372579 0.0034354676 -0.0006502402 -0.009955245 0.008968877 -0.007291704 -0.005739908 0.006648862 0.007735341 -0.0019093005 -0.008851529 -0.00028410443 -0.0020561484 -0.005076595 -0.00053785346 0.00043250268 0.0011624135 -5.8216874e-06 0.0020237954 -0.005468457 0.0062767984 0.0066724243 0.009173172 -0.00035839627 0.0023574065 0.008007157 0.0024319864 -0.010164197
vanilla -0.0041331695 -0.0034869818 -0.0034558407 -0.009330184 0.0053962003 0.005837556 0.00018695259 -0.008865534 -0.008099738 0.0015857334 0.0016137387 -0.0029990014 0.009953995 0.0036711963 -0.007003829 -0.0027024674 0.0050425096 0.0032896535 -0.003714337 0.0048320205 0.007491967 0.0061037666 -0.0003453271 0.008670284 -0.009150648 0.007754695 -0.006544557 -0.004967761 -0.0083666425 -0.0045519876 0.0015536385 0.0031455199 -0.008973791 0.006371067 -0.0016545485 -0.00025407627 0.0048411596 0.0077124825 0.00084079144 0.007987434 0.0072712475 -0.0033981726 0.008568433 -0.006950947 0.0037126099 0.00072912395 0.002231942 -0.009855822 -0.0050351988 0.00578798
milk -0.005864222 0.0009561729 0.0056703654 -0.0052120606 0.0045530098 0.004067855 0.004683602 -7.6159e-05 0.0039450815 0.004752726 0.0030308093 0.001685914 0.005115653 0.0020480168 -0.005278244 0.009662642 0.007206479 -0.00087907823 -0.001818446 0.003368915 0.0013165269 -0.00162879 -0.0071513094 -0.0014571964 -0.0040821997 0.0055534104 0.0005214636 -0.00049449416 0.0004957508 0.0045866487 -0.0006139303 0.00157814 -0.0016917674 -0.004147744 -0.008307963 -0.00059985765 0.0041259807 0.0075057675 -0.00012865027 0.008856173 0.006314689 0.005012646 -0.0004543693 0.006137804 -0.007463547 -0.00047385602 -0.0070505287 -0.006398437 0.00033421742 -0.0011224169
lemon -0.008051922 0.0016704 -0.007128112 -0.0029431258 0.0037803573 -0.002119165 0.0076746256 -0.0069181183 -0.009237991 0.008874199 -0.0068762684 -0.0032690875 -0.003984726 0.0008783041 0.0057693897 -0.002941481 0.009468444 -0.004919539 0.009116074 -0.00610264 0.009226688 0.001967364 0.0036601943 0.007848897 0.008165013 -0.0071256855 0.005177266 0.00085469946 0.006926493 -0.0056621055 0.0022640703 -0.0021865468 0.00018299193 -0.0064441403 -0.004556797 -0.010416589 0.007640253 -0.0068788384 -0.00069583463 -0.0027340734 -0.0027627116 0.008015409 0.0058813146 0.0013665512 0.0075017074 0.001397134 -0.0021791055 -0.0022067449 -0.0040096845 0.004183803
orange -0.0052868747 0.009236707 -0.0003229045 0.005900387 -0.0037760825 -0.008223043 -0.008953882 0.005377215 0.0052292054 -0.00074386224 -0.0088010775 -0.009315356 -0.0032273752 0.006266271 -0.0019838326 -0.004579955 0.005976293 -0.004017467 0.0016733118 -0.0054985285 0.005854077 0.008570272 0.007981554 0.0010753907 -0.006880583 0.008373863 0.008172652 -0.0068825413 0.0026278533 0.006468431 -0.004632733 0.0027748852 0.0065468363 0.003969813 0.0008245869 0.008234282 -0.001928085 -0.006797408 -0.00783836 -0.009119232 -0.0017198595 -0.008410324 0.0068690684 -0.00810446 0.0065554758 -0.005626817 0.009261553 0.0020143166 -0.009873479 -0.00040946715
greens 0.006806775 0.00847298 -0.007145231 0.0023517292 -0.005896455 0.006702912 0.00564748 0.00013349022 0.006504255 0.010147867 -0.0017219519 -0.007958727 0.00049852947 -0.0044955625 -0.0097416695 0.005913017 -0.00568119 0.009445304 -0.0057536513 -0.0067538815 0.002850633 0.004548416 -0.0074996874 0.0052781175 -0.0007206427 -0.010389338 0.008906514 -0.0072154286 0.0068410076 0.0070021553 0.0035243477 0.0013832445 -0.0009270731 0.0047487705 -0.0067305416 -0.008467297 -0.0033190716 -0.0037483945 0.0007665361 0.0031788559 -0.00083251484 -0.0034204777 -0.003203004 -0.0002972476 0.007455143 0.009356016 0.0011579478 0.002268939 0.0013431706 0.005561764
tomato -0.004086635 0.0022263334 -0.009640323 0.008247269 0.0032311426 0.0043856483 -0.010064352 -0.005109865 0.0048936657 -0.0060106176 -0.006497658 0.0036129449 -0.0088248355 -0.0051512076 0.00089746906 -0.0031128505 -0.003106412 0.009813472 -0.0027260524 0.0011996384 -0.009152986 -0.0013648879 -0.0010073821 0.002812344 0.000777279 -0.010078903 -0.0019276225 0.004483472 0.006207029 0.001306936 0.0001842694 -0.00460852 -0.0060754055 0.00984889 -0.003473907 -0.007027405 -0.00041175284 -0.0021590218 -0.008034737 -0.009001134 0.009747715 0.0067685205 -0.0033472895 -0.0055339937 -0.0028203838 -0.00024003134 0.008447082 0.005864422 0.0055231997 0.0069375644
cinnamon -0.0074834116 -0.0074352105 -0.0023291556 0.008746482 -0.009250353 0.007404119 0.00030848547 -0.00033319654 -0.0024188717 -0.009577047 -0.0010308513 -0.00052030996 -0.007216308 0.0027211292 -0.00789487 -0.0026424564 0.0055941986 -0.002750627 -0.0059553883 -0.003709729 0.0050242087 0.009427686 0.0023036913 0.0044871755 0.004030861 -0.0024644847 -0.008784244 0.0035710188 0.003532375 -0.0075995084 -0.0077235675 -0.00043672437 -0.0055938014 0.009719959 0.00644515 -0.006443552 -0.009390728 0.008910758 -0.0022377865 8.869668e-05 -0.0051076156 0.0077444324 0.0066542854 -0.008570269 -0.008540095 -0.0063163033 0.0063514686 0.0022145042 0.009281487 0.005748319
vegetables 0.006809187 0.0050181895 0.009968406 0.008392371 -0.008166243 0.0038665722 -0.004819215 -0.0017123788 -0.0018430545 0.0004501156 0.00017348024 0.00056438026 -0.005547991 -0.0044828 0.0031195285 -0.00039826293 -0.0009984579 -0.0069356267 -0.004003498 0.009501093 -0.0019913157 -0.00600582 0.008511404 -0.008571493 -0.0035038828 0.009282948 -0.006824815 0.006374155 0.0041933837 0.006424607 -0.005938574 -0.00679248 -0.00960351 0.0018469166 0.001752586 -0.010038358 -0.004805297 0.0050936644 0.0022266163 -0.0028431963 -0.0023570715 0.010070146 0.008366244 0.001427084 0.0023860016 -0.0048205825 0.003591885 -0.007236454 0.0071488544 0.00029468752
clove -0.0075377105 -0.0067762383 0.008026112 -0.0028711578 -0.00013224503 0.0105959475 0.00063637324 0.006676334 -0.009773198 0.0020073669 0.0076384153 -0.001015772 0.004429071 0.0063309926 -0.0063405866 0.0030925027 0.008488545 0.008388221 0.0030344198 -0.0023786782 0.006484222 0.0072124028 0.007428147 -0.009415253 0.00451508 -0.00057593297 -0.0041394066 0.0072541707 0.0012935629 0.001464085 0.007942915 0.0045729442 -0.0075998385 0.0058286805 -0.003810806 0.008949599 0.0004051006 0.0022795766 0.0044142273 -0.00028652584 -0.0018088361 -0.008824628 0.00588776 0.0057821902 0.002154617 -0.0045117307 0.0030015064 -0.0024076023 -0.0052518 0.007843921
fat -0.0033934475 0.007688363 0.0098534655 0.0027660106 -0.005047503 0.0002846827 -0.0076438733 -0.007946874 0.00010102957 -0.0007890413 -0.00017774168 0.005432298 -0.004183287 0.0031595654 -0.002008615 0.0013617736 -0.008677902 0.000844105 -0.008785402 0.0010866168 0.0014668859 0.00075869425 -0.007709727 0.005930129 -0.008293585 -0.00034963313 0.005192099 -0.0045935633 0.007370303 -0.0014289367 0.00974764 0.0068357773 -0.0049605193 -0.00066245865 0.0012011458 -4.231125e-05 -0.00030159976 0.009100591 0.007136145 -0.003964282 -0.00790509 -0.00971433 0.0005681794 -0.0025382682 -0.00772749 0.0043259296 -0.002336628 -0.007666789 -0.0032802185 0.0019935085
olive -0.009133774 -0.0021160955 -0.007575194 0.0075722677 -0.0046631354 0.007341264 0.008480771 -0.004078249 -0.005570493 -0.0009649075 -0.009855807 -0.0060331514 0.007435894 -0.007138304 -0.00019585514 -0.004059074 -0.0037812283 0.00904923 0.00083566713 -0.007967589 0.007333757 -0.009642116 -0.0003566699 -0.0017553379 0.00044231256 -0.009671318 0.0018174808 0.00879396 0.009619145 -0.00096261455 0.008245458 0.0025521144 0.008795037 0.008635952 0.004761667 0.009522482 0.005390439 0.0010022247 0.003709646 -0.006484224 -0.007830549 0.0049160738 -0.0056145606 0.0055262153 -0.0068144063 0.0009334499 0.008613585 0.00340944 -0.0022258528 0.00028084093
potato 0.008315907 -0.004677601 0.0015941019 0.009135983 0.010061106 -0.005893965 -0.0070898323 0.009005943 -0.0019511322 0.007118357 0.008637125 0.003071887 -0.0032041767 -0.006079644 0.0012669822 0.0075677442 0.008937347 -0.003655339 0.0034966317 0.0005857147 0.006772632 0.00832476 -0.0017806427 0.0026196158 0.007106478 -0.0095954975 0.000117571806 0.0035177923 -0.0038554112 -0.0087746475 0.0029685295 0.00974824 0.0012025575 -0.003655189 -0.005375472 -0.0016350918 -0.0059131198 0.008757624 0.0059069013 -0.0054012947 -0.0052848253 0.001587006 -0.00054542336 0.004424657 0.0017762791 0.0031271463 0.003578633 -0.006369049 -0.0063534877 -0.008638006
baking soda 0.0032426247 -0.009544682 -0.008190416 -0.0015918706 -0.0061579184 0.00512678 -0.0010975384 -0.008022631 0.006205404 -0.0013629585 -0.0051831855 0.005660899 -0.0027411357 -0.006955552 -0.0072279987 0.0039784033 0.0015978301 0.005508273 0.00083706237 0.00079712906 -0.004531239 -0.0040389216 -0.00811605 -0.0041238624 0.009334005 0.005469155 -0.00024381408 -0.0050724405 -0.003385683 0.001439847 0.0093381945 -0.005240414 -0.005599382 -0.0017776598 0.0078122853 -0.00635789 0.005551238 0.009493351 0.0037940626 -0.010113237 0.00873513 -0.00738095 0.010192949 -0.0052947383 0.0023519273 0.0053100465 -0.005093663 5.1744406e-05 -0.0014426623 -0.0022027937
wine 0.0059093162 -0.0007131016 0.00046624674 0.00081358006 0.0054277666 -0.0044787573 0.00712709 -0.0008893445 0.0029147733 0.00086136424 -0.0009369553 -0.006915252 -0.0046424526 -0.0012430141 0.009430461 0.0014184878 0.008395134 0.00790728 0.008439882 -0.0010574058 0.009414199 0.00068183005 0.010118358 0.003834703 0.003612248 -0.009251791 0.003959987 0.007073563 -0.0042210813 0.0009886246 0.002243132 0.0063501345 -0.00524726 0.0017389973 0.0021861466 0.0074186414 -0.0047188234 0.0020851356 -0.008449506 -0.000567941 0.0036520038 -0.00032351658 -0.00920822 0.0007707848 0.004879014 -0.007617979 -0.008801832 -0.0048268647 -0.0032218809 -0.007020768
chili -0.005179259 -0.0035294883 0.0035620597 0.00952001 0.009051174 0.01018474 -0.0051035373 0.009821006 0.0083117895 -0.005201549 -0.007665301 0.0062521 0.005224547 0.008846943 -0.00077980367 0.0007148968 0.0073514804 -0.00573558 0.0061981212 0.002622655 -0.00454504 -0.006119728 0.001879909 -0.004714878 -0.008209203 -0.0020978244 -0.009004346 -0.008035855 0.009727595 0.0034328436 0.0017514718 -0.007242556 0.0019013541 -0.0024492713 0.005086961 -0.0063018966 -0.0041328156 0.009851304 -0.0026083144 0.004612097 -0.0012443382 0.000999195 0.0041792486 0.005979977 -0.0048314445 -0.0015970392 0.0073979693 0.008324917 -0.0011694635 0.0005335
stick 0.0012743246 -0.0036191354 -2.4613702e-05 0.0013299569 0.00784928 0.004431899 -0.005148623 -0.00633581 0.000183771 0.010183561 0.008684071 -0.009940557 0.0071251444 0.0090362 0.00025976324 0.009666624 0.0057623484 0.0012631716 0.0065139346 -0.003160586 0.00316263 -0.007042747 0.0019822181 0.0071132584 0.003151525 0.006354997 0.009123308 -0.0046895035 1.3374658e-05 0.004301115 0.003628368 0.001954739 -0.008232645 -0.008326885 0.0022774446 -0.008603124 0.008792541 0.0076449937 -0.0072732144 -0.0053970017 -0.0071775303 0.0100802835 0.003915489 0.005504419 -0.005538146 -0.009944738 0.0014981872 0.008992092 -0.0055643343 -0.009348687
vinegar -0.0002113186 0.0035579538 -0.00024790966 0.0027176098 -0.0051857023 -0.008837981 0.003485723 0.00708285 0.007558695 -0.004345254 -0.0059606833 0.00089329865 -0.008088946 -0.0027181986 -0.0073448736 0.000587417 0.0009452215 0.0038662155 -0.0021849936 0.0032626234 -0.0051964265 0.004688643 -0.0072000436 -0.00051177584 -0.004896413 -0.008916347 0.0046440247 0.0054697543 -0.0010128309 -0.0018749739 -0.00832857 0.009704319 0.0032689883 0.010196967 0.0016360079 -0.0046312297 -0.003272524 0.009507557 0.010153505 0.0014226339 -0.005664289 0.009815891 0.007224864 -0.0026039528 0.0012951439 -0.003052468 0.008804872 0.003855961 0.0067941067 -0.002482586
coconut -0.0066199754 -0.00068105455 -0.0013037691 -0.0031314588 -0.0038899784 0.01034066 0.0021282304 0.008305533 0.0030950077 0.0010018416 -0.0055306517 0.00041239228 0.005989111 0.0033348773 -0.0004825479 -0.001116259 0.0055766543 0.008867063 -0.0066142743 -0.009111427 -0.008128813 -0.00787498 0.0030983868 -0.0019707358 0.008087767 -9.384706e-05 -0.0037917893 -0.0035986353 0.00081575237 0.0076045096 0.0041409275 -0.009871921 -0.002985329 0.0015723836 0.009253351 -0.0037122793 0.0065088756 0.0045022992 0.0017751568 0.009134962 -0.0028392687 -0.009475625 -0.009212486 0.005022411 -0.0059070406 0.0030381123 0.0076901508 -0.0016458334 0.0018030251 0.0014468099
beef 0.007397567 0.003967356 -0.0027619414 0.0066633997 -0.0053324355 -0.009656327 0.002365199 -0.005685763 -0.0033939676 0.008707722 0.00083034806 0.0059682443 -7.073671e-05 0.0076414975 8.5685926e-05 -0.004004279 -0.0016128896 0.0024287316 0.006816053 0.00754671 -0.0027674676 -0.0039313487 -0.0054887864 -0.00765885 0.004291248 -0.0073027685 -0.008212398 0.008176695 -0.0010745653 0.0043209763 -0.004355998 -0.002525277 0.001210498 -0.00089839916 0.004454223 0.008479892 0.0013458865 0.0028128535 -0.002489068 0.0012795613 -0.002144128 0.0036733411 0.001983123 0.0072325063 0.0014332837 0.0015350169 0.008832072 -7.294006e-05 0.0055464907 -0.00471583
baking powder 0.003925753 -0.003671731 -0.0013266297 -0.0031306746 0.009293182 0.008135811 0.006986008 -0.0062341937 -0.0038847686 -0.004375395 -0.008027735 -0.003230915 0.009267517 -0.009363472 0.004297103 0.0078007863 0.0058036894 0.0033890114 0.0040441914 0.005701178 -0.006025352 -0.006660451 0.0031658772 -0.00086883514 0.0074763284 -0.00036642276 0.0044436934 0.004822266 0.007253615 -0.0004515539 0.009012882 -0.00032071958 0.007950191 0.0065200645 -0.00049136946 0.0013410326 -0.009330119 -0.004787553 0.0053632855 0.002900419 -0.004301734 0.004406471 0.0010883366 0.0014363684 0.00072058203 -0.0013993625 -0.0053492566 0.009323232 -0.007126072 0.006132165
ginger 0.009680783 0.0063683735 -0.0072728726 -0.0025848937 -0.0077673406 0.002407941 0.009704781 -0.0067963502 -0.00858973 -0.007830841 -0.0021936796 0.008746782 -0.0010447847 0.0088570565 0.0044654007 0.004038674 0.009321527 0.006109138 0.007926016 0.002257665 0.0099722175 0.0005477243 0.0056084734 0.0029956726 -0.006747073 0.004345119 0.007921267 -0.0075330236 0.0065108677 -0.0036328076 0.0055509377 0.003551924 0.0029385758 -0.0015636316 -0.005448094 -0.006196605 -0.0056279805 0.004358771 0.00809072 -0.009414803 0.001260213 0.0092381 0.0051373905 -0.0032418685 0.0057501057 -0.009649598 -0.0016063921 0.004619455 -0.00818625 -0.008453904
banana -0.002781799 -0.005179488 -0.005952825 -0.007872761 -0.0044670072 0.006108798 0.0089933975 -0.007564115 0.002211829 0.009390826 0.008323334 0.0047792643 0.007575811 -0.00044429352 -0.0036503577 -0.0021855338 0.008356366 0.0041373274 0.00052206917 -0.0074047595 -0.0056352247 -0.009390359 -0.009722742 0.009283813 0.0043255175 -0.000601024 0.0024443304 -0.009904925 -0.008496673 -0.0012671165 0.007870721 0.0033137302 -0.0014783104 0.0030265718 0.008205017 -0.009092146 -0.0030054115 0.002355123 0.0048964056 -0.0016889758 0.0017636779 0.009152545 0.006445184 0.0063467734 0.004734103 0.006764876 -0.0002262876 -0.0068226783 0.0051786397 -0.0044023814
candy 0.00018137567 -0.006685842 0.0047361706 0.009261216 -0.00632403 -0.00010211246 -0.009658112 0.00915108 0.0063576596 0.0011224665 0.0014162081 0.009304012 0.0021337688 -0.002131041 -0.0013442177 -0.0052966913 -0.009234402 -0.0073562525 -0.006953 0.000102700236 -0.0017013982 0.0076833204 0.008438098 0.0031012876 0.00529956 -0.008768663 -0.0041718227 -0.0038618103 -0.007279463 0.005597208 0.0016260709 -0.0025663394 0.0038676558 0.007985641 0.004058094 -0.00044049026 -0.01012151 -0.0076480866 -0.0018880252 -0.005155483 0.0071181185 0.003280633 0.0074012363 0.0072719227 -0.0043881815 0.0046169655 -0.0071301996 0.0043722554 -0.008457144 0.00454382
candies -0.008966682 -0.009399426 0.006287012 0.003168268 -0.0043622837 -0.005509391 -0.0060072513 -0.0094293635 -0.006014268 -0.005298624 -0.002549886 -0.0075352667 0.008838198 -0.009395433 -0.009332369 0.00905308 0.0003218735 0.003661086 0.0023379063 0.0024048372 -0.008182052 -0.005716791 0.00027322426 0.0010916999 0.00044514923 0.003445203 0.006356877 0.0036670354 0.008805961 -0.0005441356 -0.005217914 -0.00647268 -0.007006095 0.0014286884 0.006975474 -0.009087387 0.0046350705 0.009845655 -0.0022754015 -0.003792702 -0.008005826 0.0070172595 -0.006772939 -0.0017810243 0.0009927549 -0.0016859181 -0.0014447528 0.008616375 -0.000810439 -0.008882726
extract -0.00417107 0.00093177485 8.825749e-05 0.009665723 -0.0069274516 -0.0033788942 0.009055304 -0.0064633186 -0.009358919 -0.0049162824 -0.005466511 0.0050519947 -0.0005912635 -0.0045198393 -0.0043097734 0.009366689 0.008825964 0.006904533 -0.0045086076 0.0008927289 0.0024990488 0.0077502434 0.008233912 0.0075836056 -0.0011306148 0.0070125693 0.010004144 -0.0015455837 -0.0024893838 -0.0031168621 -0.0055389423 0.007123299 0.0015221069 0.0024021226 -0.007290411 0.007816233 0.0036538276 -0.0029837065 0.009235242 0.009518611 -0.0044438955 -0.0023065787 0.005756241 0.0060405955 -0.0005659308 0.003304972 0.002160828 0.009665832 -0.0021677576 0.0004468546
chives -0.0002312684 0.004976442 0.0029219808 0.0017600761 -0.0037171228 0.0016213639 0.0038122367 -0.0015204716 0.0009380448 -0.0019045782 0.0071396497 0.0023470277 -0.008324227 -0.0008494655 0.0025837165 -0.00012866192 0.0072568427 0.009255731 -0.0011726776 -0.0025332863 -0.0039463867 0.0038960916 -0.0010686064 -0.004793573 -0.0029390564 0.009491962 -0.0031541728 -0.0020968383 -0.0068876147 0.005631003 0.0036811896 -0.00010005631 -0.0034784519 0.0034868766 0.0044582137 -0.007469578 0.009072798 -0.002448551 -0.0033913457 -0.008687963 -0.0040743905 -0.0010375358 0.0020763392 0.003828792 -0.0055395295 0.008785835 -0.0003431335 0.005717376 -0.006527626 0.0028049992
honey 0.004370506 0.004482664 -0.009873867 -0.001659522 0.009694601 0.00801847 -0.005191751 -0.0046571977 0.00911418 -0.004160619 0.005886188 -0.0074860635 0.00071168796 0.00786919 0.006864131 -0.0075939093 -0.0030498067 -0.0040594344 0.0076181563 -0.0023874932 -0.005586569 0.004506351 0.0043800785 -0.0047158175 0.0076235533 0.0047006304 0.0009864063 0.0056786817 -0.00237211 0.009928479 0.003895216 -0.0013546081 -0.006105893 0.0067912387 -0.0026432911 0.0005833378 -0.0009800324 -0.008048057 -0.00665157 -0.0026020529 -0.0068810037 0.0012186954 -0.008549873 -0.009433146 0.0069040307 -0.0032295114 0.0003332529 -0.007868969 -0.0032106596 -0.0060948287
cilantro -0.0026432283 0.001223184 0.00892098 0.00777037 -0.009496851 -0.0050354367 0.009095719 -0.002185459 -0.009357582 0.006459625 0.008515233 -0.00028233032 0.0017384249 0.004196978 -0.0010433058 -0.008006741 -0.0013022734 0.005566225 0.0012412515 -0.009391998 0.008047841 -0.0036722284 0.0052824714 -0.008232251 -0.002804155 -0.0038657316 0.003562496 0.008268363 -0.0036354025 0.0050839838 -0.0046890737 -0.008447154 -7.913686e-06 -0.008229517 -0.00757665 0.00504146 -0.0038392225 0.0018691414 -0.0016415309 -0.009353869 -0.007150273 0.0056010904 0.0013350047 -0.008276062 -0.00074661005 -0.0018656431 -0.008656441 0.0025743656 -0.0026841038 -0.0017042896
basil 0.005182365 -0.0006996268 0.0045953337 -0.0041926266 -0.00688929 0.007584794 -0.006536803 -0.0059923404 0.0078036534 -0.002315322 0.0034434744 0.00064253324 -0.0049836673 0.0027179848 -6.686513e-05 0.003944885 -0.008971582 0.0031524953 -0.0019228411 -0.002075347 0.0024771427 0.0047067613 0.008661449 0.0057800626 -0.0071057947 -0.0030035235 -0.008834502 0.00042851293 -0.008428236 -0.0045828056 0.0016202694 -0.00084776076 0.009764339 -0.00040314384 0.006324937 -0.006386712 0.002406541 0.01004317 0.010034408 -0.0011838732 0.001492408 -0.0067512505 0.0016990765 -0.007502753 0.00671769 -0.005725733 -0.003433761 0.0053584287 0.0048457463 0.0066544185
corn 0.003966392 -0.001178117 -0.0022025798 -0.0026047053 -0.006548477 0.00022534117 -0.0010880145 0.00955743 -0.00022885634 0.0029387467 0.00954617 -0.004689452 -0.002920412 0.00041487365 0.00090213184 -5.039557e-05 0.008435202 -0.004375788 -0.009640998 -0.0088153165 -0.0042205043 -0.0060897064 0.0032991802 -0.0035585703 -0.009902123 0.0069417628 0.0042598364 -0.0065569896 -0.0009891653 0.004468031 -0.0030979451 -0.0077967285 -0.005140583 0.00068064104 0.004788177 -0.006776636 -0.004553982 3.4215605e-05 0.0048079053 0.009809865 0.008135167 0.006305693 -0.009143039 0.0046867784 0.0031935715 -0.0043724272 -0.005225833 -0.0012685994 -0.007729883 -0.0031446817
nuts 0.008224459 0.0004781659 -0.0046378914 -0.00882408 0.0049990984 0.005652314 0.0076056058 -0.0089559015 -0.0039232476 0.0070654866 0.005684167 0.0066202935 0.0034773038 0.009173591 0.00688647 0.0013110351 0.005505494 0.005300904 0.0015979576 0.0013611468 -0.00069038913 -0.0048846435 -0.0040334812 0.006341864 -0.0060604624 0.007321114 0.004126449 -0.0067622084 0.009577627 0.005127225 0.0067322436 0.002005528 -0.0055647423 -0.00915884 -0.0008378285 -0.008848488 -0.0033321648 -0.0049933004 0.0039229137 -0.0075600725 -0.009877546 0.00538163 -0.007605155 -0.008117587 0.006045016 0.0035975208 0.009208254 -0.006281044 -0.007960717 -0.0045976345
chicken -0.0014442046 -0.0028113874 0.0050562927 0.0100239115 0.0032941147 0.0012801518 -0.0054942626 0.0024961561 -0.0027211006 -0.0075352066 0.0018076558 -0.009930626 0.003973294 -0.005954878 -0.00706973 0.0026761515 -0.0068795267 -0.006373707 0.005099413 0.0036019862 -0.0060471604 -0.002181451 0.008278148 0.0056680758 0.001207156 0.0060329186 0.0071829045 -0.009794539 -0.0031570618 -0.003807396 -0.0011216252 0.00027271349 0.0072788494 -0.006426076 0.002848103 0.0063942946 -0.006646456 -0.0011050809 0.0056791613 0.0038405748 0.008418624 -0.0015879873 -0.0071823867 -0.0008391497 0.0032412815 -0.009755315 0.00901397 0.001987194 0.006454279 -0.0034673626
yogurt -0.0025609848 0.0034237718 -0.007155195 -0.0027376367 -0.0027192745 -0.00011965427 0.0030688348 0.0028629901 0.005327013 -0.0029682475 -0.0007484143 0.00793055 0.009414171 0.0069405814 0.0031810931 -0.008657864 0.0054058544 -0.0012300268 -0.00012814085 0.008255324 -0.00054293155 -0.005536648 -0.0037979104 0.007841668 0.007834424 -0.00068609795 -0.0037369186 0.0012572145 -0.009215901 0.0053497073 0.0026429268 -0.0043189917 0.004851213 0.008482122 0.0014619288 -0.0064572757 0.0047996235 0.009647706 -0.001304657 -0.00847964 0.0046773846 -0.007276277 -0.006108139 -0.0048954687 0.009069565 0.0029180816 -0.008326186 0.009628566 0.0022988566 -0.002274677
rice 0.0023589747 0.0012739383 0.00809298 0.009628966 0.0055088657 -0.0038665151 -0.009749295 0.0051466883 0.0035181271 0.0019206563 -0.00062363327 0.0011870243 -0.0040488425 0.0044069686 -0.009218209 0.004698143 0.0048622233 0.009853861 -0.004765529 -0.0010209122 0.0045507047 -0.0081608435 0.009028013 -0.005957439 -0.009024122 -0.0036169023 0.009129237 0.0020696684 0.0077049355 -0.009583061 -0.002509821 -0.0071156146 0.008072951 0.007661956 -0.0038841441 0.005122806 -0.005854347 -0.0053804154 -0.0033417398 0.009182709 -0.0020762756 0.003837525 0.00739637 0.005707319 0.0044657965 0.007029477 -0.0035264557 -0.009724555 -0.00069092517 0.008726155
carrot -0.009771268 0.003528658 0.0007995414 0.00053261325 0.004396253 0.0054537808 -0.0006894096 0.008550066 -0.0069600507 0.0036947306 0.0038477206 0.008684425 -0.004841492 -0.00039377267 -0.0022211925 -0.009860546 0.0058013815 0.009624039 0.001713278 -0.00015439039 -0.0039199926 -0.0007534155 0.0039853677 0.0065202136 -0.00028434646 -0.0017094564 -0.00036965657 -0.0019183359 0.0054857284 -0.0038055098 0.0067901397 -0.00910172 -0.008010328 -0.006101784 0.0009104164 0.004642599 -0.0037050343 0.0090034725 -0.0015230187 0.0006270302 0.0010579694 0.00064800563 -0.0045627523 0.008582351 -0.0018442739 -0.0063802116 0.003780218 -0.0050718687 0.0042415033 0.003320244
seeds -0.009681158 -0.008361385 0.0054316125 -0.00430719 -0.00073408213 0.0038988278 -0.0018097783 0.0091915345 -0.0025869678 -0.0032135309 -0.0033923653 0.004126128 -0.005344326 -0.008011624 -0.007530777 -0.0013015408 0.00051122863 -0.0039358493 0.004761366 0.0024249344 -0.0079289675 -0.0051656826 -0.0010023419 -0.0040639592 0.002215114 -0.010217123 -0.0075363494 -0.0068615535 -0.004133971 0.007723712 0.00718207 -0.00547609 -0.009315682 -0.0036969597 0.0003255313 -0.0071766702 -0.0007142305 0.0024433946 -0.009261596 -0.008439805 -0.0012754858 0.0008742337 0.008607004 0.0033502518 -0.0080089 -0.0015270795 0.0048821312 0.00040026204 0.0025212283 0.006962468
broth -0.0032909748 0.0069252024 0.005293597 -0.009517402 0.00430935 -0.0045270603 -0.009173794 0.008601069 -0.0043895245 0.009898295 0.00010366623 0.004295024 -0.0046638064 0.008921638 0.0061659943 0.007685362 0.007615065 -0.0041593807 0.00070541754 -0.0062294505 -0.00097517436 -0.0032508834 0.008712313 -0.0031539928 -0.0039856406 -0.008785698 0.005441485 -0.004197112 0.007046412 -0.0045668622 0.0060159443 -0.005651903 0.00050824374 0.004931216 -0.004565834 0.0023071847 0.0004557167 0.008499301 -0.0057961987 -0.009195044 0.005765052 0.004257824 -0.0050463085 0.0002154711 -0.004236946 0.001054159 0.0027393124 0.0007326036 0.006870833 0.006316123
ice 0.0021918244 0.009525055 -0.00677453 0.005079805 0.009567818 -0.009383554 -0.0068128384 -0.007284541 -0.003991455 0.0052248077 -0.0033913862 -0.00530476 -0.009147991 -0.0037929313 0.0021203805 0.0041223723 0.0029888023 -0.0006679908 -0.00534253 0.0006113655 0.0036841615 0.009895527 -0.008501364 0.0061661713 0.0019598075 -0.0032820348 0.008232031 0.009625271 -0.004527815 -0.0034635058 0.007936942 -0.007867106 0.0001981662 -0.004191896 -0.0039692703 -0.006273193 -0.009208752 0.0037497908 0.009842918 -0.009896234 -0.0061577046 -0.008554218 0.0069289054 0.0030211383 0.0011024502 -0.008493107 0.005922531 0.0047821943 0.008884735 0.0043920963
pecans 0.008624524 -0.009137416 0.008614331 -0.0039393934 -0.006808502 0.006096753 0.0050265603 -0.00050335965 0.0013006956 0.0072811893 -0.0028600327 -0.0032950633 -0.0042164708 0.0018229857 -0.0025400412 0.0007945416 0.005984363 -0.007152423 -0.008363368 -0.0007269475 -0.005380091 -0.0023161077 0.0019480345 -3.886945e-07 0.004553568 0.009363951 -0.007901083 -0.009877566 -0.0046163634 -0.0023294282 0.0063737743 0.0048698825 0.0022470984 0.009862894 -0.009307447 0.0036617497 -0.0048199296 -0.008941339 0.0079536885 0.004771454 0.00419391 -0.009631475 0.008930295 -0.00016157296 -0.005763712 -0.002945157 0.0077096783 -0.008387674 -0.00028204292 -0.009183628
oats -0.007373923 0.0044322247 0.0063013565 0.0084977355 0.0022243403 0.009061077 0.006872947 0.0038436141 0.004794757 0.00734526 0.008104351 0.0073650735 0.0032687904 -0.0026615001 0.0003471966 -0.008053876 0.0057966346 0.009898178 -0.009538422 0.0009216972 0.005624504 -0.00064201775 -0.00087788835 -0.006429404 -0.004824949 -0.004831162 0.009447823 -0.0020966996 -0.0050150063 0.009285324 -0.0054792953 0.0018619075 -0.007815916 -0.0036178844 -0.004619752 -0.008619183 0.00941922 0.006028851 0.010003064 -0.0074458593 -0.0020492142 0.0034793979 -0.006891085 0.0044939877 -0.00076428417 -0.009747822 0.0016433699 -0.0065820976 -0.006474174 -0.0023627623
bacon -0.004052559 -0.0024573032 0.0030962555 -0.0053494284 -0.0038235104 0.001849885 0.0059778607 0.002825551 -0.00034651445 -0.009629869 0.007980288 -0.0058252 0.0007833457 0.0071678045 0.008561715 -0.008671586 0.0052607553 -0.00491145 0.0010458478 -0.007937829 -0.004992559 -0.006440376 -0.007872935 -0.00055063 0.0042849677 0.0080952 -0.0061027016 0.0007273372 0.009258476 -0.004431935 0.0011646576 0.0015975838 -0.0007200674 0.0011028824 0.0031300439 0.0046911575 0.0020564557 -0.008345796 0.0062995446 9.230336e-06 0.0095191235 0.007182436 0.003681805 -0.003125699 -0.0007587359 0.005601868 0.003628747 -0.0006094605 0.0023623547 -0.006517089
sausage -0.009118191 0.006928712 -0.006591097 0.001146745 -0.0030763156 0.009754062 -0.008497672 0.004007564 0.002502848 0.004194437 0.00013355595 0.0019890317 0.006412507 -0.009365664 0.009734593 -0.0059142495 -0.0018297599 0.0033886048 -0.003560702 -7.016324e-05 0.009691885 -0.0073063686 0.0037357365 0.0022908142 0.007975181 0.003980458 -0.006722615 -0.00690417 0.00518607 0.0052243015 -0.002506904 -0.0069511128 0.00041123063 0.008289879 0.008882489 0.0010213545 -0.00574711 -0.004689178 -0.002786522 0.0028108323 0.004968043 -0.008770872 0.006334773 0.004277196 -0.002904345 0.0053419904 0.005904316 0.008305711 0.002208606 -0.0004654159
mustard 0.0036413001 -0.0004382188 -0.004579489 -0.0013308962 0.0054783113 0.006048857 -0.010084347 0.0047449763 -0.0041679516 -0.007762403 -0.0010608095 -0.006821183 0.008589558 -0.009282687 -0.0035713583 0.004193666 -0.00026263128 -0.0035458722 0.0064467234 -0.0045196814 0.0040772455 0.0035457825 0.0050395224 -1.5610576e-05 0.009352102 -0.00043015883 -0.0078026424 0.001988326 0.0055335644 -0.0026596088 -0.0041022245 -0.0098694265 -0.00049812795 0.00544721 0.00072196283 0.004416755 0.008713599 -0.006749541 0.005812198 -0.001519342 0.0066545387 0.0013448561 0.0044624396 0.004225804 0.0024153679 0.004722098 -0.001529732 0.0061627794 -0.0016507937 -0.00077755144
lime -0.00010776659 -0.0008703555 -0.0030240547 -0.0062355245 0.0023037826 0.0036313634 0.0053007584 0.0026362343 0.00012606305 -0.0034914569 -0.0019807147 -0.0077032647 0.0007513788 0.0017548199 0.008373996 -0.006165894 -0.0010948366 0.0011090345 -0.00932905 0.008922535 0.010048217 -0.0030817904 0.0033437 -0.0034388045 0.00081434316 -0.007962597 -0.0020623296 -0.007893704 0.008690247 -0.008640925 0.009111494 0.0049658674 0.0031154924 0.002036994 -0.0036725341 0.0036354032 -0.0064816847 -0.0059913057 -0.00095779117 -0.003106669 -0.005828816 0.002474288 0.007982686 -0.002798725 0.0029679495 0.008788467 -0.0068318495 -0.007188081 0.0077888183 -0.0028883407
penne 0.0058118603 -0.0059177745 0.0072256234 0.0026402134 -0.0029787554 0.0035445287 -0.0068795094 0.009578807 -0.008296472 -0.0073072948 -0.0005686264 0.008540903 -0.009624124 -0.006824089 -0.0051559396 0.009232613 -0.006594144 -0.0008534953 -0.009676655 -0.00847668 -0.007895157 -0.0085455105 -0.0076382896 0.0022012654 0.005575413 -0.0055479347 -0.00015876148 -0.00026287578 -0.000817475 -0.007199358 -0.0054771523 0.0038442875 0.0021124673 -0.00064271933 -0.009293026 0.00889478 0.008176268 0.0021931734 0.009304167 0.0064021125 0.0024059068 -0.0023333568 0.0036877645 0.009965533 0.005720841 -0.009468612 -0.000983143 -0.009847168 -0.0007760714 0.0055333916
celery -0.0027227907 0.003920761 -0.0034758842 -0.000658855 -0.0018448419 0.006412484 -0.0070504295 0.0066090706 0.00022206361 -0.0004012056 0.007016931 -0.008952591 -0.0070668296 0.010100438 -0.0069572893 -0.0018144132 0.000808187 -0.0037170278 0.0011250769 -0.0023085033 0.0069609885 0.00928711 0.005738222 0.006935974 -0.009438545 -0.0021987492 0.003243449 -0.0040571867 0.000324096 0.0042524715 -0.0060387137 -0.009885774 -0.0057501034 0.0065613957 0.0077790376 0.007523444 -0.0021493142 -0.0095133465 0.0003147383 0.0053288313 0.0018675525 -0.004247669 -0.0068019964 -0.00862246 0.00408881 -0.00984019 -0.000297027 -0.0077072005 -0.0027161578 0.005337914
dill 0.005854609 0.0010523306 -0.009585744 0.0031537684 0.00488505 0.009364395 -0.008789316 -0.0011427908 0.007942505 0.0022312864 -0.0019002244 -0.00014606307 0.0049171024 0.006954945 0.006323141 0.0047665886 0.008904815 0.00017004328 -0.009626197 -0.002959007 -0.005368152 0.003583501 -0.003862053 -0.006423587 0.0019131824 0.007762929 0.009103062 0.009097021 0.009502385 -0.0074847275 0.0030006068 0.0049900324 -0.0016861891 0.0033500239 -0.006562859 0.00888079 -0.008657149 -0.007506848 -0.0042459085 0.002422414 -0.0026858835 0.0036883638 0.0024923272 0.004264717 0.0043199994 0.0056726155 -0.0006792757 -0.005322531 -0.003475783 -1.3885569e-05
cucumber 0.0012285963 0.005040012 0.00031664103 -0.0071189483 0.007917681 0.0063380757 0.0076384516 0.004825056 0.0068786303 0.009147681 -0.006143924 -0.0013665968 0.007411218 0.0056573357 0.0097862445 -0.009132183 0.0018411194 0.0027551854 0.006377141 -0.008717652 0.0026685798 -0.0050889445 0.00530322 -0.009213152 -0.004648546 -0.005549568 -0.00800014 -0.00021785333 0.009435005 -0.0060880054 -0.0067189247 -0.0043464275 -0.005519953 0.0019468886 -0.010069897 -0.0004894831 -0.0024289319 0.0028183456 0.0030101063 -0.004859479 0.0074603697 0.009219124 -0.005667678 0.008336472 0.007578339 -0.0004416735 -0.007494991 -0.0007349513 0.004805161 0.008711868
gelatin -0.0076199 0.0008206534 0.00460785 0.0025898525 0.0027192119 0.008201612 -0.00044323973 0.004879956 -0.007070168 -6.372923e-05 0.009494943 0.006351081 0.008087285 -0.008381915 -0.0035811206 -0.0012140026 0.004360111 -0.005417742 0.001014785 0.007637401 0.0042242236 -0.0006448569 0.007094288 0.002363026 0.007478429 -0.00891408 0.0071804826 -0.00039242598 0.00023869601 -0.007790709 0.007856605 0.003516723 0.0030763096 0.0012737522 0.001433564 0.0059138257 -0.008830873 0.00012301936 -0.0031938755 0.001331755 0.0055968994 0.009112508 0.00785133 0.0029121242 -0.0068723015 -0.003862172 0.0024490342 0.0011633842 0.008378193 -0.0089730555
watermelon 0.0023360043 0.0061298283 -0.008678788 -0.0052745333 0.0083087785 -0.0002574429 0.006588465 0.00528209 -0.00020195298 0.006234813 -0.006245522 -0.004321393 -0.0026073677 -0.00056075276 -0.007311163 -0.004794875 -0.006515443 -0.007913271 0.0013024532 -0.0063385074 -0.009059232 0.0047017303 0.007944991 -0.0011404075 -0.00027971732 -0.010013537 0.0022302072 -0.006768827 0.009868634 0.0010337767 0.002627625 -0.008495692 -0.0010060663 -0.004519915 -0.00599687 -0.010059717 -0.0077142487 -0.0009990465 0.008914431 0.004473344 -0.0018844175 -0.0017217727 -0.0013839339 0.0045829215 -0.0073225433 -0.00043881967 0.0019319502 0.0010942519 -0.010101748 0.0048600435
cracker -0.007074139 0.0074949623 0.0062963106 7.358656e-05 0.0032712976 -0.008679185 -0.0034544033 -0.0029832288 -0.0082610315 0.0011439697 -0.006307578 0.0033620351 -0.00644278 0.007047596 -0.005051784 0.0077742753 -0.0032010132 0.00892248 0.0040624393 -0.004588551 -0.0009470936 0.009420382 0.008539392 -0.009139136 -0.0030752546 -0.006713145 -0.00060400995 -0.0002495474 0.007262697 -0.00740064 -0.0076380665 0.008016603 -0.00033852804 -0.0012001178 0.007527592 -0.0070661083 0.004190995 -0.0033074552 0.0075566503 -0.0019927481 -0.006662638 0.0084533 -0.001260925 0.0060446295 -0.008815331 -0.0098206345 -0.0016990129 0.0016320985 -0.008025787 0.0011647101
soy sauce 0.00044011296 0.007195846 0.00765186 -0.0004948881 0.009841371 -0.0004706826 -0.0001783396 -0.00076731073 -0.006453888 0.0030857534 -0.009799398 -0.0072305007 0.00790456 0.0013388023 -0.0054941596 0.007539731 -0.009744117 0.0011518446 0.0061530196 -0.0058938568 -0.00027303028 -0.005180183 -0.0054335212 0.008447733 0.0056249406 -0.00012160596 0.008261169 -0.006337807 -0.006900907 -0.001818263 -0.008473356 0.0025126233 -0.003902861 0.00054609677 -0.0028332488 -0.005295204 0.007305891 -0.0043258364 0.008182721 0.0062047113 0.0042489935 0.006443819 0.0028777071 -0.0021799814 0.0029001439 -0.0065866006 -0.004584854 -0.0047933836 0.00050120807 0.0026539548
pineapple 0.0020794184 -0.0044377483 0.007368162 -0.008734322 0.004844996 -0.0062970947 -0.007148785 -0.0048903236 0.0021037492 -0.0023913844 0.007406761 0.0022556274 0.00529805 0.00027096109 -0.009504 0.009227722 0.0029366368 0.004028183 -0.002333753 0.008439474 -0.009512296 0.0024222566 -0.007522842 0.007351267 0.0042948322 -0.0021286053 -0.0010751176 0.0075661344 0.004036632 -0.0037748332 -0.007868526 -0.007417312 -0.00663621 0.00038112173 -0.008331726 -0.0060558743 0.008535497 -0.00721411 -0.0064489082 0.0097964145 0.0028532385 0.0025414487 -0.0010186165 -0.00790743 0.0054650027 -0.006310185 -0.005898077 -0.006207343 0.00021448018 0.00971204
liquid -0.0056717535 -0.0018704862 0.008074651 -0.0053270874 -0.004796786 -0.0029324424 0.00891777 -0.005822109 0.0053930893 -0.0024623375 0.0071506645 -0.006179326 -0.00069639296 -0.0065437825 0.008875755 7.8668345e-05 0.0063398634 -0.009346655 0.005276791 -0.006461931 -0.006318044 -0.009391414 0.003438731 0.006965855 0.009725435 -0.003406673 0.004495562 -0.0072527854 0.00057184685 0.0006353113 0.009800924 -0.002790981 0.005392663 -0.0018646145 -0.006715651 0.0014221707 -0.007681621 0.010107688 -0.0025244593 0.0020485495 0.0058574406 -0.002168479 -0.00937565 -0.0052564684 0.009761521 0.0018331589 -0.007519742 0.009444676 -0.0060258117 -0.0088271685
rhubarb -0.0054469896 0.000103799954 -0.009019963 0.0041228174 0.0044359867 0.0036359918 -0.00095510524 -0.0018257492 0.008745549 0.005041758 -0.0059930016 0.006212258 -0.004801633 0.0051961583 0.007807019 0.0016262146 0.00432638 0.0024025538 -0.006409838 -0.0032071106 0.0072508855 -0.0014030809 0.0053091133 -0.0025154564 -0.003996689 -0.0017146139 -0.00030579724 -0.009166301 0.0044856295 -0.0040575536 0.0042414647 -0.0026741754 0.009794398 -0.0025584963 0.0029216358 0.003203307 -0.0035153937 0.004151302 0.0060200216 -0.009146734 -0.009464702 0.00015147938 0.0010137854 0.009700164 -0.0037561364 -0.003001023 -0.0055498937 -0.009943783 -0.006790699 0.00426038
strawberry -0.010093558 0.0021993131 -0.005706118 0.0033395125 -0.0004274829 0.0015468238 -0.0060255467 -0.0032253538 -0.0021382063 0.0017596973 0.008943551 0.0065310122 0.0053138267 -0.0052602096 -0.002680595 0.0038269965 -0.0045431103 0.00854641 0.009242555 0.008098752 -0.003064521 -0.0027760223 0.0025150294 0.00034412165 0.009400864 -0.00672203 0.004900983 -0.0025871175 0.007474983 0.00086337543 0.007916928 -0.0072485437 -0.00830684 0.0013366682 0.003801662 -0.0101069845 0.008257248 0.0021859691 -0.0024705357 -0.0018169859 -0.0042055743 0.009323381 0.0008193023 0.0045595164 -0.009410551 0.00045850602 0.007924071 -0.004408195 0.0053181513 -0.0038306448
strawberries 0.0002500043 0.008720379 -0.008320421 0.008977515 0.0052611926 0.010030834 -0.008460377 -0.00077803567 0.0073065944 0.00017522971 -0.0015554801 0.006288158 0.0065020914 -0.0038537718 0.0021793488 -0.005861388 -0.009851531 0.0032122387 0.003909519 0.0066940407 0.005835893 -0.008967015 0.0066568954 0.006984064 -0.009569999 -0.010126467 -0.006522562 -0.0064636352 0.0041957656 -0.0038524314 -0.00066509936 0.005506721 0.0096733095 -0.001825919 -0.00023906863 -0.003709038 0.005066458 -0.0018813757 -0.0016525049 -0.001673285 -0.0024065806 0.003684097 0.0002422387 -0.005058799 4.9450533e-05 0.0074962755 -0.002315574 -0.009597155 -0.0005055345 -0.0009144667
cake 0.009666096 -0.006764235 0.007426778 -0.009483648 0.0012038174 0.0037563536 -0.009846822 0.0024249027 -0.0052917236 -0.0022142266 0.0008382246 -0.0049504167 -0.008028178 0.0076583955 0.009978458 0.0069599207 0.007974711 -0.0016376477 0.0059011453 0.005357055 -0.0058261054 -0.006410091 -0.0011377354 1.5652884e-05 0.0019508054 0.008047865 -0.002683408 -0.0008149511 0.006422267 -0.0025687886 -0.004878548 7.616664e-05 -0.0016140111 0.007922422 -0.010132961 0.004722125 0.0034633595 -0.007970437 -0.00070888683 0.008394751 -0.007734204 0.0052175904 -0.0067003015 0.0026599544 -0.0009774003 -0.00086808304 0.00115892 -0.0060678916 -0.008345416 0.007127621
margarine -0.00048010706 -0.006929017 0.007055448 -0.009227923 0.0023458644 -0.0007899971 0.009911449 -0.008261998 -0.001802547 -0.0005433054 -0.008788074 0.00048246127 0.004426348 0.002115329 0.00062661024 -0.0030409223 0.0046203095 0.0084905485 0.0045076176 -0.0029556437 -0.0036972633 0.0016209303 -0.008034284 -0.0040922975 -0.0057136957 -0.0076541235 -0.0006249879 0.0025576998 -0.0023703254 0.001668747 -0.0013814836 0.0038140255 -0.00021316396 -0.0074714245 -0.009131219 -0.001073792 0.00938943 -0.006916574 0.0022773098 0.004771643 0.0005668722 0.00097288174 0.0041672857 0.00021331474 -0.0008117426 0.0076384638 -0.0021963401 0.0058814976 0.0036108962 0.006840327
fillets 0.0011460504 -0.008547817 0.0028885773 -0.005018588 -0.0006568232 -0.0023247544 -0.0049800486 -0.0016182025 0.0033724522 -0.006806723 0.007076208 0.00090414635 0.008841825 -0.005982518 -0.0008578273 -0.0069929436 0.009449887 -0.00910798 0.0028685848 -0.0024131455 -0.0007849872 -0.0033340517 0.009834902 -0.009314026 0.0011120976 -0.0057201777 -0.00020788946 -0.008515823 0.00347609 -0.0067286585 0.009430244 -0.008373314 0.00789345 -0.0074328277 0.005016395 0.0015715571 -0.0031616488 -0.005074617 0.003394568 -0.001731105 0.00083447597 -0.0001138031 -0.0033068194 -0.0035906336 -0.0049115554 -0.0056843003 -0.0011535793 -0.0086349975 -0.0020147804 -0.0017770884
steak -0.00728448 0.0048443996 0.0060469154 -0.003035745 -0.0032839975 0.0045662746 0.007858117 0.0040773638 -0.0039930767 0.0062533086 0.009818789 0.0013123703 0.00049273344 -0.006095835 0.005636975 0.008986323 0.0049971235 0.00029095597 0.0033954121 -0.009572324 -0.005806684 0.0015508228 0.0033757812 0.0070318407 0.004030837 -0.0076940823 -0.00584082 -0.004687006 5.7023644e-05 0.0013441165 -0.0056152595 0.002433662 -0.0031717934 -0.0089308405 0.009269045 -0.0058728494 0.009019069 0.0069113546 0.002339127 -0.009000437 0.0034413005 -0.0057073976 0.00050222746 0.00025465974 0.00977368 -0.0013467093 0.0091523705 -0.0043421383 -0.00966194 -0.0036817645
fennel 0.008401206 0.0005370686 0.0054244944 -0.008683985 0.006808512 0.0010367546 -0.00833825 0.0074250326 0.0047085434 -0.00072184816 0.006813485 -0.0055577927 0.0035289035 0.0035043575 0.0050367373 -0.0014038974 -0.0062461896 -0.006070574 -0.0011175221 0.007991924 -0.0029265312 -0.007896515 -0.0072870664 -0.007505518 -0.00014357128 -0.0028283515 0.00028414518 0.0053978115 0.0055187116 0.0007713038 0.008211525 -0.0067756055 0.006265383 -0.0048064035 -0.008421536 0.003633147 0.00024856726 -0.00082121417 0.00787389 -0.0060830372 0.009276997 -0.0012787463 0.010206788 -0.004448153 0.006275229 -0.0067638005 0.009584531 -0.008764196 0.0097339 0.006467652
pork -0.0063397717 0.003111429 -0.0064122216 -0.0058020237 -0.004213823 0.0012563966 0.0056705726 0.0027578482 0.0050382414 0.0017573481 -0.0066617243 0.009669433 -0.0068279067 -0.0081568705 -0.005972915 0.0017482508 0.005133939 -0.0067229914 0.008971115 0.0020880685 0.010195832 -0.0063320464 -0.009188002 -0.0068481797 -0.009613904 0.003438169 0.004238322 0.008361577 0.008121436 -0.0059406897 0.00062384055 0.006831824 -0.004824355 -0.0025678978 0.008266891 0.0060291225 -0.008145428 -0.0043724612 -7.898271e-05 0.0042805015 -0.006396653 0.004917098 0.0051572626 0.0071745305 -0.008962501 0.004326762 -0.0045278873 0.009044385 -0.0030376518 0.00023666983
cranberries -0.0055829785 -0.0059569683 0.00016998182 0.007322186 0.0035185672 -0.0007266118 -0.005070165 0.0058591757 0.0018100454 0.0044817827 0.0076430943 -0.0018032752 0.0062507307 0.00046343968 0.004029774 -0.0066422895 -0.000999444 0.005231996 0.007627853 0.002292195 -0.007142757 0.004100803 -0.0049547725 0.005309056 0.0012545515 -0.0013418425 -0.0063570826 -0.0062998375 -0.0093554035 -0.008837953 0.0061520515 0.004145419 -0.0054088007 0.00092334463 0.006875472 -0.0073298533 0.008097241 0.0016648552 -0.007452919 -0.008087632 0.006441755 0.0053748917 0.005642567 0.0022500586 -0.009807032 -0.008647251 0.0029107006 -0.00066569954 -0.004211479 -0.00602671
blueberries -0.0062645655 -0.0031818866 0.007357419 -0.002229269 -0.005896998 0.0006232675 -0.0017760821 0.0062584663 0.008701915 0.005812944 0.0013298047 -0.006859557 -0.0071924413 0.0018427217 0.005184748 -0.00599727 -0.0030119352 -0.00034859247 0.0017505237 0.001959794 -0.0014109851 -0.0057236897 0.0012682548 0.0074384864 0.0016546225 0.00957027 -0.0012946043 0.00838958 0.0048688673 0.00038974878 0.0041642613 0.008697526 0.0016341406 -0.008493495 0.006229431 -0.00019063319 -0.0019267718 0.0058048973 0.00070974615 0.0066903937 -0.007614596 0.004371938 -0.00420436 0.005234101 -0.00024161041 -0.00064263714 -0.0076869493 -0.00380449 0.0012576123 0.0027823655
wafers 0.0049556834 0.007215875 0.0063729673 -0.0020173583 -0.006228611 0.009285817 0.007009078 -0.0011432028 -0.002437249 0.002694282 0.0020284327 0.008113241 -0.0040398147 0.00069316156 0.0055974615 -0.0013382842 0.0055220514 -0.00512338 0.004451137 -0.0010856108 -0.003489388 -0.0029238125 -0.0034405743 0.0028307475 -0.009514868 0.008101319 0.002506447 0.0027829593 0.006054318 -0.004811925 -0.0074257115 0.0074025346 -0.006405534 0.0012536928 -0.009945004 -0.0011135093 -0.005816658 0.0012408008 -0.0068236995 0.009857087 -0.0036791363 0.00020430263 0.010136066 -0.008909908 0.0049202596 -0.0052231746 0.00020115881 -0.0025027469 -0.008049177 -0.0016916386
foie gras -0.005498128 -0.00422089 -0.0021506336 -0.0010322657 0.0021777523 0.0056597134 -0.0042844624 0.0071630822 0.006113583 0.010198145 -0.006834636 -0.0072871726 0.002850709 -0.009866562 0.00033059999 0.0059003383 0.008767598 0.004808041 0.0072173523 -0.002798241 -0.00054179685 -0.004113467 0.007261835 -0.003817117 0.009928209 0.006106112 -0.00795363 0.003946646 -0.004685503 0.003690151 0.007891997 0.00061381876 0.0010998992 -0.0078390585 -0.0019501245 0.0069406796 -0.0020453793 0.0009700712 0.009822497 0.0022472646 -0.01004789 -0.0011944349 0.008943366 -8.667118e-05 -0.0024574217 0.004280573 -0.001116432 0.0020189446 0.0073623587 -0.00996788
truffle -0.008775822 -0.0076534813 0.008317127 -0.0092825955 -0.00837284 -0.0014696327 0.008386403 -0.0099796215 0.008006588 0.009100337 0.0056310226 -0.008593723 0.0020880108 0.0058744955 0.0069087087 -0.0016202142 0.0014031231 0.00019942316 -0.0033921006 -0.0027289498 -0.007986912 -0.0072279186 0.008852913 0.006863963 0.0076876627 0.0073424946 0.0062104827 0.0032436473 0.002108227 0.006138219 0.0055506183 0.002166112 0.0063784006 0.0073569603 -0.00790941 0.009417534 0.005870274 0.010127141 0.010255235 0.009800139 -0.00045351379 0.0070814523 -0.004799809 0.004394373 0.006780125 0.005548199 -0.0074656806 0.0066758255 -0.00914847 0.008025167
spaghetti -0.008261779 -0.00018462345 0.0048184013 0.0058112475 0.0068588103 0.0039693825 -0.0050463798 0.0076168263 -0.004815306 0.0037007688 -0.008113701 0.0049540163 -0.008808794 -0.002259171 0.0024224953 0.008891421 4.184359e-05 0.0040718503 -0.0039698496 0.0010724708 0.0024464603 -0.004531955 0.008507282 -0.002837485 -0.00818447 0.0013635252 -0.006386414 0.008546505 -0.009240689 0.0063669723 -0.008913064 0.0012989164 0.0046465266 -0.0041032177 -0.0044510337 -0.006270076 0.004905929 -0.003983428 0.006978886 0.001979389 -0.00019312026 -0.0042239334 -0.0052994923 -0.0031248108 0.007968234 0.006193251 -0.0075426735 -0.008631082 -0.00047836386 -0.0065338244
apple -0.0067393896 0.009465739 -9.596835e-05 -0.0071290354 -0.004594024 0.0070155435 0.0052470868 -0.00284867 -0.0031517507 -0.0023741734 -0.0038245935 -0.009681065 -0.00029463606 -0.0024800363 -0.009318785 0.005580663 -0.0024914849 0.001715596 -0.009047073 0.0022506935 -0.004715679 -0.009056291 0.0028961562 -0.007508798 -0.008435332 -0.002601326 0.002763392 0.00952137 0.0069921482 -0.005803032 -0.003918871 -0.00711737 -0.0053431806 -0.0020931095 0.0067431824 -0.009687293 0.0029441668 0.0033941027 -0.008088598 -0.00056312815 0.0036352817 -0.0073123393 0.002361942 0.008447708 -0.0036940768 -0.005632181 -0.00024157102 -0.008375063 -0.0033664904 -0.009702176
syrup 0.0063521806 -0.007888757 0.009273077 0.0075684716 -0.0003447066 -0.0017433139 -0.0059560137 0.0022938862 0.0037659982 0.00879583 -0.0035002492 0.009770017 0.005463923 0.00528074 0.006842417 -0.009033805 -0.0053664665 0.009673847 0.0028621412 -0.0051991073 -0.008132923 0.001861296 -0.007469659 0.007330211 -0.0036574898 -0.0063278903 -0.0059839487 0.0034196435 0.006608255 -0.0007734629 0.0046584224 -0.007054962 0.00568276 -0.009888573 -0.00045206342 -0.0070461426 0.00023326444 0.007898126 0.010229771 -0.005920311 0.0025380333 0.004528509 -0.00025116713 -0.0008998107 -0.00034821767 0.009723481 0.009996777 0.0043851594 0.004033509 -0.00030545914
seasoning -0.0054439027 0.00037061307 0.002065561 -0.006364558 -0.009158601 0.0092560565 -0.0002884445 -0.008945954 0.008661954 0.0025429395 -0.00018384546 -0.001379934 0.0056678415 0.008850049 0.009184191 -0.009629409 0.004420884 -0.0031817635 -0.0043373 -0.0018423039 0.0019006375 0.00770617 0.0011866357 0.007536048 -0.00814822 0.003719049 -0.009756829 -0.0003833162 0.00839111 -0.0069494834 0.005315684 -0.0012540505 -0.003323103 0.006149714 -0.0022419498 -0.006910994 0.0055150706 0.005622999 0.008951656 -0.004159648 -0.0017428983 -0.004505219 -0.005154069 0.0072416067 -0.0042446037 -0.0035938832 -0.0031339708 -0.006773014 0.0013929032 -0.0030076734
thyme -0.0020939421 0.0036977744 -0.0034353232 0.0035333864 -0.009125086 0.010186045 -0.008315453 -0.0035159602 -0.006466352 -0.002086815 0.0015795971 0.005989066 0.0027663356 0.008211508 0.0041115466 -0.0028510934 -0.007842859 -0.0011430911 -0.009962056 -0.004513905 0.0093051195 -0.004135359 -0.004880187 -0.0024540669 -0.0029550279 -0.0038972504 -0.005314641 -0.0071622417 -0.004880466 0.009931044 -0.0025275769 -0.0018675931 -0.007207307 -0.0027334231 -0.0048826206 -0.004092215 -0.0055299597 -0.005668725 -0.0043438133 0.002841884 -0.0036263382 0.00566048 0.010045218 -0.0018001228 0.00961887 -0.004510459 0.0010035847 -0.00465476 0.009403583 -0.0009856594
jalapeno 0.0059518004 -0.0074435156 0.0073504895 0.0032260364 0.0036632228 0.0034745024 -0.0032681834 0.008856865 0.008891461 0.0026082399 0.009931686 -0.004383127 -0.0075126267 0.0066428827 -0.00029666146 0.009268852 -0.0005458383 -0.0027626716 -0.0042391345 -0.0005750056 0.002465417 -0.009013522 -0.0038877777 -0.009008508 -0.007559286 0.0011943755 0.007679259 -0.005923279 -0.004410738 -0.0010594635 0.009042716 0.0007011811 0.0049815066 0.0077871415 -0.0020751976 -0.0063879746 -0.002975194 0.008407877 0.0031832159 -0.0029560262 -0.0033817478 -0.005965631 -0.009398358 -0.0011040844 -0.004957556 -0.0013565645 0.006208008 0.0038994318 0.008025983 0.007014695
worcestershire sauce 0.003952253 0.003813766 0.0023428255 -9.467912e-05 0.0064098067 0.007781951 -0.009305313 -0.0006203237 0.005879335 0.0042534396 -0.007237641 -0.0003795749 4.7590067e-05 0.0014907963 -0.006646605 0.009461071 -0.004990251 0.0056324573 -0.007147172 0.00842443 0.005633482 0.0038614532 0.008010452 -0.001890462 0.0018255586 0.0003700696 -9.399731e-05 0.008989893 -0.00088375015 0.0017596015 -0.009583879 -0.00071652344 0.007769052 0.006612213 0.00031983067 0.00431739 0.009242284 -0.006079776 0.002302665 -0.0070652044 -0.005520606 -0.0026997225 0.00043595582 -0.0017352577 0.006178612 0.0044114594 -0.008053361 0.008287411 -0.008756424 0.004040276
parsley -0.004472253 0.003022383 -4.246717e-05 -0.007091599 -0.004362152 0.0016495872 0.0050865943 0.0007915713 -0.0020502678 -0.007080772 0.009701843 -0.007065258 0.0021808895 0.0027231069 0.0034630233 -0.0062202006 0.006095911 -0.0057034865 -0.0059543434 -0.0010527429 0.006791908 0.0030775606 0.0041991374 0.008711785 -0.0025558479 -0.004726893 -0.0033084685 -0.007975424 -0.0041341847 -0.0064617945 0.0059965565 0.008517434 0.0032014088 0.0016035688 -0.0019683577 0.0044560335 -0.008389001 -0.0073104734 -0.005604037 -0.008212734 -0.0098818075 -0.003612972 0.006148518 0.009225843 0.008049615 0.00089541037 -0.008228067 0.0068175117 -0.0018435606 -0.0029035306
gruyere -0.0037182795 -0.0012162285 -0.009562749 -0.0029949928 -0.00041869856 0.001172913 0.002519804 -0.0058891815 0.0018953357 -0.008011659 0.008747139 0.009453801 0.0012437961 0.00024007837 0.0075242426 -0.004747402 -0.0077756913 0.007185057 0.0010337204 0.0061816275 -0.0059850565 0.00060980587 0.008348367 -0.005856905 -0.0058170757 0.004093658 0.0045461454 0.008579052 0.0013552373 -0.009865432 -0.00078919646 -0.009611099 0.004308253 0.0019526476 0.004184867 -0.009464891 0.0014636063 0.008388063 0.006449744 0.0064394646 0.0041964035 0.0070881136 -0.002453468 0.007900152 -0.008535816 -0.0018021725 0.0029331208 0.0026532463 0.0065408857 -0.0030257653
macaroni -0.0025941518 -0.004981796 0.009145801 0.0015413291 0.004685596 -0.005360297 0.007715644 -0.0010200636 0.0086859455 -0.003853471 -0.0074600424 0.003910365 -0.004103916 -0.008511617 -0.00941208 -0.004584114 0.009551258 0.008038022 0.003772851 0.009620243 -0.008408009 0.0064404397 0.006026447 0.008432707 -0.008342786 -0.008879929 0.0038172256 -0.0030153163 0.0003764368 0.00013185918 0.008356679 -0.0012942185 -0.0043404675 0.0018537511 -0.00079391466 -0.010072291 0.00063635595 -0.007261059 0.00016296568 -0.0025073625 -0.00033133503 -0.0073067686 0.008228431 0.0006476052 -0.0038011314 -0.008293177 0.009647041 0.007228381 0.00557695 -0.0087354155
pimentos 0.0054676756 0.005273948 0.0029220385 -0.005610767 -0.0052056275 -0.008909593 -0.0034412344 0.003507561 -0.0009631477 -0.008266617 0.0059429905 0.0063764784 -0.0028296062 -0.004188774 0.0025500741 -0.0026315784 -0.008395649 -0.0014780891 -0.0043299943 0.0044512516 0.0034731156 0.0034162772 0.0057178535 0.0035888439 -0.0031035207 -0.002184107 0.0056121596 0.007782206 0.00076281367 0.004873283 0.008492548 0.0071551027 0.0020775823 -0.0051404377 0.0076801158 0.008945187 -0.0063853906 -0.0092872 0.0024938667 0.0076796436 0.0019876072 0.0072327135 -0.005904983 -0.007947661 -0.0030670164 -0.009601178 -0.001918302 -0.0022892389 -0.004182074 -0.0077407802
mayonnaise -0.0041191573 0.0071572764 0.008274068 0.0058561913 -0.008306748 -0.00557523 -0.002498892 0.005937246 0.0064890143 -0.007183512 -0.0045196633 -0.0029435304 0.0082684625 -0.0081558945 0.00019644907 0.0055755866 -0.008361737 0.004850425 0.009161927 0.0068487874 -0.008078074 0.0021823035 0.008860171 0.007009507 0.0033654487 0.006674574 -0.0028861559 -0.007709927 0.009425277 0.006807862 -0.0057761515 0.0021781453 -0.006298715 -0.00044314936 0.0031050157 0.00092365587 -0.0031231395 -0.009958282 0.003643308 0.008251718 0.005183408 -0.006272724 -0.008346235 0.0032257815 0.0067187627 -0.0018163476 -0.0053638583 0.0010704845 0.0047440887 0.006655996
salad dressing 0.006695998 -0.00021686807 0.0093453275 -0.0018995248 0.0089013595 -0.008729262 -0.0036954784 0.008687395 0.008478604 -0.0016779852 -0.003817422 -0.00081846636 -0.003033658 0.008642145 0.0055437745 -0.0037618354 -0.008649661 0.008432056 0.0048537487 0.008795065 0.008447947 -0.009005722 0.00885131 0.0044378163 0.004405322 -0.0033599646 -0.0062155896 -0.0019701754 -0.00096950313 0.004344484 -0.008820368 0.005685202 0.006905456 0.0001549183 -0.009178487 0.0064455 -0.00010310459 -0.007224554 0.009160862 -0.005292894 -0.0025054656 -0.0020982553 -0.005587139 0.0042120786 -0.00504334 0.005614017 0.00075095217 -0.007859726 -0.0016049829 0.009242633
cool whip 0.0056256643 0.006563917 0.004064948 -0.0048341067 0.0024950735 -0.00021511222 0.001444989 0.005068494 -0.0019932895 -0.0077962843 -0.0059720064 0.0023786435 0.0010639408 0.0010723324 -0.009980353 -0.009735925 0.008596185 -0.001445925 0.008728864 -0.0095189195 0.009015561 0.0010365824 0.008409902 0.008434285 -0.006783005 0.0008858386 -0.0010844718 -0.007898245 -0.0014402648 0.001172861 -0.0075290245 0.005096384 -0.009374587 -0.008539664 -0.009708958 0.009553508 -0.0049788216 0.0005794561 0.0070682913 0.0017780199 0.0016580008 -0.0071671526 0.008089554 0.0043523354 -0.0007944473 -0.0035646674 -0.006946812 -0.00535405 0.000893991 0.0072714915
cornstarch 0.005989785 -0.009012186 0.0052838805 0.0059659774 0.0015700394 -0.008865837 0.0031284972 0.008880416 -0.0065888264 0.0088139875 0.0075931395 -0.005084381 -0.006924813 0.009708967 0.0070423 -0.0017371739 -0.0026491284 0.0041139475 -0.007380193 -0.0051991697 0.0060264515 -0.0059057935 -0.0037419966 -0.002835167 -0.006205353 -3.3967357e-05 -0.007676933 -0.007364541 -0.0055825687 -0.008293699 -0.00039882696 0.0058124443 0.0033748085 -0.0048149168 0.000667958 0.009209007 0.0014011163 0.0030422176 0.0070233727 -0.0086172065 0.0033552116 0.0022497291 0.0055013807 -0.0071637165 -0.0008245531 0.003494245 0.0061753658 -0.003679584 0.0021549573 -0.009567448
cashews -0.002347302 0.0056084665 0.0024435094 -0.0011550192 -0.008839378 0.006067476 0.008427236 0.003730247 0.0064267986 -0.005186096 -0.0032195826 -0.0055487 0.008764805 -0.009565188 0.0033880568 0.0036230788 -0.008648594 -0.0018884181 0.009178917 0.009666212 0.006823991 -0.00600007 -0.009043386 -0.0013351378 0.008581069 -6.6123735e-05 -0.008561382 0.0058220327 0.003149046 -0.008023082 -0.00559241 0.004226418 -0.0060307537 0.00948971 -0.00398345 -0.009402928 0.0018487216 -0.0021555948 0.009059746 -0.0032531891 -0.00048281826 0.0009061338 0.005376574 0.009080735 -0.00036898593 -0.0020345165 0.002763159 0.0026053698 0.0022434886 -0.002719369
tea 0.002582891 -0.007036769 -0.0073281475 -0.0040782685 0.007572825 -0.0046536205 0.0050981725 0.008322734 0.005107303 -0.0031287773 -0.006363624 0.00072462764 -0.0013241917 -0.009629088 -0.0009056042 0.0010092515 0.0016697921 -0.009409269 0.009036574 0.009448871 0.006363077 -0.009873406 0.0068726614 0.0060608145 0.007942739 0.005852143 0.001675049 -0.005725756 0.005684572 -0.0011572015 -0.0061538117 -0.007791772 0.0024724675 -0.008170617 0.0063397307 -0.007026584 0.0074506807 0.006008336 0.007595459 0.0017396891 -0.0015057724 -0.0049843923 -0.002307131 0.009458965 -0.0011524467 -0.009104777 0.0030370695 -0.004976827 0.005317668 0.008738863
kombu -0.0030593744 -0.0027438046 -0.0050192443 -0.0082223145 0.00792472 -0.0077767093 0.0010406856 -0.00903224 0.0017225101 -0.009644327 0.008721498 0.0073956545 0.0012583934 0.0037577911 0.005278097 0.0050372086 0.0020180668 -0.007978028 0.006096817 -0.0053633894 0.003496412 -0.0095989825 0.0011657992 0.0024445544 0.008996803 0.008551628 0.0090578785 0.0015401284 -0.004314764 0.0055917115 -0.009392279 0.006096704 -0.0066737845 -0.0022648664 0.00037337746 -0.0026666264 -0.0040745386 0.0061893445 0.008611759 -0.0032381965 0.0019360065 0.0022829908 0.00083163416 0.0059823217 -0.0011964944 0.0032362435 0.0055025746 0.0052000554 -0.00071655505 0.009501997
zucchini 0.0037380105 0.004581534 -0.009342415 0.00095692446 0.0037302484 0.008128401 -0.0065574283 -0.007958397 -0.009137313 0.004131234 0.0090417955 -0.008851229 -0.008949909 0.0028496485 0.0031241185 0.0018665014 -0.00857032 0.0026395833 0.009488531 0.0055284407 -0.0035748144 0.0049932958 -0.0009754794 0.009853181 -0.004495568 -0.0066489177 -0.008899243 0.009793595 0.0029482578 -0.0032818 0.00040647195 -0.002722449 0.006995312 0.008233426 -0.001064536 0.0076133227 0.008765702 -0.007631583 -0.0023803038 0.0036547177 0.0082255015 -0.005551462 -0.004500435 -0.0069034724 0.0070837736 0.007266311 0.00791199 -0.0030380161 -0.005635933 -0.003645985
walnuts 0.00019632431 0.0026887737 -0.009562946 -0.007808105 0.0077632666 -0.007669194 0.00026228622 0.0015685754 0.009126022 -0.00774299 -0.0038480316 -0.004692194 -0.008016174 -0.00056804623 -0.0056795166 -0.009274531 -0.0049730036 -0.000112512644 0.008767038 0.005109901 -0.0041157575 0.0055921515 0.0026215403 -0.008113188 -0.009042908 -0.0025912537 0.0018679375 -0.00669111 -0.0064337696 0.007483996 -0.00774501 0.002504298 0.0022383009 -0.005210503 -0.0033686997 -0.00796851 0.004699019 0.0031355368 0.0054219305 -0.0055596726 -0.008421981 0.008174582 -0.0037334417 0.009533509 0.009240672 0.0036551128 0.0053706598 -0.0007661736 -0.0014926129 0.00026725838
salmon 0.009502441 -0.0010523814 -0.005944083 -0.0090744 0.0064058746 0.007038539 0.0029047849 -0.0053386367 0.008403983 0.0009955373 0.007451185 -0.009401661 -0.009787438 0.006365225 -0.0046936153 0.009639614 0.005121585 0.004279589 0.0087180715 -0.009487609 0.0067761266 0.006853495 -0.008841658 -0.0098104905 0.0071525057 -0.003737367 -0.002674787 -0.001720545 -0.0051370393 0.00011302237 -0.0032347778 0.008768933 0.003230192 0.00026813697 0.0016125147 0.004338079 0.0032027704 0.0045180456 -0.009734145 0.0013953828 -0.0026056028 -0.0059963553 0.0040341713 0.003813989 -0.0054945434 -0.009775675 -0.0059856465 0.008558999 0.008054802 0.0046154694
mixed salad green 0.0075749718 0.0021591065 0.0011871582 0.0031739434 -0.0012894892 -0.0011558697 0.0063683135 -0.0045081573 -0.0048930533 9.317491e-05 -0.0074401554 -5.3121632e-05 0.0068918094 7.579076e-05 0.004885742 0.005962142 0.002182993 0.0032913282 0.0034075677 -0.008854984 -0.0040183584 -0.009170626 0.009711597 -0.003935527 -0.007881646 -0.00086557196 0.0070366645 0.003457918 0.0030659663 0.00084470236 0.007780197 -0.0061724028 0.0048036417 0.0015777445 -0.007938548 0.0061447457 0.004251231 0.00866109 -0.00038615183 0.0019771932 -0.0043109246 -0.0012036 0.007813243 -0.001527675 -8.6494234e-05 -0.010003496 -0.006762518 0.008468667 -0.00095856615 0.0066882204
cherries 0.0034403896 0.005047625 -0.0077465605 -0.0026356725 0.0071804104 -0.0031192785 0.00576491 0.004519309 -0.00632961 -0.0077112685 -0.007761579 0.001966936 -0.003845793 -0.008868692 0.006785421 -0.007940699 -0.009953325 0.0030817 0.0067516603 0.009138978 0.007828795 0.00856056 0.009394834 -0.009237228 -0.0065735606 0.00530203 0.0052902256 -0.0077182604 -0.0020626634 0.005389974 -0.000590698 0.008096111 -0.00495436 -0.007334122 0.006083435 0.0027671761 -0.0050225053 0.008691423 0.0016485422 -0.0031658069 0.005944133 -0.0061708135 0.009396 0.005620573 0.0036397805 0.0010067212 -0.0010483877 -0.0040246984 -0.0060406574 0.007820616
italian dressing 0.009599519 0.0040616775 -0.007396157 -0.008869909 -0.001793381 0.010173273 -0.005997392 -0.0060640187 -0.009108712 0.009778576 -0.004669379 0.0015183637 0.0048860335 -0.008752406 0.008094622 0.00031652776 0.0083073 0.005531744 -0.0060897362 -0.005146132 -0.009120747 0.0030513573 -0.0051604905 -0.0064559416 0.0028191474 -0.004523214 -0.0037306037 -0.004641661 0.0056972257 0.002923141 0.005026512 -0.007956478 0.008119335 -0.0015778142 9.845658e-05 -0.007601185 -0.009312411 -0.009540556 -0.004475748 -0.0008434218 -0.006480083 0.0036018768 -0.0019506923 -0.003375211 -0.007900949 -0.009815303 -0.007909145 -0.0051802197 0.0064886557 -0.0028960682
kiwi -0.00064282224 -0.0004329927 -0.0076845777 0.00080436346 -8.5866515e-05 0.009393968 0.0088397125 -0.00023093654 0.0022165282 0.009750748 0.0020116183 -0.0050339284 -0.0007808138 -0.008409368 -0.0041883118 0.0009841123 -0.0064431014 -0.0071129156 -0.000655872 -0.0062872325 0.0047445577 0.0015995122 0.0020371652 0.00010284073 -0.0064609996 -0.0075167054 -0.0099140275 0.0043284935 -0.00216196 -0.007709982 -0.0067841965 -0.0034228577 0.009739468 0.009388886 0.0046937363 0.0022440234 0.0082938215 -0.002839521 0.002595787 0.009354146 -0.009718018 -0.003535515 -0.009610524 0.0072303615 -0.0019307486 -0.000415359 -0.0070396317 -0.004438366 0.009240623 -0.0032366621
tenderloin -0.0011199192 -0.0024222182 0.005553413 -0.008052966 0.0022812292 0.005573765 0.0049821166 -0.0073718415 0.006406055 -0.006106689 -0.0030677118 -0.0076039988 0.008367711 0.0006388323 0.005256293 -0.001881908 -0.0036922442 -0.006273115 0.0080781095 -0.00010722063 -0.0036593887 0.0020382889 -0.008714259 -0.0027120248 -0.005641936 -0.0033410122 -0.0045540207 -0.007999914 -0.0054472755 0.000857847 0.0048885923 0.0074702604 0.004788227 0.0027196796 0.007383244 0.008903943 -0.0010357844 -0.0017824431 0.0074362443 -0.00158615 -0.001331408 0.005824731 -0.008294254 -0.009086518 -0.0011272657 0.009133866 -0.009687494 -0.0020859186 0.0066213114 -0.0048759007
roses -0.0012818443 0.007394806 -0.0066286395 -0.0050483258 0.008822576 -0.0052674543 0.0017836805 -0.007835704 -0.007910705 0.00054039253 -0.009530761 0.003595149 0.010003253 -0.005827884 0.007417663 -0.0012474797 0.007810514 0.0042085424 -0.0012544469 0.008133636 0.0038758717 0.003301798 0.0069125807 0.0056633423 0.0009224473 -0.0069463877 0.0027945437 0.009550375 -0.009224906 0.0095972065 0.0053857276 -0.0027987882 0.0020062742 -0.001555227 -0.007053151 0.0048746113 0.0078385975 -0.0072884443 0.009881036 -0.008743573 -0.0037747165 0.01004269 0.004139609 -0.0077440673 0.0036356677 -0.0010966856 -0.004226174 -0.0046340497 0.007044168 0.0011456888
brandy -0.0011452634 0.0024915992 -0.0024403264 -0.003231121 -0.004996073 -0.0041474085 0.004371931 -0.002654431 0.00390247 0.0068841856 -0.006240465 -0.0033100145 0.0034332874 -0.005149635 -0.009833052 0.0064492975 -0.0050221467 0.007529989 -0.0036715982 0.006941382 -0.009185086 0.002288377 -0.0009962586 -0.0033479012 0.002144049 -0.00029260374 0.0046157483 -0.009766231 0.008502997 0.0076070977 -0.0025610162 -0.0052648536 0.010025474 -0.0075962967 -0.009270632 0.005487343 -0.00058258936 -0.0013810388 -0.003216017 0.008484095 0.004767808 -0.0033900195 -0.009324209 0.0033716762 -0.0012768002 -0.0040699155 0.008183487 0.0037454092 -0.0069054994 0.0009996286
liqueur 0.007783418 0.008085889 0.006842541 0.0060271192 -0.004720613 -0.000498333 0.0011814502 0.0042885914 -0.0031320546 0.0033080212 -0.002882798 -0.007871341 -0.0009885633 0.008883006 0.0003381076 0.0015716403 -0.0005760314 0.009964126 0.0016061803 -0.0035900627 -0.005063956 0.009946936 -0.0005745034 -0.009159728 -0.0040130904 -0.003908928 0.008484717 0.0024311205 0.0048193475 0.006426449 -0.009868281 -0.009393848 -0.008500469 0.0060985 -0.0007733342 -0.0027488342 0.004200648 -0.00062250753 0.0052329795 0.0023763068 0.009243431 -0.008043073 0.004538872 -0.004679704 -0.009897662 -0.006152476 0.004755233 -0.0071616177 0.006018674 0.005933971
grand marnier 0.0010813586 -0.0043527046 -0.007165856 0.0046724947 0.0077769784 -0.0027301623 0.0052068974 0.0053781336 -0.0074618035 -0.008265891 -0.00043150404 -0.0036734852 -0.004964739 0.0026076357 -0.005988256 -0.0034194137 -0.0023698867 0.0069480524 0.0013060312 0.003370932 0.0010721601 0.006507217 -0.0019180729 -0.005426823 -0.007328516 -0.00991126 0.008017239 -0.002979683 -0.0031267167 -0.008977827 -0.009304158 -0.0048727756 -0.008276457 -0.00045490795 -0.0021412892 0.009410116 0.000638362 -0.008956476 0.0066889534 -0.0033906817 -0.0030359088 0.0020740568 -0.008054835 0.008628968 0.0073251408 -0.0022528432 -0.001058797 -0.0026919218 0.0026149456 0.0055674217
sprite -0.0064996416 0.009577893 -0.00989484 -0.009213486 -0.0025676945 0.0025767232 0.009392077 0.0072863884 0.008543458 -0.0025822015 -0.00062180613 0.0014387121 0.007209272 -0.007518557 -0.009342551 -0.0013856925 0.007291595 -0.005171806 0.0009943114 0.0021298367 0.004515495 0.009779508 0.009916459 -0.003004434 -0.0033672613 0.002703009 -0.006599 -0.00740832 0.008119042 0.0056213187 -0.003659493 0.001309713 -0.000982459 0.008206241 -0.0043343967 0.0057507805 -0.009361807 -0.0040356624 -0.007273028 4.748535e-05 -0.0036440394 -0.0035007219 0.005449712 0.009843284 2.1510528e-05 0.006308457 0.0007137406 0.0011875724 0.006002835 0.00486727
sesame -0.0037447247 -0.008460027 0.0053970967 0.0071400083 -0.008915778 -0.0039375816 0.0033099647 0.002624282 0.0052893693 -0.00872599 -0.0024381778 0.0051058526 0.0037436339 0.0034026818 0.008014761 -0.0014925825 -0.0068214056 0.008083695 0.0036224823 -0.009297576 0.0016519483 -0.0012701119 0.0006250835 0.0007812992 0.009546718 0.008299887 -0.002057608 0.005553528 0.005526562 0.006075742 -0.00568483 -0.0029290977 0.0027196626 -0.0011722076 0.0033415575 0.00053656916 0.00011238914 -0.0047491677 -0.005321229 -0.009904095 -0.0066030053 0.0045320457 -0.0067140157 -0.00389888 -0.004825746 0.009800363 0.0058853705 -0.0041464744 -0.008365112 0.0010044734
medium cheddar 0.007137248 -0.00502107 -0.003680845 0.0013788664 -0.0041058515 -0.0041090674 0.0042354898 -0.0056382855 0.007294253 0.00514041 0.0024403478 0.0056456057 -0.0030578636 0.009079294 0.00024426004 -0.0070899446 -0.0077780373 0.002047227 -0.005494445 0.009708222 -0.008057669 -0.00081701094 0.007071374 0.0015943507 -0.005542348 -0.004356261 -0.008738313 -3.6952173e-05 0.0029846355 0.00039369563 0.0067324126 -0.005237319 -0.0004946131 -6.3182255e-05 -0.0027450034 -0.0034990055 -0.006220225 0.00864545 0.0012526144 0.0065716165 -0.009639629 -0.0030610762 0.009225554 -0.00153139 -0.0037762038 0.0064095194 0.008815409 0.009711052 -0.00651253 -0.0056238673
hamburger 0.0077191656 -0.0066892067 -0.0025619818 -0.0032630896 -0.0039353133 0.010086007 -0.0047295475 0.00338645 -0.007824634 -0.0006313476 0.0063902168 -0.001861243 0.0033490534 0.002618232 0.0047820946 0.007833427 -0.0035921875 0.0050946088 0.0012698115 0.007244629 0.009002857 0.009936086 0.00033764684 -0.009913351 -0.0017891334 -0.00639829 0.0071410197 0.0035737036 3.4455094e-05 0.0031228624 -0.004243586 -0.0016149506 0.0006310652 0.0023485008 0.0047736564 0.008086763 0.004897725 0.0021931222 -0.0002521748 0.006382211 0.007329992 0.0038131212 -6.8495654e-05 0.008687617 0.0024196662 -0.0067368275 0.010013234 -0.008196407 0.004386514 -0.0010276942
broccoli -0.0030898189 0.0023159496 0.00015065922 -0.009471611 -0.0031904813 -0.0028100687 -0.009031876 -3.6882007e-05 3.9609017e-06 0.0007092538 0.007017875 0.0024185812 0.006657775 -0.0029354312 -0.0012733052 -0.0033288905 -0.0062529165 -0.0037771503 -0.009972232 -0.0057493895 -0.008377555 0.008781655 -0.001514157 0.00985258 0.003354508 0.004817008 -0.004447876 0.0024293528 0.004711221 -0.0012827013 -0.008687171 -0.002150417 0.0057142326 0.0017056499 0.0023208063 -0.00515768 0.0039066183 0.00029333928 -0.007871558 0.008675262 0.0051990123 -0.007253061 -0.0027545877 0.0052127126 0.001186583 -0.0014350155 -0.0060266126 0.005284626 0.00736257 0.0026411666
oregano 0.0028522427 -0.00016273292 0.0016685292 -0.009893168 0.0043012556 -0.00084755884 0.0047708354 -0.003711954 0.0021819144 -0.0015253224 0.000758025 0.00905351 -0.008538171 5.191143e-05 0.0092368275 -0.00242373 0.0049427627 0.009388429 0.007964431 -0.0033805198 -0.0025970784 0.007882867 -0.005924162 0.0051562316 -0.0015254746 0.0019489051 -0.0012088114 -0.001878971 0.0069385376 -0.008413027 0.006493419 -0.0044895033 0.008890401 -0.007657075 0.009276879 -0.0047280267 -0.0063669705 -0.002609875 0.0025324756 -0.0068364902 -0.0077623664 0.006070598 0.0028633694 -0.0034258931 0.0034135603 -0.001636578 0.0053956523 0.0024840233 -0.0040160418 0.0021385013
marinade 0.00024922378 0.0066059506 0.006350735 -0.008812773 -0.0098528005 0.0062574097 -0.0015098499 0.0025478299 -0.0057948753 0.0049649007 -0.0020507425 -0.0078010806 0.010038285 0.009980059 -0.0019302382 0.009525767 0.006600862 0.0025561033 -0.006416819 -0.002882948 0.0029663846 -0.0094238445 -0.0020472927 0.008094676 0.0014531843 -0.0068210606 -0.0003906759 0.002407712 -0.008980913 -0.0037030936 0.007844836 0.006410716 0.008796432 -0.0036428245 -0.0019792535 0.0030842274 0.007744407 -0.00047127908 0.00064004574 -0.0020432973 0.0020285898 -0.0026758444 0.0010132312 0.00022227629 -0.0031318828 -0.0066801957 -0.007995473 0.0054609505 0.00481686 0.0015201326
sirloin 0.0014437811 -0.001600804 0.009136352 0.0013101742 0.0084715765 0.0074929534 0.0006622025 0.0034950543 -0.004478156 0.004049702 -0.0027402586 -0.005522565 0.008867844 -0.009295347 0.0013120982 -0.0010550166 0.0063249106 0.002267184 0.0008654763 0.002660784 0.008259258 -0.0006180631 0.0044904286 -0.0069589135 0.0068580955 0.0035855449 0.007896493 -0.003955645 0.00045121982 -0.0048246193 0.0072751828 0.008799849 0.0053767636 0.0014334775 0.006760014 -0.008663689 -0.0020736866 0.008378767 0.007842181 -0.004567198 0.007017133 -0.0024610225 -0.008894601 -0.0029501724 0.0067917467 -0.0076685813 0.0003070614 -0.0012225568 -0.008502093 -0.0024909226
asparagus 0.0030551294 -0.0032694947 0.00078658265 0.009409841 0.0015252334 0.008632261 0.009019812 -0.00022765584 0.0065561375 0.0004917658 0.0010251444 -0.005616229 0.0029939837 -0.0069380496 -0.0012564567 0.0032714396 0.004620059 0.0070335725 -0.0007364658 0.0011344024 -0.008249308 -0.0032976533 -0.0009969613 -0.004555691 -0.0018626723 0.006477199 -0.00863686 -0.009189616 0.003327118 -0.00031360067 -0.0010263505 -0.0055736084 -0.00094976014 -0.004533881 0.007825708 -0.010062613 0.0015807301 0.0028102163 -0.0046018595 0.0030006256 -0.008176991 0.0013010436 -0.008691714 0.0045816437 -0.002221521 0.0071898354 0.0016989112 0.0058004046 -0.008270982 -0.010008564
tortilla 0.0070655243 -0.00491577 -0.0097803315 0.009944154 -0.0025499894 -0.00890327 -0.0013983388 -0.0047776275 -0.0059209927 -0.0023550135 0.00838901 0.0075281956 0.006994139 -0.0025037301 -0.008575341 0.0052190255 0.0025257007 -0.0067636673 -0.0041536656 0.0050392696 0.0007026899 0.009591745 -0.003823908 -0.0060233003 -0.0011727806 -0.0033999316 -0.0021831396 0.0008124552 0.00088192004 -0.009364909 0.0062780287 -0.0017213663 0.0016734346 -0.0005440971 0.0029562477 -0.0065868106 0.003514672 -0.0061188075 0.009802556 0.0044156634 0.007367155 0.0034554065 0.001587825 0.008625538 -0.005434987 -0.0063044853 0.005271154 4.6581496e-05 -0.006416213 -0.009695135
lentils 0.0014773067 -0.0070014894 -0.008955831 -0.0026239608 0.00948092 -0.004209083 0.0018221632 -0.0018355955 -0.0027371692 0.004873701 -0.006234613 0.0079394635 -0.009434931 -0.0041688555 0.0065702223 0.0023404509 -0.00083545956 0.00872159 -0.007838848 -0.0066592176 0.007881988 0.0045780833 -0.0077425228 0.008115953 0.006241752 0.0012231936 -0.003158709 -0.009999327 -0.0022313185 0.003628838 -0.0012115747 0.003452507 -0.008082469 -0.009046185 0.0023296613 0.0045978962 -0.0042586294 -0.003070511 -0.0067081596 -0.00642576 -0.0039473283 -0.0006371433 0.0071963402 -0.0012867581 -0.0078004035 0.0027746048 0.00014479097 0.0022106399 0.0071696336 -0.0029305564
vinaigrette -0.0022843124 0.0017866645 0.0028129008 0.009020851 -0.0036163586 -0.0049727457 0.0070723365 -0.0053071626 0.002182416 -0.0067205164 -0.0049768165 -0.006143517 0.008458842 -0.0047104307 -0.0063229282 -0.0076428573 -0.00361342 -0.0018958893 -0.007109684 -0.0026451468 -0.00844959 -0.009129453 0.009490938 -0.007426339 -0.008356006 0.0072207465 0.0016375191 0.0034084737 -0.008111346 0.0019768684 -0.003569234 0.002979817 -0.0010889308 0.0019339761 -0.0018439653 -0.003273885 -0.005935658 0.0012407651 -0.007522371 -0.0011057738 -0.0056174593 -0.009605977 -0.00036035114 6.2337776e-06 -0.0007064158 0.006190112 0.009124394 0.0027979522 0.0024622942 -0.009492581
berbere 0.00617264 0.008339848 0.0021194948 0.00842986 0.008809411 0.0048775007 0.00665673 0.0060228314 0.005151139 -0.0027049894 -0.002163039 9.642079e-06 -0.007469625 0.0073934635 -0.0037083721 0.0032292814 0.0029559263 0.008392348 -0.00992237 0.001448378 -0.0007583086 -0.0054210955 -0.0020492747 -0.003879959 0.0007029121 -0.0033818998 0.0011949606 0.0029108361 -0.0059383484 -0.0029664056 -0.003302988 -0.008197155 -0.0012228815 -0.003977423 -0.0023040017 0.008699307 -0.009848985 -0.0016834962 0.009219257 -0.0011032055 -0.008769823 0.010081938 -0.005338243 -0.005206845 -0.001994688 -0.008304321 0.005622125 -0.007855398 0.0018002205 0.008425023
saltine 0.0030582391 -0.0009926457 0.004810549 -0.00701476 -0.003922206 0.007612746 -0.007293614 -0.008432728 -0.0021490718 0.005002257 0.001962882 -0.003388841 0.008398548 0.009601312 -0.001598178 0.0030315525 0.0039595547 -0.00060529273 0.008500269 -0.0012631319 0.0027967452 -0.009357208 -0.0074496334 0.0054525607 0.004687506 0.0069773067 0.007667029 -0.0070552262 -0.00026393656 -0.0032666049 -0.0010681488 -0.006749517 -0.0038058474 -0.008436702 -0.0035108866 0.0014720353 0.0023488945 0.009282464 0.008644031 0.008504222 0.0022728057 -0.007842873 -0.0014066962 0.008120128 0.0069842236 -0.0044203885 0.0030970175 -0.0065799616 0.0031885577 -0.009451454
teriyaki sauce 0.00416927 0.004841817 -0.00890035 -0.0049197497 0.0070667057 -0.0051196697 -0.00035287303 -0.007832518 0.0046757036 0.0031650576 -0.0037954038 -0.0028223265 0.0040395996 0.0072418344 0.0075445683 -0.0075395848 0.002996095 0.005634027 -0.0021200075 -0.0056686974 -0.0070855757 -0.0077402815 -0.009730088 -0.008690709 0.001837469 -0.002593774 0.0045019407 0.005766566 0.004932958 0.005773312 0.00957357 0.00693864 0.0032930344 0.001560114 0.00394407 0.0028954658 0.005157427 0.0014980087 0.0073531205 0.008658391 -0.006806133 0.008452151 0.004794445 0.009127435 -0.009897502 0.0024998952 -0.00061486266 -0.0065924297 -0.0027151152 -0.0027457168
cookie -0.004507903 -0.0005722632 0.0007214518 -0.0069709653 -0.008259863 0.0017856172 0.0039726575 -0.0072461236 -0.00936535 0.003494829 -5.341634e-05 0.00066936744 -0.009431263 -0.0057612625 0.0043270225 -0.0063160257 0.0027012066 -0.004286896 0.00848233 0.0056988886 0.0031862142 -0.006923299 -0.006869316 0.00235419 0.008329042 -0.008762569 -0.0012277883 0.0008040964 0.009474884 0.008304935 8.605041e-05 0.009851055 0.009717129 -0.0050344514 0.0034558394 -0.0091528045 0.007987044 0.009642109 0.004374952 0.0072207097 -0.009169341 0.0008373725 0.0066530625 -0.0095183635 0.008089488 0.00246818 0.008490885 -0.0013236378 0.0036690768 -0.009904528
stevia -0.0011780229 0.009882925 -0.00055540045 -0.0052594123 -0.007794268 0.002352413 0.0012218598 0.0048651774 0.005733054 -0.0067352466 -0.0015793814 0.0071284226 -0.008573892 0.00010821567 0.003928761 0.0027906317 0.0029820108 -0.005976007 0.004829744 0.0013351268 0.00026305727 0.008925015 -0.0076249167 0.007124416 -0.0048319595 -0.0037915 -0.00045099843 -0.0043277177 0.003992394 -0.0027399436 0.006331836 0.008301949 0.0027478344 -0.008749463 -0.0035534105 -0.007482373 -0.006038584 0.0039456063 0.00882924 -0.00058763236 0.0045868014 0.008268565 0.0054485127 -0.005225584 0.0025329385 0.008867878 0.00426874 0.0050427048 0.0051353453 0.006416595
halibut -0.004340031 0.0011812956 -0.0044960147 0.0007627804 0.00795666 -0.0012430141 -0.006181845 0.00499781 0.004477157 -0.002580921 0.0034428276 -0.0024617882 0.00375889 0.0008843843 -0.0041043484 0.0063619926 0.0034755622 -0.003361354 -0.0047781486 0.005961114 0.0011155134 -0.0019008263 0.0019368276 0.008483942 -0.0076236525 0.0028827598 0.00711134 -0.0040423432 -0.004817553 -0.0069928346 0.0032920756 -0.0013062443 -0.0044716466 -0.0015567135 -0.009829642 -0.005808085 0.0006055031 0.0020442451 0.008722509 0.0014299325 0.00068752497 -0.00056003034 0.0035578767 -0.0059894975 0.0024590183 0.004884174 0.009130142 -0.0019397475 0.0055855797 0.0019259524
squash -0.008001299 -0.0031632017 0.0023883525 0.0013788856 -0.006974479 -0.009361457 0.0040446944 -0.007836593 -0.00677154 -0.0027384069 0.004791347 0.009680826 -0.0020912462 0.0080248695 0.0021386663 -0.008697981 -0.008150357 -0.0042768624 -0.0051139076 -0.0073091304 0.004261565 -0.0026091032 -0.007483124 0.005244954 -0.003453347 0.0066852826 0.0066793524 -0.0028575426 -0.008072845 0.0077919653 -0.0077663874 -0.0050788596 0.009041056 0.0052925847 -0.005184043 -0.00680517 0.0063939057 0.004323823 0.0074140825 0.0025574889 -0.009174374 0.003314556 0.00051079213 0.0026995856 0.006158401 0.0006784487 0.006438961 0.0055356235 0.0079797385 0.002691642
lemonade 0.00037671652 0.00898841 0.009051163 -0.0007554032 -0.0058592777 -0.008532136 -0.0062322067 -0.0018908763 0.0077028144 0.0014330142 -0.009438953 -0.008152868 0.001717981 -0.009630435 0.005796436 -0.008795579 0.001155178 -0.004574748 -0.009352595 0.006144435 -0.00073365937 0.0022861005 0.0051084673 0.00398433 -0.0065537305 -0.008820913 0.0020417562 -0.004843674 -0.0047478685 0.009409962 -0.0038898531 -0.0028978596 -0.0071159415 -0.008865563 -0.0069513805 0.0044715893 0.0014718306 0.00086666096 -0.0061524967 0.008774454 -0.0018851466 -0.0040317047 -0.008722199 -0.0032606053 -0.007093375 0.0006355275 -0.008883547 -0.008747416 -0.0049221795 0.006993157
chips 0.002360548 -0.0069640805 0.0046435366 0.003491057 -0.006023287 -0.0066774995 0.0002286048 -0.0073291417 -0.0031868736 -0.006451634 0.0053086835 0.00082019594 0.0026329008 0.0011740327 -0.0012652312 0.00653463 -0.0053403215 -0.002666434 -0.0041174465 -0.0060437475 -0.009539258 0.009650979 0.007433562 0.0038160386 -0.004332617 0.0017162797 -0.004889729 0.00051485666 0.0059528686 0.0032798296 0.009230441 0.006490978 0.002450042 0.0046149846 -0.00773368 -0.0043402147 0.00847405 -0.0016735272 0.0072266655 -0.009771905 -0.00017299806 0.009914941 0.0032743176 -0.0045447187 0.0056303144 -0.008725537 0.004906244 -0.006209875 -0.0074304347 0.00820354
chocolate 0.0061164475 0.0036560816 0.0053610057 0.0074083474 -0.006423572 0.0032423702 -0.0054601138 -0.008077517 0.0029921113 0.010031195 0.0076131043 -0.00018833703 0.0040225144 -0.005280499 0.008248898 -0.006878505 -0.004178821 -0.004053057 0.0074010678 -0.002829498 0.008357126 -0.004694174 -0.0026042543 -0.0066186525 -0.007673042 0.0026207152 -0.0004885903 0.009750815 -0.0004071425 -0.0069540036 -0.0068898993 -0.00034524282 0.009401345 -0.0045650364 0.0047686254 -0.0033798076 0.007462564 -0.004426591 -0.001362162 -0.0011611211 -0.0003474671 -0.0073909676 -0.002935708 -0.004234983 -0.00018162781 -0.0025557193 -0.0026877678 0.0029126944 -0.0075089657 -0.005321459
raspberries 0.0009803503 0.0004146324 -0.0029594414 -0.006223815 -0.002337202 -0.0066832798 -0.0012877551 0.004656769 0.008036991 0.0027296045 -0.006195756 -0.0061340826 -0.00700826 0.0011878572 -0.0068425504 0.0005226847 -0.006914794 0.0059534567 0.0072116544 0.006280494 0.0028328914 0.002193659 -0.00627761 0.0012452777 0.0035531684 -0.006477039 -0.009974825 0.0030450083 -0.001765121 7.8966674e-05 0.0044819913 0.003506709 0.0071995878 -0.00058141234 0.0032375827 0.0010085906 -0.00017370541 0.0089434795 -0.00050821475 -0.0029398468 0.0015618023 -0.0017793481 0.0052526924 -0.0045972243 0.0002502464 -0.0018219972 0.0021292774 0.009830722 0.005576131 0.0071207536
pectin -0.0040868004 -0.009716969 0.0022307176 0.006973507 0.0066499934 0.0070820185 -0.008410538 0.0060082427 -0.0011573632 0.008329402 0.0058373422 -0.006811664 0.008381324 -0.005262454 0.0036097772 -0.004706605 0.009221388 -0.00093568594 -0.0043161227 0.005320535 0.0037867236 0.004357448 -0.0028003182 -0.004262319 -0.003986844 0.008535411 0.0033784164 -0.0071357368 -0.009242379 0.0029213636 0.0005351462 -0.0024827372 0.007081127 0.00010466617 -0.003592789 -0.009771377 0.0056978134 0.008588497 0.00619101 0.0018062423 0.007806483 -0.004350829 -0.0058098617 0.0025423986 0.00074601115 0.0093464935 0.009876201 -0.008100234 -0.007284464 0.007906976
certo -0.0063171717 0.008434229 0.003251344 -0.0028169106 0.0034333875 0.004545877 0.009682685 -0.0066500157 0.0040689297 0.0079946965 0.0011750757 0.0021706976 0.0020902082 0.005426457 -0.008497171 -0.009251518 -0.0022318584 -0.0037308247 -0.009295593 -0.009482417 0.00064843724 0.0016701424 0.0029314812 0.0067160414 0.0014615982 -0.008769996 0.0062945443 0.009172451 -0.0017999866 -0.0017849546 -0.0021176306 0.0014237245 0.009394624 0.0034748926 0.00046952796 0.0074381917 -0.008545545 -0.0044191396 -0.00730195 0.0076980526 -0.0018695457 -0.008742772 0.006157938 0.00094394095 0.0014814704 -0.008693319 0.0037238784 0.001965039 0.001863673 0.000862586
bread -0.0056083114 -0.0073848926 0.0092235105 -0.006081499 0.0004146832 -0.0017203356 -0.0016307572 0.0029710254 0.005792378 0.009484122 0.006660507 0.0007108939 -0.008208266 0.0002737299 0.0066208877 0.0063239723 -0.008768323 -0.009209343 0.0036425518 0.0028242823 -0.0065980633 0.009006051 0.007997119 0.00068307976 0.0066264714 0.008445014 0.0048809214 -0.0077232704 0.009454468 0.0066998354 0.0007281952 0.0056121517 -0.0038138267 0.003636907 0.008989242 0.00047043778 -0.0071511953 0.0065134848 -0.0021975841 -0.00869807 0.0011789633 0.006004633 0.0074067255 0.007058629 -0.003405718 0.0058007794 -0.0069488343 0.00667113 -0.0076327673 0.009718574
raisins -0.009470585 -0.005920354 -0.0036784655 0.004087783 -0.0018665029 -0.0045121913 0.00063235307 0.00027970923 -0.0059319306 0.009495088 0.0054856166 0.0050404295 -0.00064704457 0.009253416 0.0042776475 0.008662813 -0.009963755 0.0050885393 0.009921071 -0.0010942151 -7.969411e-06 -0.0015834442 0.005588329 0.0030792258 -0.007523453 0.0024223037 0.0039799605 0.00028789035 0.006405401 -0.0020728877 -0.003715048 -0.0020626844 -0.005663063 -0.003004487 -0.007097062 0.0010437901 0.0012414228 -0.0035172156 0.0067187296 0.00913247 0.0053347675 -0.0092924535 -0.0015991105 0.005925403 -0.0053202277 0.0072521605 -0.004323629 0.0027662774 0.00950339 0.005395693
crabmeat -0.0044145384 0.0030096131 0.0076409276 -0.009791774 -0.004843795 -0.0024816587 -0.009216118 -0.00032844621 -0.0064209257 0.00051274925 0.0040064887 -0.006674275 -7.7072495e-05 0.0051998803 0.0059044366 -0.0035563416 0.004632278 -0.0096400585 0.008125958 0.007743091 -0.005619176 0.0075119305 0.005496225 0.0010136092 0.008618525 -0.002360183 0.0034598254 -0.0062895254 0.009693357 -0.0019055018 0.00863411 0.008986865 -0.007357935 -0.006466312 -0.0013816147 0.0070285713 -0.00830275 0.00447835 -0.009377844 -0.008316512 -0.0067026815 -0.0026723489 0.004312991 0.009613957 -0.00075211463 0.009451939 -0.009053616 0.0029897243 -0.009532596 -0.0047390866
jar -0.0042347433 0.0046531963 0.005816195 0.004700956 -0.0059244647 -0.0014161642 -0.0008173574 0.0040533654 -0.0063354215 -0.0024978053 -0.00911921 -0.009117049 0.009400926 0.0021824837 -0.0062879715 -0.00237145 -0.0026497967 -0.0040266905 -0.0094580185 0.0016333105 -0.0062652812 -0.0010814777 0.0086779455 0.0014628833 -0.002772559 -0.0060736756 0.00031034445 -0.007377331 0.0033632594 0.0012059932 -0.006450463 0.008300488 0.0010768864 0.004898727 0.0048783 -0.0030912247 -0.0024117613 -0.007315549 0.0030880906 -0.009625396 -0.0050258604 -0.002801416 0.008677024 0.00019311137 0.009603992 -0.0069524543 -0.008871897 0.008317197 0.00083165447 -0.0005048573
pizza dough -0.002609046 -0.0063728704 -0.0013875394 -0.00982994 0.0060342867 0.008025237 -0.0056009223 0.0036774925 -0.00701577 -0.008355359 -0.0032046763 -0.0011195312 0.009305065 -0.008662723 0.008711109 0.0006187402 0.009641352 0.008162229 0.005990572 -0.0014145279 0.0045803217 -0.0028601354 -0.005619132 0.004938145 0.003390191 0.0017588816 0.009537334 -0.0060208663 0.0051031853 0.0049131475 -0.004746398 0.0052739945 0.0009439953 -0.0054010563 -0.0031271332 -0.004884808 -0.008447606 -0.0010196917 0.00014767089 -0.00028740842 0.0016644943 0.00036776968 -0.0014178803 0.0091967685 0.0020646655 0.005317856 -0.0070317034 -0.0012511848 -0.0054378533 0.0015206577
leek 0.0006967299 -0.0033440394 0.001603203 0.0060403952 0.002987726 -0.0076524667 -0.0034110881 0.0020855549 0.0077490923 -0.009725794 -0.0067501254 0.004010317 -0.009225677 -0.008989043 0.009227916 0.0070080105 0.0026341341 -0.005364364 0.0006741711 -0.003948253 0.004326386 0.0065696295 -0.0014895773 6.104706e-07 0.0027985768 0.009335988 -0.0070040617 0.008401434 -0.005087196 0.0028273468 -0.001464196 -0.00987884 0.0076390114 0.0046746195 0.0054966575 0.0039782315 0.0032050344 0.002869989 -0.0011887333 -0.0024113408 -0.006805729 -0.003816267 0.0033722753 -0.0065653976 -0.0056876014 0.004022624 0.0022295658 0.008989991 0.009631368 -0.008485041
nutmeg 0.0074563893 -0.007268277 -0.0025379846 0.006267844 -0.003977069 0.0046382905 0.008234289 -0.009051848 -0.009754652 0.0048507154 0.009133679 0.0028135986 -0.0041489773 0.0077953395 -0.00053215737 0.008150669 0.0073590083 -0.0064903535 0.009009942 -0.007107144 -0.007492109 -0.007348754 -0.0093280645 -0.0072923354 -0.007115943 0.0049262983 0.005589676 0.0025580474 -0.0033355553 -0.008297652 0.009989909 0.0015003803 -0.007835695 0.008989024 0.006660621 0.0029084457 0.0057441387 0.008018923 -0.0011773636 0.0026136588 0.00753669 -0.0046668705 0.0023769739 -0.006708765 0.0015139772 0.0045777773 0.00056571106 0.0053932643 0.002751257 0.001408662
tequila -0.00590801 -0.007356091 -0.009051362 -0.0019338533 0.0059527303 0.00077670405 0.0023253418 -0.0023235534 0.00656856 0.0090605 -0.0061660022 -0.005528534 0.008850408 -0.0062009073 0.006673129 0.0027959484 -0.009455087 -0.005293476 0.005906692 -0.004161117 -0.006857776 -0.0030507261 0.004597456 -0.0065995785 0.0005610034 0.007900663 0.0018252782 0.009005445 0.003372968 0.0058372887 -0.0059772916 0.006545127 0.0035370258 0.0010114661 0.0055332426 -0.009778817 -0.006062014 0.008534334 -0.009475291 -0.0072705573 0.0027046592 -0.008802654 0.0066170823 -0.0072580986 -0.008015295 -0.008801202 0.004913827 0.009973295 -0.004521293 0.0066959606
triple sec 0.009190467 -0.004800348 0.008086472 -0.002760073 0.0073138755 0.0011668906 0.0053990544 -0.0045509534 -0.0040826728 0.006628531 0.0034119992 0.004829884 0.0006387272 0.005564701 0.0043602814 0.009528139 -0.002786312 0.0046047037 -0.004074498 0.006203114 -0.00064015354 -0.005827956 -0.007318572 -0.009958974 -0.0055236747 -0.0039824666 -0.00958362 -0.0065905354 -0.008014005 -0.006157831 -0.0016297253 0.0014096547 -0.007737199 0.006559555 -0.005209263 -0.0064440216 0.007651219 -0.00028286068 0.00837253 -0.0027390956 -0.0071730334 -0.009419526 -0.0003071067 0.008680753 -0.008237693 0.0013017505 0.0074916324 0.006964166 -0.006454688 -0.008168266
buttermilk 0.0019640205 -0.0025460036 -0.005513243 0.0028718682 0.009432253 -0.007665416 -0.006849396 -0.009886092 -0.0054528248 0.0076210257 0.003787523 -0.005695328 -0.0010627039 -0.009080061 0.006198682 0.00018538848 -0.0038991885 0.009750873 -0.001597119 -0.0038978858 -0.0065160803 0.0025204218 0.009252572 -0.0048283166 -0.0041309134 0.0017036987 -0.0009573225 -0.00374239 0.004697371 -0.005325656 0.0010028104 0.002032153 0.006264179 -0.008556381 0.0083711445 -0.0070364024 -0.007463525 0.006745061 0.00752855 -0.004733544 0.0025832565 -0.005001401 -0.003134211 -0.009016927 0.0071830126 -0.0050355806 0.008373888 -0.007131049 -0.008977716 -0.0053440635
chile 0.0009064071 0.0023554203 0.0064736246 0.005997436 -0.006726155 0.0098613035 0.001752775 0.0067663514 -0.009744218 -0.00032005043 -0.008830381 -0.0005277164 0.0052062618 -0.0034872566 0.001890929 -0.0022465491 -0.0048474274 0.0022202788 -0.002095704 -0.0015961524 -0.0073252334 0.0063734287 0.0034393952 0.008539534 0.0098627815 -0.009166192 0.0017573929 -0.0061799046 0.005940294 -0.00368197 0.007184191 -0.008292019 0.0040985243 0.0027470062 -0.0015595513 -0.0070105772 0.009761099 0.0031440782 -0.0013421194 0.008829176 0.007317469 -0.009512247 0.0042068004 0.0005479645 0.0030915902 0.006745476 -0.0038225916 -0.0042783255 0.006647249 -0.005675594
poblano chiles 0.0032320656 -0.003030701 -0.003182167 -0.003785307 -0.005438718 0.009947779 0.0024264464 -0.009009975 -0.009052303 0.009534342 0.0047728503 -0.0026389952 0.002604574 -0.0035757094 -0.00816333 -0.0033509545 0.009809403 -0.0005348793 -0.004744985 -0.0093037635 0.0013318934 -0.004135851 -0.0039735413 0.009958167 0.00657968 0.00462667 0.0011434436 -0.006402983 0.0068034497 -0.0044876714 0.0100028105 0.009611197 0.007160337 0.0011963466 -0.009984393 0.0067759277 -0.0021427213 -0.007805518 -0.00012543467 -0.0030682331 0.0024856436 -0.0028147923 -0.0052425847 -0.002390484 -0.0035657885 0.0031879002 -0.0017496903 -0.0051178373 -0.0020104155 0.003297711
grain -0.0071068066 0.002252386 0.00739864 0.00852723 0.002775541 0.005199508 -0.0043864218 -0.010136127 0.005165824 -6.9190086e-05 -4.883013e-05 0.009531422 0.004078633 -0.005588421 0.0019723575 -0.0058883205 0.0017965955 0.0044636745 0.0076353285 -0.00054590055 -0.0038730716 0.0045481906 -0.00391409 0.0072813695 0.0037131808 -0.008422178 0.004264622 -0.0021734354 0.0027125813 -0.0035002797 -0.00893999 0.0003109693 -0.008506348 0.0045675808 -0.004168002 0.0009183406 0.009989903 -0.009794022 0.0027908573 -0.0016549601 0.0053883176 0.008145162 0.0076190718 0.0026123018 -0.00643639 -0.0037638198 0.009648251 0.002739371 -0.0063513783 -0.007541015
yeast 0.0027606809 0.0030652827 -0.0018952229 0.004746402 0.0050702537 -0.009716372 0.001867092 -0.0043104696 0.0059629874 0.00717944 0.007948317 0.00940946 0.0017088242 -0.0029911718 0.002760932 0.009047313 0.0045434367 -0.0038393403 -0.004555958 0.0044182916 0.0036802772 -0.0073657134 -0.008564422 0.0025628495 0.008705818 -0.0025162783 0.00981937 0.004762931 0.000380082 0.006510019 -0.0007225819 -0.0058947103 -0.0024858157 -0.0010792933 0.009140495 0.0037635618 -0.006645866 -0.0077605764 -0.0033272544 0.0063117594 -0.0034782712 0.005378775 -0.0011992148 0.0002452252 -0.005133571 0.0029409162 0.006807273 -0.002372476 -0.0011734386 0.0011003022
avocado 0.0046158144 0.00803464 0.00199985 0.009305977 -0.0013228105 0.00017644896 0.0014180184 -0.008947817 0.006277551 -0.0011065565 -0.007725323 -0.009805576 -0.0058565135 -0.003360918 0.001069402 -0.0014594424 -0.0032692095 0.004502796 0.008933786 0.0037470576 0.0098864315 0.006274298 -0.0014609405 0.003581232 -0.0028074207 -0.002298988 -0.00023241641 0.009640718 -0.00052916777 0.0039103823 -0.008722376 0.0067034424 -0.008314305 0.0011371719 0.008569024 -0.0067559755 0.009414796 -0.0016250066 9.289641e-05 0.00027919794 -0.005638081 0.0067667975 0.0005257243 0.0020954227 -0.008105067 0.009008594 0.007835601 0.0018227005 0.0016939122 -0.0012571508
