198 50
salt 0.0062306104 -0.0064172572 -0.006031429 -0.003378119 0.007055646 -0.00778589 0.007865038 0.008714799 -0.0053599835 -0.0074658184 -0.00077574974 0.0037789515 0.009674146 0.006486359 -0.003748159 -0.000806488 0.008780493 -0.0012974443 -0.0046238345 0.008504302 0.0013376958 0.0068545905 -0.0035055738 -0.005045683 -0.0013074311 0.007296894 -0.0033661083 -0.003943733 6.1476276e-05 -0.0017500569 -0.0066594393 0.008921312 0.0057013845 0.006829741 0.00909135 0.0008248878 0.0052636126 0.008590662 0.0050073136 -0.0025927157 0.0075227995 -0.0053304248 0.005021107 -0.004257845 0.0011942826 -0.00040011993 -0.006645462 0.009564803 0.003030203 0.0065279207
tea -0.005363804 -0.00056922255 0.0068462053 0.008089433 0.0045656124 -0.009590741 0.009329461 -0.004031089 -0.0069783777 -0.007154111 -0.0018919685 -0.005907027 -0.00463573 -0.0044568195 0.0027936336 -0.0010615148 0.0080512 -0.0023892056 -0.0040801414 0.005358004 0.0057760645 0.0013154445 -0.008830015 -0.00061921705 -0.0035167434 -0.002069876 -0.007179529 -0.0030077542 0.0017921079 0.008041558 -0.0070933523 0.0017064676 0.004187725 0.007811275 -0.004274616 -0.007275819 -0.00883044 -0.0076934327 -0.0099903485 -0.009959938 0.007490979 0.0030568154 0.0045678862 0.008976568 -0.010617061 0.0021871051 -0.007013945 -0.0077990196 -0.0038818098 0.009236043
ice 0.0032326693 -0.004953065 -0.0039242976 -0.0006065493 0.008005637 -0.0033974294 -0.005268789 0.004358805 0.0052937143 -0.0017873473 -0.00968794 0.008921947 -0.0016396403 0.0016583665 -0.0053768395 0.0045898743 0.0063603665 0.0071926005 0.0015042106 0.0019443542 -0.002982418 -0.00081907853 0.009527939 0.00031809858 -0.005649372 0.008569495 -0.006919376 0.008969313 0.005925901 0.0003617299 0.002717343 -0.007488912 -0.004841853 0.004880511 -0.004656821 -0.008616686 0.003895593 0.008593812 -0.008292253 -0.006740003 0.008663509 0.002862866 -0.0045620245 0.009709877 0.007981588 0.003624436 0.0053471955 -0.0006275218 0.005271702 -0.009455107
butter 0.0039603757 0.008637004 0.010320605 -0.0010454836 -0.00329166 0.0061164233 0.007896329 -0.0014967334 -0.0026294168 0.00022039204 0.005186628 0.009617529 0.008967636 0.0039500305 -0.009507891 0.0033765847 0.009155454 -0.007806777 -0.00823253 0.0057387776 -0.00080674986 -0.0012135586 -0.005961453 0.008880015 -0.0028650542 -9.557276e-05 0.007493919 0.008201233 0.0051931497 -0.0076122307 -0.0068949466 0.010639697 0.003366352 0.005739951 -0.0015417146 0.0011089465 -0.005224716 0.0052054087 0.0005956873 0.0050285086 -0.008473332 0.0055921497 -0.006863073 0.001270088 -0.004091286 0.0056720097 -0.004469547 0.006468369 0.0070936703 -0.0043159337
pepper 0.0059692767 -0.0034350418 0.008744722 0.004098949 0.0014669722 0.0038342264 0.010324749 0.0014998642 0.0049457266 0.0049628415 -0.0017328805 0.0077075055 -0.0036102473 -0.0044666603 -0.0026982538 -0.0046135127 0.0069423765 -0.0030780693 -0.0010966052 0.005534068 -0.0025348165 0.0091676405 0.0029383642 0.00061721413 0.009306705 -0.0024905002 0.0019765787 -0.0048787277 0.008512442 0.0009929868 0.008980554 -0.0048292438 0.0077031804 0.009690257 0.004648435 -0.0015796274 0.0024125814 0.0016270622 7.2302064e-05 0.006935596 -0.0005147872 -0.0016320118 0.0054473705 0.010026981 -0.004078191 -0.008721788 -0.0036260246 0.004210032 0.006314792 0.005977196
hop 0.0051640803 0.00839206 -0.008463774 0.008963267 0.004664816 0.00546628 -0.0009891635 0.009200915 -0.008949044 -0.0054861344 -0.0067143603 0.0057525 -0.008318313 -0.006869295 0.0053982167 0.010120915 -0.00096511276 -0.0063023428 0.004103483 -0.0027147904 0.0030779957 0.007167465 -0.0046647917 0.0027799776 0.0024532364 -0.0014598642 -0.007014513 -0.006121093 0.004665756 0.0051496592 -0.0017597774 0.0065319864 -0.0074885706 0.006492105 0.0024320604 -0.0047652167 0.005197742 -0.0072971634 0.0084947 0.00034389942 -0.007895852 -0.0062946244 0.004885895 0.003421325 -0.00055499206 0.0030626466 -0.0016102858 -0.0022193594 0.009197035 0.0019226787
cheese -0.00092117104 -0.007152831 0.009770416 -0.0020066882 -0.00412554 -0.008185623 -0.008972582 -0.001800309 0.0049476493 0.0053765206 -0.004782308 0.00074949063 -0.008662245 0.0094870385 -0.000119630815 0.0035123003 0.005211473 0.0062390254 0.005981275 -0.0028118095 0.005528104 0.008579719 0.0083356025 0.009523699 -0.0015109357 -0.007211262 -0.0016114576 -0.009478383 -0.0007000697 0.005401793 -0.00622248 0.010751231 -0.009241869 0.006061735 -0.0005835899 0.0027245958 0.0056827283 -0.002649147 -0.007393367 -0.0026448886 0.009328812 0.00788234 -0.008198742 0.0016118384 -0.0034397894 -0.0032457793 -0.010352079 -0.0054223523 -0.0007817665 0.006367827
sugar -0.0025819552 -0.0016132006 0.0038738812 0.009344991 0.0051693115 -0.0024420635 -0.003608227 0.0013041107 -0.005306258 -0.002925842 0.0060731084 0.0045983717 -0.001954583 -0.005670598 -0.003125478 0.009431765 -0.007774984 -0.009000892 0.007568944 0.0070668817 0.0019148922 -0.007334912 -0.005669542 0.0059919944 -0.0027342269 -0.0034264815 0.0026438003 0.0026634948 0.009663235 -0.0043481602 0.006210539 0.009701782 -0.0052962787 0.0040794676 0.0051577045 0.0044450522 0.0032184843 0.009405844 0.008423418 0.0021475658 -0.0039805467 -0.0026702739 0.0037699316 -0.008202691 -0.0095777605 0.004523479 -0.00784847 0.007884248 -0.008381545 0.0100713195
egg -0.0032124952 -0.00042194696 0.00984731 -0.0025767616 0.007904793 0.0047408296 0.00096610223 -0.003620617 -0.0055105304 -0.00024892803 -0.00863955 0.0038773543 0.0049080676 -0.007144444 0.005177493 0.0014119751 0.0054341443 -0.0045576664 -0.0020643827 0.0032632886 0.0072151404 0.008626699 -0.007339288 -0.0063513727 -0.0018045823 -0.0051167347 0.002324602 0.008202293 0.005637737 -0.0032872616 -0.0044601066 -0.008444614 0.006630372 0.0070225317 0.003174262 -0.009578091 0.002509985 0.009755132 0.004886564 -0.008026072 0.004874317 -0.007515781 0.0081896605 0.008096602 -0.007510083 0.0070528747 0.0094521325 -0.0009589963 0.008840413 0.009327375
garlic 0.0014490474 -0.0032240488 -0.0024333633 0.0024863058 0.0039548636 -0.0012377664 0.0047757877 -0.0015327858 0.0002507136 -0.0071127266 0.0038781948 -0.008579425 0.008870733 0.0007026044 -0.00011323892 -0.003487956 0.005735018 -0.009896927 -0.003836386 -0.008330962 0.00495071 -0.00056090637 0.0034408222 -0.007834758 0.0021751279 0.009033276 -0.0011165517 0.0044113123 -0.0034587171 0.008003162 0.001203537 0.0093699675 0.0075349067 -3.548304e-05 0.002781407 -0.009843324 0.0021256702 0.0070757833 -0.0058914763 -0.00616527 0.0052177226 0.008411191 -0.0010100954 0.00250397 -0.0061829844 0.0030227194 -9.217071e-05 0.003851063 0.010276468 0.009758519
oil 0.0045017963 -0.0040449267 0.0074907597 0.004298197 0.0068048905 -0.006644909 -0.0050221616 -0.009164201 -0.0027182559 -0.0088613015 0.0048863287 -0.0018812191 -0.0041607074 -0.008499609 0.007833379 0.0061595184 -0.0068690665 0.00045432016 -0.0034095887 -0.0043021124 -0.0053414167 0.0070521845 0.0012071067 -0.00065771263 0.0007151421 0.0045626876 -0.003867051 -0.0036301673 0.010492385 -0.00047218447 -0.0029382668 0.0041385023 0.004606506 -0.0032599734 0.0033620824 -0.0068714386 -0.008398092 -0.0034353675 -0.0011647944 -0.0040267794 -0.0017042287 0.005940735 0.004204571 -0.0008039357 -0.0077898367 -0.0030304545 0.006076422 -0.008888182 0.0102573745 -0.0003293158
juice -0.007833978 0.0032608695 0.0010998814 0.0100125065 -0.004561621 -0.005493221 0.0062565566 0.0074690757 7.9570076e-05 -0.0069094826 -0.0058194413 0.0034781143 0.0041541858 -0.0033444776 -0.009520548 0.00024733954 0.0074845976 0.008987469 0.002502078 0.0062007974 0.003659257 0.0035207206 0.00891465 -0.0026879988 0.009134864 -0.0043398733 0.0047412044 0.008635167 0.00011154952 0.005069426 -0.0018467578 -0.004511149 -0.0010109479 0.0081309425 0.0034693908 -0.005413929 0.008901727 0.0033641222 0.00797419 -0.0033206241 -0.0034798533 -0.00035811338 -0.0032512357 -0.007473351 0.007485074 0.009181396 0.007876189 -0.0030520465 -0.0009608248 -0.008556637
flour -0.0014281245 0.0044273264 0.0022587255 -0.005131789 0.0031599533 0.0027069196 0.007616674 0.007834895 0.009284265 -0.0066445433 -0.0070734853 -0.0016285968 -0.008822453 0.006384903 0.002342976 -0.008934248 0.0058545223 0.001313917 0.00050815457 0.0018702636 0.009369019 0.009258859 -0.0040600677 0.008463806 -0.0021707236 0.0023861504 -0.0059105456 -0.00025548093 -0.0073014344 -0.0014288161 0.0066193235 0.006717163 -0.009489719 0.0014598015 -0.008024659 0.0026412474 0.0037702015 -0.0016279741 -0.00059430307 -0.004345192 -0.0006668742 0.0044753305 0.00034335683 -0.00057479384 -0.004078822 0.00019909459 0.0007979585 0.00033420243 -0.005185277 -0.0059786392
onion 0.0058988016 -0.005005453 -0.002757566 0.0074809855 0.002651754 -0.009737823 -0.0072593694 -0.0044661467 0.008222424 -0.007933178 0.004484527 0.007024439 0.0052295723 -0.00024215832 -0.0022146145 0.0041729272 0.0035197716 0.0014273253 -0.008251765 -0.004120642 -0.002694721 0.0030866608 -0.00908046 -0.007943639 0.00547023 -0.008494742 0.003140651 -0.009376913 0.009195817 0.004251499 -0.0073179943 0.0049924487 -0.0073883655 0.009383398 0.0060406397 -0.007146133 0.0083027845 -0.004573068 -0.0077607534 -0.0057359333 -0.0007425437 -0.007672463 -0.008333925 0.0017341714 -0.0042344835 0.007898465 0.0035248264 -0.0015536519 0.007184326 -0.005431096
cream 0.0022015634 -0.007548433 0.009040469 0.0042443657 0.004647949 0.007696576 0.010069932 -0.0030593113 -0.0062326733 -0.00790261 -0.0035235481 -0.0033288735 0.00050682813 0.0026864612 -0.002623893 -0.0021265647 -0.0023246496 -0.010062279 0.001909453 0.006610529 -0.0030969367 -0.00083895336 -0.007466491 -0.0020042388 0.0048599155 0.009024399 -0.0100573255 -0.0033051604 -0.009332241 -0.008600476 -0.0024989743 0.007933361 -0.009234001 0.0033647397 -0.0068716505 0.005989365 -0.00033882278 -0.0072026406 -0.008776797 -0.001944099 0.0035208114 -0.0060778186 0.0016700596 0.006968063 0.007582629 0.0031520047 -0.0047994438 -0.009526358 0.0066911974 0.0043303864
water 0.009130649 0.004456013 0.0008557787 0.005465767 0.0002620368 -0.00025582878 -0.007456496 0.00072042167 -0.005553685 0.0007927166 -0.0072141546 0.005053065 -0.006860192 -0.0045657866 -0.003630925 0.0080319755 -0.0029660668 0.005215262 0.004961246 0.0024290113 -0.002166488 -0.0042538703 -0.0020924537 -0.0017730403 0.00777604 0.0032164466 -0.006927059 -0.0077723023 0.009719401 0.009326695 -0.0030294703 0.0024953377 -0.0096517205 0.004288363 0.0019796123 -0.007760914 0.008796692 -0.0025028777 -0.0057617384 0.0058915047 0.010046632 0.00742225 0.008112896 0.007478507 -0.003590298 0.007931141 0.006104354 -0.0014557719 0.0026822777 0.00042635077
milk 0.0004543146 0.004122677 0.002253842 -0.006425498 0.0060961507 -0.005740537 0.00044246638 0.0019189479 -0.0057518054 0.0020018397 0.009347604 0.008571725 0.000952876 -0.0018252641 -0.007646195 0.008272918 0.0026299271 0.008797256 -8.5341024e-05 0.0034468689 -0.0022601814 -0.007689786 0.001854814 0.007303634 0.0067401985 -0.0050441967 0.008242952 0.0007852332 0.00848133 -0.0017362661 -0.0052468837 0.010098253 0.001091146 0.0013656565 -0.0029662508 -0.0071330317 -0.0052128434 0.00065511715 0.007584338 -0.00028211073 -0.0010041487 0.0005237514 -0.0027595158 0.0019229705 0.0072435513 -0.007531837 -0.0040718312 0.00034634807 -0.008428915 -0.0029210923
vanilla -0.0070865876 -0.0054790815 0.0044493903 -0.003953844 -0.004103282 0.00039052186 0.010352308 -0.0065101567 -0.0063717295 0.003275425 -0.00085468916 -0.007903014 0.007311668 0.009221178 0.006115529 0.0041593276 -0.0063941684 -0.008224717 -0.0017723929 -0.0054257708 0.009194083 -0.0078113163 -0.0050830636 -0.00093814114 -0.0046939855 0.0067025786 0.005152585 0.0066810735 0.0013421467 0.005837998 -0.006442547 0.0008002811 0.004381006 0.002925486 -0.0066603683 0.00094608346 0.002253302 0.0020988092 -0.004626365 -0.003405527 0.0052535394 -0.007276471 -0.0060891076 -0.004670911 0.002629698 -0.00026287787 -0.008029062 -0.0073098363 -0.0019288587 0.0012973013
lemon 0.007894137 0.005109574 -0.0016521304 -0.0061252173 -0.005214401 0.0074093896 1.5519245e-05 0.001254643 0.009534388 -0.007163125 -0.009284706 -0.005333093 -0.008482524 0.0099366605 0.0019125635 -0.0035980148 0.008422614 -0.009482396 0.0024125923 0.005293814 -0.0004533967 0.0075254506 -0.004577698 -0.00038874746 0.004284049 0.005507985 -0.0033366024 0.00016311246 0.000781582 0.0067769955 -0.007879404 -0.0016299799 0.007588211 0.0042944215 0.0005291647 -0.0012520716 -2.9898776e-05 0.003421628 0.00751164 -0.008166176 -0.0048197056 -0.0041736457 -0.0029044517 0.0013749548 -0.010457095 -0.009091185 -0.0024084847 -0.007854733 -0.0017594608 0.006121202
eel 0.008775024 0.007270674 0.0040283315 0.0062825275 -0.00049463415 0.0043546595 0.0015972723 0.0053036613 -0.0043038223 -0.008838475 0.0027859958 -0.0038089566 -0.009753926 0.0019104959 -0.0004197288 -0.004595668 0.00019551921 0.004771884 -0.008015382 0.009399632 -0.0036746864 -0.001062406 0.0031072625 0.00035332804 0.008735435 -0.000515758 0.002483195 -0.0025642589 0.006059222 -0.0070854765 -0.008105999 -0.002560088 -0.0046891416 0.005990968 -0.0012633307 0.0068983217 0.0072344383 -0.008185064 0.002270732 -0.0060492246 -0.008352618 0.008295543 0.009818005 -0.008419527 0.006194572 -0.0011206315 -0.0078213 0.006671742 3.850886e-05 -0.007761367
tomato 0.0063420753 -0.004033578 -0.00063397264 0.009188018 -0.0047609624 -0.0043246015 0.0094524715 -0.0019761962 -0.0017302824 -0.009580482 0.0017419282 -0.0005514565 0.0054833777 0.0019991572 0.009113642 0.0098256 -0.0016891481 -0.01076586 0.0011755655 -0.009525249 0.0065739634 0.007373589 -0.0037216125 -0.002210014 -0.004615948 -0.0076502957 0.00634234 0.005414041 0.0049366397 -0.009178046 0.0056454265 0.0005568875 0.0074997153 -0.0053167758 -0.0072655138 -0.004877351 0.0024304367 0.006425971 -0.0010230449 -0.010176568 -0.0023188519 -0.0067687677 -0.0075646536 -0.008869566 -0.008653092 0.0029190888 -0.009397623 0.0070425477 0.0038945205 3.0641626e-05
cinnamon -0.006458919 0.0059783836 0.005527006 0.0093969535 0.0009260978 0.008878372 0.0033980405 -0.0047029746 -0.008142639 -0.003920348 -0.004544803 -0.0016737656 -0.004873479 -0.005779684 0.008657365 -0.006696717 -0.005939078 0.001981967 0.006484691 0.008665127 -0.0048123053 0.0028104747 0.0010780569 -0.0072180703 -0.007926552 -0.0036798972 0.0042195823 0.0074069602 0.0050388365 -0.006769745 -0.001593308 -0.006897301 -0.004104009 0.0020897628 0.009669551 0.001007239 0.0047391667 0.008202328 -0.008570577 0.0062458455 -0.009621653 -0.0004893625 -0.007676924 -0.005280464 0.001258244 -0.0086834505 0.004000113 0.00678155 -0.0027593158 0.0014830019
clove 0.0020297847 -0.0045426995 0.0016223923 -0.00530642 -0.0012401532 -0.009673396 0.010168684 -0.0025350146 0.0024752165 -0.009578686 0.005968982 -0.00028121163 0.001911833 0.0097229825 0.008664067 -0.0027749573 -0.00469604 -0.010249596 -0.0034520156 -0.006809419 -0.00039907586 0.0032608989 -0.0030621397 0.0051356247 -0.008230985 -0.0029886493 -0.0039273133 0.0077861645 0.002756389 -0.0025436247 0.008989757 -0.005584085 0.00667409 -0.0017271079 0.00732829 0.0029848872 -0.00058531435 0.00080269296 -0.0051742527 0.0025959946 -0.007676561 -0.008428205 0.008036303 -0.007820118 0.0060318965 0.0029904852 -0.00083502 -0.0007375764 -0.0073016924 -0.002018131
gin -0.009078735 0.0025007084 -0.0016977969 0.005450141 0.008039461 -0.0017993223 -0.00060396286 -0.0040826364 0.008421216 0.0005734574 -0.008485656 0.006385082 -0.006309823 -0.002469699 0.0034501867 0.009370602 0.0043193162 -0.0095682815 -0.0044520693 -0.005529972 -0.004958742 -0.0004963272 1.4632827e-05 -0.00064408185 -4.7435205e-05 0.0067578675 -0.0010874057 -0.0033662054 -0.0041081873 0.0005761387 0.004858249 -0.0030230505 -0.0009855094 0.0040520746 0.0088343015 -0.009703516 0.0041049276 -0.0057798377 -0.0045366427 -0.0054228534 0.0043671955 0.0009519338 0.009692053 -0.004033383 -0.0064527933 -0.0069167344 0.0058147763 -0.005582561 -0.0013180062 0.0058162534
vegeta 0.0023771906 -0.008399089 -0.0074183857 0.0037374585 -0.0034231911 0.002472716 0.010337344 0.007131346 -0.007266399 0.0035959813 -0.0073129567 0.0038221811 0.0018214264 -0.0069564437 0.007738919 0.0028311634 -0.0071037733 5.897847e-05 0.0058594015 0.0034042168 0.0008894258 -0.009099956 -0.0035659927 0.0027075305 -0.0081078475 -0.00683428 0.009627124 0.0096076 0.008419575 0.004626019 0.003999533 0.0053336485 -0.006256951 -0.0065291887 0.006834366 0.00037580729 -0.007173876 -0.005024301 0.00045217024 0.0011946354 0.0059139077 0.007053627 0.002827007 0.0009857788 -0.005545624 -0.006739024 0.0076647666 -0.007908958 0.00752624 -0.0025692747
olive -0.0026230146 -0.0054207486 -0.0070075607 0.004565881 0.00414274 -0.0016506804 0.0069140447 0.007422065 0.008209038 0.0039314516 -0.0083033 0.0013206206 9.897118e-05 0.0073654186 -0.0047594835 0.009626551 -0.0079457015 -0.0071578394 -0.0009014623 0.0003567049 -0.0040584127 0.000811399 0.008775588 -0.0049417196 -0.0033742348 0.007411368 0.0098085785 -0.008929513 -0.006154552 -0.00048035823 0.004098369 0.009091211 -0.009210118 -0.0076957345 0.00010652397 -0.0011826097 0.0064091887 -0.008265981 -0.00019310569 0.0045099123 -0.0006442176 0.00038830136 0.00624043 0.00803072 0.002290486 -0.006970925 -0.0073826914 -0.0064667985 0.00931495 0.006786135
corn 0.0026561888 -0.00898685 -0.0012557302 -0.008486297 0.0055210576 0.005355786 -0.004964052 0.0029518977 0.003893133 0.0075216754 -0.006771069 0.006905522 -0.009718461 -0.005803681 -0.00047593424 -0.0059648613 -0.0027142656 0.007626479 -0.00195816 -0.003886157 -0.0038845844 -0.0042511127 -0.0010373627 0.010051182 -0.0025600833 0.0052621905 -0.00020472563 -0.0077227857 -0.0055075493 0.0012255475 -0.0086719 0.0063617514 0.008130829 -0.0066600377 0.0030327286 0.005589898 -0.009604459 0.009823634 0.003391705 -0.010128272 -0.0011491964 -0.0064703966 0.0026834991 -0.0065675727 -0.0027778693 0.0033055502 -0.0071142414 -0.002360465 0.00053753017 0.0052674967
potato 0.0005660023 0.0058375923 0.0007130097 -0.0040728105 -0.0078082434 0.008992448 -0.00072774134 -0.0073150797 -0.006231528 -0.0100874165 -0.0069601582 0.008072962 0.008884477 -0.0040671956 -0.00423015 0.0034354404 -0.0011461341 -0.0007414904 -0.0039842217 -0.0032888283 -0.0051023373 -0.005523547 -0.0034570221 0.0018585267 0.0042663612 0.00049589033 -0.002484661 -0.0098807495 0.005594024 3.4341963e-05 -0.002571903 -0.0045460514 0.008434302 -0.0039342307 0.008930561 -0.0076834983 0.0063890503 -0.00591319 0.005523904 -0.008699586 0.008417286 -0.002126876 -0.0011629926 -0.0048435265 -0.0024168806 0.005008231 -0.0034813448 0.009895354 -0.0039279545 0.005679673
orange -0.0028927387 0.0058417143 -0.006504723 -0.0016568013 0.0059661143 -0.0100508565 0.010398262 0.0043020984 -0.0024779292 -0.004939425 -0.007945044 -0.0041983835 0.0018382985 -0.0030657484 -0.008381573 -0.0069429935 -0.0048299925 -0.0002639568 -0.004144557 -0.009456098 -0.0077457866 0.0026242335 0.006305818 -0.0018514425 0.007701442 -0.008053736 -0.0071188686 -0.00494161 -0.0060279495 -0.009757941 0.0066477186 0.010124191 0.0014815389 0.0008797134 -0.0043863948 -0.004233389 -0.005263311 -0.0025067364 -0.003183741 -0.0048054243 -0.008361878 -0.007268115 0.0066968687 -0.008407901 0.0037045854 0.0012575542 -0.0044092285 0.007330716 0.0027550128 -0.009473324
fat -0.008728991 -0.0044168415 -0.0041509354 0.0036108661 0.0017227313 -0.008197029 0.004123539 -0.0058586276 0.008140916 0.006603801 -0.0038818086 0.00042438981 -0.0016680106 -0.0040018293 0.0037617227 -0.009112755 0.0037166986 0.0060029197 0.0076180403 -0.009489991 0.0047126957 -0.0035973128 0.0008697561 0.006966555 0.007720827 -0.004337713 0.008798491 -0.00986023 0.0020337657 0.008515175 -0.007571633 -0.008741036 0.007904562 -0.004510504 0.0064570527 0.0017445586 -0.005756602 -0.008812769 0.005539123 0.009178607 0.001354877 -0.0011621641 0.004135457 -0.0091184685 -0.009970293 -0.008452208 -0.0067194034 -0.008808335 -0.009259705 0.0043895314
baking soda -0.008797134 0.0024725732 -0.005452627 0.0074439542 -0.0041172043 -0.007722813 0.0071531055 -5.538817e-05 -0.0034166551 -0.008320988 -0.007781989 0.0070849387 0.0054762126 -0.0035371562 -0.0060677463 -0.0048819813 0.006128895 0.0025100845 -0.0019970003 0.006643507 -0.009410559 0.0060863434 0.010072459 0.0039752945 -0.0012647262 0.0042812726 -0.00264016 0.0040998976 0.008651396 0.0028457239 -0.0016303869 -0.009124421 -0.008091302 0.0004405787 -0.00335071 -0.0028079078 -0.009809481 -0.0062465486 -0.008451721 -0.00045108804 0.008733586 0.009069756 0.008085279 -0.003380879 0.0016565266 -0.0037177438 -0.008436036 0.010027007 -0.0061640493 0.0064437925
wine -0.004466179 -0.0064060017 -0.0046513346 0.0032186038 -0.0022181284 -0.0061137476 -0.007020348 0.005605486 -0.0089799715 0.009614345 0.0015398333 0.005284073 0.004905598 -0.004269837 0.0004569909 0.0083229225 0.007713328 -0.0033918063 -0.009242167 0.008904155 -0.0032563964 0.0026054322 -0.0060075545 -0.00889433 0.007322945 -0.0041575907 0.006979944 0.0018258779 0.002617657 0.005161584 0.0058956775 0.0051634004 0.008130226 -0.0021372642 0.00015764023 -0.010013655 -0.009889528 0.001655816 -0.008889824 0.005538942 -0.0016140433 0.005520385 0.0040360186 0.0014683526 -0.00015838524 -0.0039005459 0.009161454 -0.0035408437 0.007422689 0.009441782
honey 0.008711559 0.007914721 0.0046979235 0.0018207256 0.005875249 -0.0019760397 0.0014452809 -0.00586694 -0.0035464521 0.0028891142 0.0063535594 0.010209905 0.0006750629 0.0051992484 -0.0040069977 0.009545606 0.0033701805 -0.007725208 0.0023617707 0.0027011747 -0.008807931 0.0072605545 0.008841711 0.008984823 -0.010102161 0.005956867 -0.0032456846 0.009090881 0.0041120644 -0.004670483 0.0069197384 -0.0069104726 -0.008367789 0.0009006073 -0.007715471 0.0017543759 0.00872563 0.005850879 -0.004685782 0.0033961253 0.00039402177 -0.006840722 0.005858676 0.0046733553 -0.00525474 -0.007243626 -0.006246665 0.0027676853 -0.0031001521 0.00023219602
stick 0.008908227 -0.0033441368 0.008809219 -0.0011677169 0.005220167 0.0091960495 -0.0067633633 -0.0024771963 -0.008082419 0.0041356334 0.001713704 0.002214486 0.007483715 -0.0003759295 0.009481852 0.009871787 0.00881773 0.0053164554 0.004948524 0.0051121735 -0.006874718 -0.006772362 -0.008336626 0.009808547 -0.0065157027 0.008152709 0.0026638913 0.006662308 0.005609494 0.0015151988 0.0007150623 0.0045940755 0.007587936 -0.0069952337 0.006217586 -0.009036737 0.009534157 -0.0058103045 7.719626e-05 -0.007948599 -0.00253465 0.007974167 -0.0016868532 0.008006887 0.005666565 -0.00078422664 -0.0011881393 -0.0009276745 0.0052590827 0.00486855
pen -0.001655055 0.0050874585 0.00076169753 0.006218021 0.0017968817 0.008192084 0.0034603393 0.005306783 -0.009375374 -0.008083027 -0.0045556882 -0.009342056 -0.0012229446 0.0036229198 -0.0024086237 -0.0036239 -0.008807432 -0.009854425 -0.0029269962 0.0011304988 0.0048665036 -0.0030699193 0.009810804 -0.0036230139 0.0080033485 0.0045777215 0.0052170786 -0.0058023315 0.006813877 -0.002470248 0.0037465694 0.0045453357 -0.0028874138 0.009662683 -0.0015677034 0.0018186661 0.0094184615 -0.003211201 0.0067681437 -0.009506462 -0.003266617 -0.000803901 0.0085727135 -0.0029603792 -0.0023804794 -0.006742605 -0.005375251 -0.005177456 0.009671664 -0.006179222
vinegar -0.006267042 0.00862594 0.0003619441 0.0048142495 -0.0032049727 -0.003408379 0.0028931978 -0.002573032 -0.009691031 -0.005432713 0.008141845 0.009964385 0.0061555174 -0.004504147 -0.005979573 -0.004053407 -0.0027641444 -0.0007949079 -0.007739841 -0.007016022 -0.006596833 0.0056816116 0.006146928 0.0042144717 -0.0098741595 -0.0096537955 0.0038503432 0.00952232 0.0012735532 -0.0029671423 -0.0027830019 0.0047850744 0.0046408665 -0.0034407114 -0.0057325023 0.009104856 0.007844613 0.00464529 0.008063005 -0.009216093 -0.00202164 -0.0020197686 0.004688713 -0.00035452686 -0.0011555207 0.0051506455 -0.0055453572 0.001455672 0.0067982636 -0.002956633
ham 0.0036839442 0.0037418818 0.008664237 0.006875668 0.006380008 0.0007786657 0.010027133 -0.0054911757 0.006603052 -0.00065412594 0.002824254 0.007934981 0.00075581763 0.0067207552 -0.0024731895 0.004791288 -0.0066652 -0.008759257 -0.0069934037 0.0016536503 0.0069446503 0.010122407 -0.006781105 0.005556893 -0.005925734 -0.002889492 0.0055520292 -0.0020812661 -0.0009718948 0.008733936 0.009234873 0.003335699 0.0006563585 -0.0068541304 0.002545426 -0.0027725194 -0.0019066654 0.0016733905 -0.0011571716 -0.0025118028 0.009461665 -0.00042687866 0.0033879548 -0.0007733761 0.00032100987 4.419623e-05 -0.0011519877 -0.0022410026 0.007639241 -0.006581457
coconut -0.0012916571 -0.0072310898 0.006199212 0.0064111585 -0.004533533 0.008422049 0.0052698874 0.0016495362 -0.003437678 -0.0043804394 0.0029916603 0.0038642178 -0.0022566414 0.0041876254 0.0064319577 0.006723956 0.008602531 0.0038486514 0.0050966335 0.00029199393 -0.007849269 0.0076973555 0.0014144308 -0.0055310302 -0.00423029 -0.009124463 0.009514017 0.00949035 -0.0004995173 -0.0034535113 0.0028139346 0.00725759 -0.0043399828 -0.00056220504 0.0003169908 0.00937294 -0.00712986 -0.004806079 -0.0059636263 0.004728856 -0.00972748 0.007586073 0.0089512905 0.005295496 0.0071918517 0.006785413 -0.0053029247 0.003341021 0.0016589485 -0.002227459
beef 0.0073924772 0.00919712 -0.00059875473 -0.0073102014 0.00084913877 0.007559 -0.0027309537 -0.00070891675 -0.0028675476 0.0071405144 -0.0025974887 0.00691092 0.0074995686 0.006888423 -0.008248464 0.0022369511 0.007942828 -0.0076615075 -0.0020118784 -1.3357242e-05 0.008585804 -0.005720623 0.007815218 0.009389391 0.009071912 -0.009142796 -0.0063861785 -0.00306086 -0.008565996 -0.0027488472 -0.009300137 0.006914547 0.003982928 -0.0034490258 0.002766938 0.0012528925 0.005107547 0.0048642578 0.0026000158 0.0008768645 0.009580212 0.007320269 0.007657695 0.010147691 -0.004435516 -0.00063599314 -0.002026406 -0.0019293656 0.004985266 0.0062325443
apple -0.0054060747 0.0075107072 0.0033189533 -0.006506287 -0.009944534 0.00813903 0.005678173 0.0007669203 0.0003108848 -0.00030840197 0.005754896 -0.007555567 0.0077368952 -0.00499834 0.008432106 -0.004384607 0.0065136147 0.0062709698 -0.009393547 0.009166997 0.008841753 -0.009656916 -0.004412362 -0.0024592334 0.0071426122 0.0024578536 0.0020522 0.006536021 0.009316231 -0.0023095063 0.0075791813 0.005245264 0.0047005545 -0.00023014765 0.0075200843 0.00958442 -0.0052707586 -0.0031050283 0.0049207164 -0.010070283 -0.002556446 -0.005523977 -0.0008914158 -0.0038941388 -0.005305714 0.0056040185 0.008033699 -0.004649982 0.0068465336 -0.009343677
berries 0.007863298 0.0012184146 -0.0024365373 -0.0076729357 -0.0048071668 0.008826171 -0.0053271065 -0.008860761 0.0042792605 -0.0008090838 -0.003287921 0.0059892344 0.0018176512 0.009796623 0.0017371849 0.005139835 -0.0054556592 0.0064412807 -0.0018936502 0.006314257 0.0029077244 -0.0053104023 -0.0032491735 -0.005722516 -0.00077400025 -0.0046910485 0.0029470641 -0.0004301948 0.009418953 -0.0022023835 -0.008549858 0.004420467 0.004910701 -0.009394807 0.0076069087 -0.00026426502 0.0049986416 0.008657984 -0.0070140446 -0.006692411 -0.0043586344 -0.00824354 0.0019269065 -0.0064200386 -0.0067742895 0.002292741 0.002927291 0.008641369 -0.0065789227 0.0015046096
baking powder -0.008921701 0.007959068 0.009376418 0.008967677 -0.006100543 -0.0019985316 0.0006048384 0.0083647445 -0.0013204032 -0.0057644635 -0.008325129 -0.0005850283 -0.0058824937 0.009479748 0.009311485 0.007010595 -0.008149211 -0.0006043858 0.00041930046 0.0032265002 0.0070662773 0.00086801255 0.0026811373 0.009398263 -0.005910731 0.0033326587 0.0050769867 -0.00077611464 0.0075217565 0.004264705 -0.0075194524 0.005002411 -0.008660358 -0.0051070857 -0.0011521463 0.00050762686 0.0046651973 0.0034038976 -0.004290737 0.009287066 -0.002523851 -0.0046625556 0.0067332187 0.0071189334 0.00041607663 0.007933282 0.009497196 -0.008980483 0.005308355 -0.006599619
ginger 0.0049544554 0.0049236338 0.000115417344 0.004183729 0.0069141267 -0.0009023098 0.0006190385 -0.005417129 -0.0037770078 0.008338768 0.0066281646 -0.007729021 0.00033638824 0.0051291357 -0.0050653154 0.0031829167 0.007571676 -0.0015959786 0.009071821 -0.00019846715 0.008232157 0.0044453326 -0.0038758486 0.0028933217 -0.0028256827 0.008297392 -0.0020660833 0.0053027635 -0.008183327 -0.0010804113 0.0060845306 0.0031301866 -0.00019175056 -0.0032293857 0.0014452194 0.0035725262 -0.0075728563 -0.004965301 -0.008720091 -0.00850813 0.008127548 -0.0009923853 0.00227365 0.0009172117 -0.0034250733 0.0006128639 0.0059384685 0.007440211 0.0045391284 0.008477903
banana 0.00014935697 0.0054161614 -0.009230098 -0.0051959422 -0.004196832 -0.007945236 0.00010645778 -0.00094110245 0.0053892843 0.0073753144 0.0043882886 0.009630953 -0.0042399564 -0.009344404 0.0076411534 0.008123415 -0.0037158132 -0.0029494255 -0.003579987 0.0033457242 0.0062155975 0.0037650487 0.009826564 0.0033880128 -0.008944567 -0.0044924766 0.0056123054 0.007954166 0.0018744337 0.009838461 -0.007952258 0.0041247495 0.0043589696 0.007060929 -0.004438485 -0.0018889094 0.009144334 0.0062340773 -0.0007127107 -0.0022347132 0.0065715564 -0.00092761026 0.0020364935 0.006751697 -0.007123113 0.009200813 -0.0075342464 -0.0065662195 0.0042828238 -0.008296932
extract -0.0007193712 -0.008687546 0.00819343 -0.0019376797 0.0027880047 -0.009727143 -0.007209752 -0.007768227 0.008895437 0.009252786 0.0020098556 0.00331643 -0.0075172675 -0.005543199 0.0082162 0.009504943 0.0023482773 0.006665979 -0.00977146 -0.0020615952 0.0021964244 -0.0012690776 0.004060909 -0.009304442 0.0056096297 0.008851338 -0.0028294052 -0.008322935 0.009080628 0.0035938362 0.0042893593 0.002291388 0.0051224567 0.009185404 0.0069864346 -0.006528131 0.0060166325 0.0067728595 0.0033049362 0.0064386916 -0.004844819 -0.00849223 -0.009634508 -0.0066178497 -0.0040257466 -0.0025744187 0.0043300954 -0.004555745 -0.00863407 -0.0036577913
cilantro -0.00414798 -0.0019016402 -0.006983326 -0.00026310896 -0.0011368247 0.0033334384 -0.0041280896 0.0092213815 -0.007988033 0.008976727 -0.0017917621 -0.0016743476 0.009826419 -0.0024342183 0.004687574 0.0032033788 -0.005998691 0.00022970983 0.005870714 -0.005779932 0.0052057425 0.0011739796 0.0068633677 -0.006509091 -0.0028361965 -0.00094161 -0.009217878 0.0048905537 0.00034212088 0.0038520945 -0.0035098463 0.00587268 0.007396617 0.0066169854 0.009306813 0.006302915 0.0031269223 0.007923929 0.0069598826 0.0067818123 -0.001777845 -0.006085266 0.0057257893 -0.0025857824 -0.005300878 0.0058532986 -0.009494466 -0.0070157917 -0.0017057257 -0.004829745
chili -0.00084700034 0.0028893 -0.00041757905 -0.008913858 -0.00033496742 -0.0035262627 -0.0022451072 0.0052495524 -0.0023872752 0.00960771 0.002911573 -0.00562876 -0.0020638877 0.0071268776 0.0035595093 0.0017167269 -0.0021049995 -0.002386849 0.004120355 -0.0015468191 -0.0032428058 0.0029177705 -0.003669299 -5.8572226e-05 -0.0017621047 0.006905354 -0.0084403 -0.0054079425 -0.007894269 0.00029926456 0.008016418 -0.0051136045 -0.007254368 0.0039646477 -0.0024635945 0.0012036369 0.009636576 0.0015056576 -0.0018154916 0.0034832738 -0.0023416507 0.009004949 0.0031865365 0.004352098 0.0038238026 -0.004922834 0.0034361454 0.0036695558 -0.0031725597 -0.0043400577
basil 0.008109036 -0.006861126 -0.00965611 -0.0079301065 0.0067148516 0.008108653 0.0031966611 -0.0045755487 -0.003614676 -0.0017941791 -0.0068436023 0.0069911378 -0.0016576361 -0.001577192 -0.003962462 -0.009254935 -0.008619479 -0.0005051333 -0.006435149 0.002568763 0.005605314 0.00644176 0.0026223797 0.009604151 0.0053090416 0.0018791601 0.0038430511 -0.009679091 0.0063674357 -0.0024580325 -0.009248301 0.0087773455 0.0047677727 0.0057758386 -0.009284517 -0.0029190558 0.00040290813 0.0084188 0.0024507523 0.0065483814 0.0015199268 -0.00031456587 0.0005148173 0.0063176607 -0.009369206 0.0051024114 -0.00087445084 -0.0059845326 -0.0058439346 0.007995551
nuts 0.008099157 0.0070230784 -0.0059625823 -0.006356411 0.0017585377 -0.0058195232 -0.0005644352 -0.00946559 -0.0036274188 0.009136752 0.008803124 -0.0053880815 -0.0020734894 0.007711772 -0.0022469643 0.00027982655 0.008784441 -0.0059248726 -0.0073878686 0.009574231 -0.00861274 0.009332915 0.0038799988 -0.0051788366 0.007258677 -0.006088647 0.0029881464 -0.0069119446 0.0019763566 0.005244472 -0.007909227 -0.0005991267 -0.008504766 0.00817416 0.0014295288 -0.007928814 -0.0061313557 -0.0074786325 -0.010196256 -0.0064171604 -0.0031468577 0.0005329799 -0.0032979564 0.0011064747 -0.0068550776 -0.0077026584 0.002157779 -0.0055057514 -0.008607981 0.009233871
chicken -0.0071577947 0.005903566 0.0052712974 -0.007333003 0.009667726 -0.00529415 0.0094551165 -0.00443841 0.00077663915 -0.005990174 0.0019996073 0.008286268 0.007983844 -0.004051617 0.0019086151 0.008379893 -0.0034709491 0.0074464483 -0.004982983 0.0020140966 0.0047967355 -0.002878563 -0.006497058 -0.007960602 0.0043516206 -0.0005084425 -0.0022722841 -0.001065674 0.0029875592 0.002491657 0.00475006 0.00453647 -0.002063781 -0.0006062056 0.0011401472 -0.0047137914 0.0043509435 -0.0057199784 -0.009354612 -0.009677477 0.009043814 0.00044442515 -0.0059942594 0.0069524124 -0.008281756 -0.005387185 0.0014347561 0.0053482144 -0.0036004498 -0.008395836
yogurt -0.008632589 0.0071403747 0.006402907 0.0071694665 -0.004986798 -0.004433622 0.0015833009 -0.004650952 -0.0007746532 -0.008697731 0.0028600465 -0.006351478 -0.0039416132 -0.0050287223 0.008066685 -0.0035202005 0.008616494 -0.0017198756 -0.0016962915 -0.0019053977 0.007010725 5.8645564e-05 0.0036371457 0.0029092594 0.0046098726 -0.0054794997 -0.0082301395 -0.005987053 -0.0015278863 -0.0056861434 -0.004088183 -0.007830917 0.00036586737 -0.007471371 -0.007770463 -0.0032044519 -0.007882198 -0.0058476753 -0.0007160686 -0.006057439 0.0059630894 0.004734467 -0.0024657517 0.007001787 0.0025624854 -0.002366378 -0.0025530055 -0.009701143 0.005001782 -0.0075615565
rice 0.008133994 -0.0007426915 -0.0057656397 -0.0012898806 -0.0058399946 0.0066212006 -0.0016001067 0.007418955 -0.006523611 0.0028950402 -0.004116427 -0.005915742 0.0073942826 0.0077307085 0.0069254297 -0.002800893 -0.0013187549 -0.002740866 -0.0042194366 0.001678786 0.006992813 0.0015994703 -0.007983207 0.00583055 -0.002301447 0.0009634222 0.007713214 -0.0076650777 0.0075010383 0.0061066197 -0.0003665799 -0.0077380463 0.009357941 -0.006014009 -0.0032150727 -0.0039331806 0.009907462 0.0042977794 0.00084696704 -0.00685119 -0.004620554 -0.0009217198 0.0069580786 0.0055397376 -0.0014031339 -0.006140907 0.0005738814 -0.008543733 0.005311955 0.005407965
carrot 0.010106124 0.0005409802 -0.0085526835 0.010066173 0.00030474662 -0.0008215908 -0.0017231726 0.0034152116 -0.0012081965 0.0009942502 0.0038453075 -0.0064841863 0.0045533376 -0.0053842147 -0.0054918253 0.0060494295 -0.004042802 0.0017834686 0.0009953353 0.009463032 0.004797617 0.0015252591 0.004052803 0.00017437439 -0.0072294683 -0.0055766553 -0.004075246 -0.0070178453 -0.004515479 0.007864459 0.007327546 0.0024047687 0.0020310287 0.0018152283 -0.0020327219 -0.005893135 -0.004381959 -0.008032848 -0.008838454 -0.0075768777 0.0074824663 0.0070343283 -0.002777944 0.0065105907 -0.007764212 0.00410805 -0.0058053043 -0.007243993 0.008414068 0.0066252872
seeds 0.0069331587 -0.0074618794 -0.0009216046 0.0041835723 -0.006522574 0.0079093035 0.0018689407 0.0035448472 0.0018306866 -0.0040331935 -0.001795131 -0.0031907114 0.004156925 -0.0013567677 -0.0087483255 -0.0016337588 0.0029246523 -0.003867777 0.009731982 -0.0099834595 -0.0093719885 0.0064592916 0.008598247 -0.0009884392 -0.009329287 0.005269389 -0.007015437 0.0022776946 -0.0047576604 0.0049605514 0.003708909 -0.008651878 -0.0029376852 9.005395e-05 -0.0019500472 -0.0043433285 -0.009352181 0.0012329682 -0.008835787 0.0016369729 -0.0009129361 -0.004224354 -0.005504179 -0.00830492 0.0021216574 0.0052625635 0.009098186 -0.009655086 -0.0033952731 0.004185176
broth 0.0033973278 -0.007815073 0.0005189471 0.00060622976 0.0025285964 -0.0043038307 -0.0023324161 0.005991366 -0.0045690536 -0.005377853 0.003088481 0.0023330194 -0.0065500084 0.0036952337 -0.007945337 0.0055296924 0.0025214208 -0.009345126 -0.002256384 0.009558569 0.007873834 0.0018879086 0.00096931384 -0.007290957 0.0030672615 0.00874187 0.009427262 -0.0021153053 0.007057964 -0.0069544236 -0.0028266627 -0.007078462 0.0035407303 0.005658673 -0.006506859 0.00022993839 0.0030008755 0.007619489 -0.0015506241 -0.0030444749 0.0032404745 -0.008249509 0.0034465084 0.0051735365 0.006123689 -0.007104897 -0.005900691 -0.002667537 -0.00952109 0.0042035114
pecans 0.004653284 0.0015444526 -0.0016002774 0.0005655903 0.0033984722 -0.0024645377 0.009391212 -0.009939334 0.0030874272 -0.0024761963 0.004070797 0.005992312 0.0042192494 -0.0034973759 -0.0057506138 0.008749731 -0.009741446 -0.0044867466 -0.00034885533 -0.008478346 0.0056138425 -0.009181185 0.0014419486 0.009069698 0.007453169 0.002287703 0.0034175287 0.00053271314 0.0100112315 8.885666e-05 -0.009910082 0.003925492 -0.0026173051 0.009444086 0.0020410588 -0.0050303186 0.0016435351 0.0066111204 -0.00040344993 -0.0012859026 0.007891689 0.009546987 0.0064930473 0.0013832574 0.0042371624 -0.004787032 0.0077890763 -0.005133209 -0.0016799968 0.00085355435
oats -0.009419523 0.0016719115 -0.004424431 -0.0026291488 -0.008682642 -0.006440708 0.0011565059 -0.006935548 0.0012524037 0.008169974 0.006119932 -0.001927159 -0.0005237405 0.0034060497 0.009022015 0.007013667 -0.004431775 -0.009999253 -0.004547482 0.0052548735 0.0005824433 0.004526684 -0.005311911 0.009767658 -0.0077087614 -0.0018000497 -0.00021687013 0.0098940665 0.0039479085 0.0046843244 0.002219588 -0.008605387 0.008828907 -0.0081603695 -0.0013730963 -0.0070011457 -0.0011239839 0.0020941098 -0.009446704 -0.004822813 -0.0051055066 -0.0075866645 -0.0027999126 -0.008985342 -0.0042696055 0.0021332747 0.009632827 0.007582189 0.001431493 -0.0020895079
roll -0.004943222 -0.002343656 -0.003580022 0.00040263412 -0.0075210817 0.008584292 0.003527698 -0.0015160877 0.009694722 -0.0056555746 0.0047015315 0.0044126255 0.0028750089 -0.003163071 0.009989292 0.003947966 -0.0025656763 0.008955445 -0.0054999264 0.00474479 0.0018787101 -0.0012677547 -0.0018330304 -0.0076639694 0.005927526 -0.004231367 -0.009713658 -0.0078474535 -0.0059873345 0.006502494 -0.0072577563 -0.0076228506 0.007560856 0.009617214 -0.001347737 -0.0054239854 -0.007945029 -0.004288035 -0.005294598 -0.005818565 -0.001904133 -0.010168646 0.009983531 -0.008452258 0.009161617 -0.006789511 0.0021369841 0.006084209 -0.0032743725 0.004060228
bacon 0.010075901 0.0021931205 0.005950461 -0.007459235 0.00670658 -0.0040825014 -0.0017573673 0.0050258525 -0.002568869 -7.0495946e-05 -0.0060768416 -0.003891052 0.00578071 -0.007836911 -0.0037867192 0.009139168 -0.009495973 0.0020741376 -0.0087606255 -0.009273218 -0.0025273107 -0.0034676217 -0.008491586 0.001049701 0.008398857 0.0067872657 -0.009726778 -0.00035015616 0.00881374 -0.00019470387 -0.0057361373 0.008135368 0.006890467 -0.006315519 -0.0048745647 -0.005661242 -0.00033488363 -0.009460318 0.0009704675 0.005390942 0.00038129196 -0.007631881 -0.008877388 0.006306057 0.007611763 -0.0029566125 -0.0021557356 -0.005660385 -0.009496432 0.007057223
sausage 0.0014884764 -0.008089935 -0.0034599365 0.0003756383 -0.0022925157 0.009282568 -0.0040405896 -0.0037091763 0.0016920632 -0.001624234 0.002787973 -0.002391528 0.009289854 0.004392741 -0.0026685873 0.008456515 0.006964981 -0.0004955334 0.0052917553 0.00026307857 0.0045297034 -0.0068158573 -0.0016272092 -0.0030710811 -0.0011857306 -0.008339299 -0.0035183125 0.0043575685 -0.005210054 0.0051226662 -0.0028597643 -0.0073517403 -0.008340015 0.0004463991 0.0017720661 -0.0066409134 0.0003750069 0.008518686 -0.004987891 0.0075600613 -0.0054114233 0.00724808 0.0093499655 -0.0049032434 -0.0037960005 0.003633744 0.0013577776 0.007045799 0.0055622943 -0.0018733605
sage 0.008027214 0.0010399669 0.005736359 -0.004370914 0.001702317 -0.009338035 0.004530501 0.0018344397 -0.00042778804 0.0033040403 0.0056039696 0.0074656173 -0.003991883 -0.006153993 -0.005570223 0.0043835216 0.009203224 0.0041543217 -0.005010152 0.0084155975 0.007299355 -0.004446139 -0.0057226936 0.007827345 0.006361304 0.008666717 -0.008218098 0.003075191 -0.00094564684 0.0038375282 0.009097433 -0.0024420964 0.010076532 0.0064904355 -0.0032284576 -0.0065857167 0.008529249 0.007190003 0.0050083008 0.0055189594 -0.006774995 0.0056352834 -0.008860288 0.0013367604 -0.0045521217 0.0037017318 -0.008577453 0.006491399 -0.0039602034 0.0045829085
penne -0.00040477197 -0.0017867375 0.0014797605 -0.0049604466 0.0074347043 -0.0050263973 0.005940971 -0.0049698683 0.00095772755 0.0042309426 -0.006612399 0.007782753 -0.008160944 0.009139025 9.917028e-05 0.0016832752 0.0094998805 -0.005185363 0.004842123 0.0043589408 -0.00927476 -0.002094712 0.0071367207 -0.0048053684 0.005517632 0.0064552547 -0.0002018901 0.0032645175 0.010176022 0.0029410876 0.0066995556 -0.008742269 -0.008109623 -0.003453041 0.0045742006 0.007851036 -0.008964797 0.009920033 -0.008758961 0.0017724284 0.002701251 -0.0036719257 0.0054028337 -0.0029823931 0.002205715 -0.004091971 0.0006732477 -0.009247762 0.004874396 0.0016510817
celery 0.0076253735 0.008007465 0.008734165 0.0013518767 0.0013748888 0.008332366 -0.009698194 0.006026245 0.0036966626 0.0006917787 -0.0046334025 0.0016282349 0.008500361 0.0027593847 -0.0022836097 0.0010423398 0.008105114 0.008875257 -0.0034609768 -0.0059832 -0.009353385 -0.000693529 0.00701571 0.008459355 0.007776042 0.0035163017 0.006132235 -0.009597256 -0.0074896095 0.0074997446 -0.007985632 0.006511209 -0.0017912908 0.0030001143 0.0041331905 0.009669696 0.009100608 0.0051981644 -0.00030978856 -0.001220527 -0.008777936 -0.007520614 -0.009389024 0.0048761987 0.0014915178 -0.0070856144 0.0052760825 -0.008401333 0.002381348 -0.0030294342
dill -0.0083914455 -0.00011768907 0.0005781054 -0.0059750876 0.009599297 -0.0067331973 -0.005103184 0.002907197 0.008246 -0.008740518 -0.003738002 0.0038470426 0.0050317533 0.0056563104 0.008958861 0.006670564 0.008008981 -0.0063345362 0.003761463 -0.006048597 -0.0029461107 0.0041140164 0.0010808369 0.00484503 -0.0033404995 0.0091641275 -0.0019377968 0.00047352933 -0.0053274124 -0.0022794246 0.0066767395 0.007623267 0.008735238 -0.0006575647 0.0022873573 -0.0039463146 0.002097764 -0.0047164164 0.0029786394 -0.008405605 -0.0060524987 0.004651181 -0.002239938 0.007435962 -0.010293108 0.004889301 -0.0031705303 0.0038535588 0.005673987 -0.005694007
cucumber 0.00041601923 -0.0034820514 -0.006650379 0.0067203576 -0.008052538 0.001146858 0.003843716 0.007213016 0.0031827933 -0.0023500246 0.008271983 0.002171019 0.0077211605 0.0030122006 0.00014109854 -0.009616526 0.008110279 -0.0072093606 0.0064712656 0.00759164 0.0071874806 0.0038298331 0.0025065215 0.0015035862 -0.004497218 0.0007445182 0.00079412176 -0.008896371 -0.0055256975 -0.008995927 0.006398828 -0.0066736555 0.00797004 -0.008305913 -0.0030241983 -0.0019957453 -0.0076251966 -0.009471372 -0.0026617888 -0.0016450871 0.0040925257 -0.005625487 -0.00045370113 0.007761706 0.006211066 -0.009879948 0.0026350904 0.0039729686 -0.0016427988 0.004047003
gelatin 0.0012204008 -0.0013536736 0.006363871 0.0035679587 -0.009917144 0.008035004 0.006169106 0.0011194476 0.003431202 0.0050061997 -0.007499359 0.008336187 -0.009470201 -5.8555062e-05 0.00658991 -0.0059528123 -0.009372973 -0.00515578 0.00866015 0.00035899034 -0.009959885 -0.00034784645 0.0088353455 -0.0058733462 -0.0046867505 0.0044860654 0.006519663 -0.004222926 -0.0068873544 0.0058312584 -0.009177108 0.008643187 -0.0053716176 0.009681325 -0.008043629 0.0037652028 -0.0052826204 0.0025437986 -0.0007707278 -0.009261023 -0.0046770303 0.0019611132 0.0037272477 0.009044011 -0.0014091004 -0.005027322 9.684741e-07 0.008144953 -0.0049228463 0.008490866
cracker 0.009044644 -0.0022325024 -0.0035401678 -0.007902101 -0.004987543 0.00096483727 0.00032218284 0.0027382406 -0.0075849965 0.00944521 0.0012992561 0.002614381 0.0021810264 0.0009436127 0.0030618387 0.00860415 0.008161942 -0.009605419 -0.0039481833 0.0003926071 -0.0084154885 -0.0020666164 -0.0043338295 0.0029312759 -0.00823863 0.007978862 6.793076e-05 -0.0072619673 -0.0016202196 0.0053820536 -0.0012360465 0.008393905 -0.0030142942 0.0059774513 -0.0011819189 0.0054276236 -0.0032196608 -0.008110814 -0.009628711 -0.0024757762 0.0064969994 0.0015671192 -0.0056850617 -0.008729988 -0.006272259 -0.002956936 0.0038207953 0.008409373 0.0056073004 -0.001287418
soy sauce -0.0041107396 -0.0052549383 0.0063685672 -0.008562493 -0.0044064834 0.0031678486 0.002762498 0.0023848736 0.007696904 0.0040624165 0.009111263 0.0057437317 0.0070405006 -8.934886e-05 -0.005426152 -0.0030761964 0.0039876415 0.0054486142 -0.004754285 0.002538393 0.0029166164 -0.0052248277 0.0040063174 -0.0029175791 -0.003483613 0.007375138 0.00538263 0.0004324953 -0.00038167057 -0.0006844898 0.003497121 0.0015412371 -0.0013867627 -0.005804382 0.00448362 0.004875657 -0.0016991106 -0.004679873 0.0038053435 -0.0030241064 0.0047348435 0.007838236 0.0012910009 -0.0070631234 -0.010127874 0.0050920425 -0.006184737 0.005257913 0.00021721599 -0.0021501796
pineapple -0.004338172 0.006165976 -0.0042562666 -0.0098349275 0.0051764827 -0.0011787857 -0.0056343903 0.0042175255 -0.0054779723 -0.0021210734 -0.004735156 -0.003919441 0.0055374275 0.009539766 -0.0054077418 0.0072007366 -0.0043863887 -0.008192313 -0.0054553687 -0.00876831 -0.0080025885 -0.008109126 0.008546171 -0.0060831555 0.006623743 -0.0014616507 -0.009801134 0.0062279324 -0.00044068362 0.007660048 0.0008939985 0.007748768 -0.007771426 0.007989993 0.0013858903 -0.0038056462 0.005316607 -0.00901806 -0.0029070496 0.0076270634 -0.0088157775 0.0069219307 -0.0030813569 -0.0028312274 -0.00924213 -0.008740739 0.008343182 -0.005393088 0.0099650575 -0.0073758205
cake 0.006783604 -0.0054368936 0.009297335 0.00088806235 0.006849789 0.002668273 -0.006355925 -0.0008461887 -0.0027137697 0.00814188 0.009747611 -0.00942229 0.003915478 -0.0064709387 0.0054425714 0.009873321 0.008724146 -0.008915966 0.0045684627 -0.00013519598 0.0050036116 -0.0041724965 -0.0021502362 -0.0036461868 -0.006049396 -0.008932096 -0.0007427876 0.006395914 -0.0031183455 -0.004450874 0.0014045716 0.00899412 -0.00086805306 0.007842915 -0.009437741 -0.003796537 -0.0007805262 0.0011279602 0.007528069 0.0039420607 -0.0011107274 -0.0012032244 0.008489039 0.009365103 0.0022656228 -0.009231647 0.0066464143 -0.00042074855 0.0026971856 0.008553523
margarine 0.00686787 -0.00027970236 -0.008514755 -0.009374401 0.008709808 0.0021057609 -0.009139705 -0.0054686926 -0.0020041694 -0.00074605277 0.008798453 -0.00869323 0.0034683065 -0.0029654934 0.0023428346 0.0022809494 0.0074750893 0.007020803 -0.004987991 -0.0037691083 -0.0020098248 -0.007114726 0.00938539 -0.007688231 0.0012569025 0.008906708 0.007507548 -0.007227002 -0.001018878 -0.0093263155 -0.0023627733 -0.0044069635 0.009960108 0.0059871404 -0.0008057656 -0.0066081122 0.0052732625 0.00778926 0.0004800065 0.0027634269 -0.004918983 -0.0068343254 -0.006649546 -0.0012231623 -0.0047393017 -0.006390233 0.00455053 0.008654807 -0.0017324766 -0.0012595168
steak -0.005777404 -0.0041208775 0.008254659 -0.0028631454 0.00038369015 -0.0099942135 -0.007996966 0.0040558795 0.008670673 -0.0052496972 0.0077748653 0.0008986752 0.00633461 -0.0015432982 0.009827151 -0.0067826114 -0.0023731878 -0.0069335913 -0.004347243 0.0028701753 -0.0046829535 0.008047767 -0.0056270654 0.0034582184 0.0037825806 -0.006541779 -0.0033425782 0.008887625 -0.0062740045 -0.0032002537 0.00027522567 0.0026279711 0.0031513777 -0.0050116437 -0.0013794994 0.0020506703 0.008204608 0.00035523545 -0.0005423757 0.008302035 -0.00051665236 -0.010029659 -0.007580775 -0.003437415 0.008115766 0.0022058939 -0.006423931 0.0063927295 0.0052123456 -0.005140437
pork -0.0020636392 0.004186218 0.0041101943 -0.006097367 -0.0019420115 0.004850014 0.0046637505 0.0018496527 0.008186886 -0.00202315 0.004725267 0.005843428 0.008449892 0.001803828 -0.008749346 -0.0044976766 0.0016525423 0.008419362 -0.009604983 -0.008211039 0.00022176612 0.0032772417 -0.0024799427 0.0024080363 -0.0064972546 0.002191061 0.008443661 0.005376547 0.00395587 0.009359706 -0.0063407575 0.0049626315 0.0011272788 0.007067715 0.0032206879 0.00034301382 -0.009600383 -0.0069947336 -0.007828016 0.0072370805 -0.003544629 -0.0028531381 -0.0053412253 0.0033865557 -0.002982254 0.0065592984 -0.008504161 -0.0026871702 0.0060960194 -0.008615357
ink 0.0048759608 -0.00012384682 0.010011169 0.0056044916 -0.009240863 0.0058348896 0.010152274 0.0032872125 0.0062495912 -0.0038221409 0.008907349 -0.007960995 0.0075898226 -0.005505287 -0.0018421933 -0.0077597923 -0.008408326 0.0015615755 0.0005057064 0.0002978976 0.0050838045 0.009579399 0.007284985 -0.009142574 -0.0030027789 -0.009448962 -0.008179779 -0.0005741059 -0.0052742283 0.007142997 0.004359365 0.0051769684 6.604787e-06 0.0032573931 -0.006620548 0.0006746917 -0.009898283 0.0062471894 -0.009238657 0.008109903 0.0028781963 0.0034982967 0.001509818 0.0051226364 0.0051324153 -0.003691419 -1.8967014e-05 -0.0022137237 0.010152081 0.000548851
blueberries -0.0067278417 -0.009833406 -0.007570133 0.0050066593 -0.007968616 0.0068861176 0.0034370173 0.0038557623 0.0023863239 -0.006113633 0.0014245624 -0.008182938 0.0013135312 0.0024576709 -0.008741681 0.009629886 9.93432e-05 -0.0053643454 0.006513046 0.0042268583 -0.0038706546 -0.0025267636 -0.0070715835 -0.0064815176 -0.006749426 0.0026162318 0.0062913434 0.0034790302 0.008701332 0.003813617 -0.004289379 -0.0075579993 0.003756006 -0.003727415 -0.009586371 -0.0059196083 -0.0016715585 -0.00087487465 0.006018234 -0.0034434712 -0.008963504 -0.0002324741 0.0053002285 0.0053196563 -0.006374046 -0.0019687868 -0.007681084 0.0075930916 -0.0033065109 0.005331895
spaghetti -0.007068802 0.005415831 0.0022670098 -0.009110868 0.0067455894 0.009035294 -0.00910907 -0.0070072436 -0.002875038 -0.00028965884 0.003923429 0.0037716716 -6.935877e-05 0.0042322627 -0.0005898077 0.008691685 0.0044046887 0.0028909054 0.0037206805 -0.009000529 -0.009959089 0.0056100837 -0.006558738 -0.004326698 0.0021915152 -0.0043965387 -0.0016295825 -0.0063764136 -0.0011081514 0.009733366 -0.0002229372 -0.0003966635 -0.0066135447 -0.002909458 0.0011856493 -0.0076564113 -0.0037656897 -0.0021553785 -0.009580738 -0.007959229 -0.0026143747 -0.004180098 0.0013129909 -0.0039931177 0.0030308287 -0.009462661 0.0088581545 0.00826433 -0.0047059436 0.005755305
chives 0.004996979 -0.009444304 -0.004767762 0.0016299819 -0.005409494 -0.008134653 0.005291249 0.00910111 -0.00052657706 0.009477111 0.006623721 0.00015843035 0.0046997615 0.010089546 0.009764848 -0.0069877044 0.008838393 0.0049468116 -0.006198158 0.004695977 -0.007195258 -0.009551142 -0.007454271 -0.0030322426 -0.0012624194 0.008739952 0.008772075 -0.0015523814 -0.00924325 0.005829582 0.001138855 0.0001601719 -0.0014469508 0.0076869647 -0.0090380935 0.0036693371 0.0019705945 -0.0003651858 -0.008042972 0.0018384435 0.0009469806 -0.009073983 -4.6800444e-05 -0.0029055295 0.0069860616 -0.008763546 0.003630111 -0.001789011 0.0039081965 0.008603406
hing 0.0003497345 0.004834926 0.0013853031 0.006403774 0.006821431 0.005935183 -0.0003349242 0.0071982197 0.007973187 -0.001877146 -0.0027497974 -0.0061742067 0.007237003 -0.0036935091 -0.004141532 0.008482423 0.0037789762 -0.006404185 0.002876025 -0.00027076303 -0.007206613 0.0042642364 0.0030930198 0.00792134 -0.009257946 0.010011501 -0.006330596 -0.002918176 0.008212412 -7.978132e-06 -0.0033002682 0.008404662 0.0063966536 -0.00028088118 -0.005198033 -0.01000095 0.00803484 0.004708668 0.007161169 -0.010057401 0.008218054 -0.0047018346 -0.004410714 0.0077186404 0.0019620399 0.008038889 0.0063281986 -0.0068979627 0.0077975146 0.0038249267
syrup 0.0025139938 -0.0019930748 -0.0047508753 -0.004874555 -0.003926855 0.00235157 0.0024261521 0.009090934 -0.009315606 0.0068486882 0.010019155 -0.0026265178 -0.007793866 0.004948089 0.00019399912 -0.0051334985 -0.00018300704 -0.009055608 -0.0048310207 0.0038883737 -0.0085452525 -0.00057161594 -0.0024425962 -0.00027482983 -5.0139533e-05 -0.00552484 -0.002631213 0.00422421 0.0046034274 -0.009365557 -0.008456258 -0.008629704 0.0078257825 0.009942927 0.007449171 -0.0020330206 -0.007986112 0.0026933746 0.0020351184 -0.0033383498 0.0022461182 -0.00655278 -0.0059925625 0.0015874987 -0.0005876893 0.0040199556 -0.0027521162 0.0059598126 -0.0012232364 0.0024892248
seasoning -0.0036270544 0.006793155 0.0071572857 -0.008590294 0.006067488 0.0066977553 -0.008258841 -0.008493574 0.0071746414 -0.005781111 -0.009035311 -0.0019322134 -0.009849266 0.0003582035 0.00897861 -0.008039983 0.0050391224 0.0007059301 0.009008351 0.0047277887 0.00056376867 -0.0031335775 -0.0041835527 0.0056107603 0.0016627228 0.0015562496 0.008675875 -0.0014071609 0.005943449 -0.00062039634 -0.008233695 0.0017419701 0.0056918357 0.0011216553 0.0036694917 -0.005322231 0.0006076487 -0.004509837 -0.00045153208 -0.0020623943 -0.005584623 -0.0021946754 -0.004764568 0.009367981 0.00429392 -0.0088839885 -0.0036314174 -0.009289742 0.008843271 -0.0040203435
meat -0.00019795971 0.0039732973 -0.0014374506 0.008668122 0.009929372 -0.009743317 -0.005772612 -0.006332079 -0.0062317518 -0.0058495696 0.0028376759 -0.0009972755 -0.006558744 0.009040074 -0.0012994731 -0.007495821 -0.0036758399 -0.008767882 0.002739031 -0.008061128 0.0004425139 -0.003364547 0.003063602 -0.006261475 -0.008214299 -0.00078424206 -0.0033583883 0.0058481395 0.0052791997 -0.0012505548 -0.0015283714 0.002783921 0.000951778 0.008868049 0.0099954475 0.005187853 0.008487936 -0.0053408337 -0.005057221 0.005132055 0.009073863 0.009317648 -0.0013894818 0.00010488017 0.008533146 -0.0028827232 -0.002286134 0.008152429 0.0029220248 0.0021556842
jar 0.0014958631 0.0033827801 0.0049669594 0.003584376 0.0052264202 0.0056917435 0.008509234 -0.0062651723 0.009196581 0.0005140958 0.004667508 -0.0036305094 -0.008935634 -0.0012439055 -0.0074074618 -0.0049601453 0.0077776555 0.0008372275 0.009881297 -0.0061142533 -0.0015018777 0.0063660936 0.004555084 0.005016312 -0.00041506917 -0.0050268774 0.005394777 0.0070303488 -0.008946432 -0.007934599 0.008697947 0.004064112 0.00023258744 -0.00438956 0.009292192 -0.0040084873 -0.0011939749 -0.004722213 0.008650926 -0.009545927 0.0027271279 0.006392593 0.005180932 -0.0015812068 0.008846273 -0.0015108421 0.0029952277 0.006016709 0.0047312067 0.0067643877
thyme -0.0020027864 0.0046025906 0.0046524894 0.0006639474 0.006341856 0.0075457585 0.0013327673 0.0034350082 -0.010023056 0.006118941 0.0028537952 -0.0069789924 -0.0023483713 -0.0017748722 0.002442909 -0.007681477 -0.006242534 -0.0063294643 0.0033519056 -0.00855835 0.004376492 0.0033174078 0.002745758 -0.0064175697 -0.0004581953 -0.009951586 0.0063196146 0.0071910317 -0.0060208645 -0.008978967 0.0024201379 -0.0043726275 0.008692142 0.0033485964 -0.0034564165 -0.0034881695 -0.0017140147 0.0046544033 -0.010099288 -0.0071777906 -0.0045540985 -0.00538366 -0.005478852 -0.0037995283 -0.008056414 0.0054330532 -0.0066184225 -0.0052201296 -0.009283194 0.007394927
mustard -0.00818094 0.0043309783 0.0055874307 -0.009177671 -0.00028070848 0.00033436032 -0.0009006319 -0.003920907 0.00061773526 -0.0019383323 0.006168025 0.0006402254 -0.0051256865 0.007900988 -0.00015214969 0.0037617187 0.010264238 0.0013305331 1.2170986e-05 -0.008015005 -0.0049552224 -0.0048351334 0.00046538515 -0.0056254594 -0.0019141624 0.009120883 0.0022017777 -0.0027040683 -0.0015383785 0.006363626 -0.0018063673 0.006723413 0.0018584647 -0.009104785 -0.009085345 -0.0034454316 -0.0020805318 -0.00031182994 -0.0013513854 0.0059091127 -0.008416945 0.0051431963 -0.0012358509 -0.000510288 -0.0021757777 0.0010837574 -0.0032180622 0.008571967 -0.0046391753 0.0015341241
lime -0.0008974828 0.003621297 -0.0053754835 0.0090316525 -0.0073692445 -0.0014528027 0.0036184604 0.0059756646 0.0035880436 0.002820763 0.0058518806 -0.007515603 0.007369822 -0.007008395 0.007929842 -0.0031628122 0.007966923 -0.005155803 0.002355892 0.008754207 -0.00095482223 0.0018804789 0.00079814636 0.0031260988 0.0054171444 -0.0075115403 -0.0095105935 -0.009944131 0.006075633 -0.007609229 -0.009082329 -0.001207148 -0.006665424 -0.005668418 -0.006309008 0.009352785 -0.009390241 0.008441055 0.0016379745 0.0011171903 0.008996684 0.009117448 -0.0025729665 0.0069452254 -0.0018557778 -0.0010507718 -0.0075928695 -5.5117413e-05 -0.0018390471 -0.0039266045
jalapeno 0.007467013 -0.0035815728 0.008351909 -0.0026925495 0.0048882253 0.0033213685 0.006745096 -0.005273764 0.0034826584 -0.0026206656 -0.0019995328 -0.002358301 -0.0077863373 -0.003430586 0.0016258418 -0.009048463 0.0037094133 0.0053455885 -0.002082888 0.0012843198 -0.004730001 0.0036479414 0.0030256761 -0.0024668656 -0.0051693777 0.0061015454 -0.00663238 0.00060582836 0.0040867818 -0.0057783136 -0.0030341519 -0.007411632 -0.0058562364 0.009530777 -0.0010035271 -0.0018048502 0.003517771 0.0027743808 0.0061125136 -0.0018882067 0.0072824312 -0.006726882 0.0029175293 -0.0037902757 -0.007387308 0.00087587896 0.0049546664 0.0040462175 0.0018579686 0.009760731
worcestershire sauce -0.009626487 -0.006419928 -0.009705918 -0.0002094855 -0.004778334 -0.00954814 -0.0021358773 0.006533879 -0.003607678 0.009008969 -0.005371574 6.709487e-05 0.003171316 0.0034769494 -0.005739072 0.0015918997 -0.008038186 -0.007504377 -0.0063029546 -0.004464369 -0.005698165 0.004537324 0.0073498753 0.0013390011 0.0067807734 -0.0052948557 0.009257414 -0.006928919 0.0010651271 -0.0067430474 0.008790341 0.004010504 0.009631575 -0.006806233 0.004622636 0.003109 0.0029219089 -0.009133314 -0.003506386 -4.677223e-06 -0.009089474 0.00073283596 -0.005527294 0.0033789533 -0.0059144744 -0.0055510877 -0.006272629 -0.0001790612 -0.0048242793 -0.00083780533
toast 0.009409123 -0.005910806 -0.0038308154 -0.0020039272 -0.0077317576 0.00082981656 0.004420634 -0.0046447353 -0.005271786 -0.009827526 -0.001149174 0.0041602314 -0.0055097686 0.0067965803 0.005496365 0.004510956 0.0032984256 -0.007761292 -0.005401489 -0.0038222016 -0.006200103 -0.008363667 -0.006717871 -0.008820161 -0.009455684 0.00039952132 -0.0066259117 0.0014448517 0.0022340114 0.0049786866 0.0040908577 -0.0068029733 0.008480254 0.005134633 -0.006394452 -0.006382666 0.007523211 -0.009461552 -0.0075734956 0.001280346 -0.0054513705 0.0016963147 0.00666207 0.003164877 0.0069728354 0.007573394 0.0011731682 0.0015262511 -0.0025292328 0.006556017
parsley 0.008180705 -0.0007490564 -0.0070432313 0.007318162 0.00035741084 0.0009804746 -0.0064409673 -0.0032308782 -0.008449708 0.0061917626 0.005310693 -0.0059455708 -0.002361941 -0.008310748 -0.006917064 0.0038933347 -0.0016860059 -0.0006275327 -0.0077804173 -0.0062763556 0.0036741483 0.0010707132 0.001522086 0.0013071568 -0.0023976539 -0.009668031 -0.0011510476 0.005423729 -0.00884567 0.004881824 0.008259787 -0.006661535 0.004953378 0.0090834 0.008098528 -0.0031927186 -0.006032309 0.0042524617 0.003976613 0.00778669 0.0060997372 -0.0043212576 0.0037425347 -0.00510125 -0.0030704602 0.008036523 0.0061579845 -0.0073734657 0.0017375376 -0.009246985
miso 0.0075956094 -0.008724377 0.009277045 0.005776186 0.0027510638 0.0075578345 0.007872618 0.007881937 -0.0057208603 -0.004773033 0.009251587 0.005363935 0.009721777 0.0060986243 0.0041666664 0.003159164 0.005047252 -0.007597494 -0.0053602415 -0.008380608 -0.001638464 0.0016520314 -0.0015220433 -0.0017841882 0.0064289006 0.0028169032 -0.0035048386 -0.0068661263 0.00036987878 0.0066158473 0.003955025 0.0027793313 0.0023915353 -0.0027995026 -0.0012564077 0.0018660963 0.001457056 -0.0019055477 -0.009758427 -0.004755011 0.008652991 -0.006467101 0.007330282 -0.005185947 -0.0054910267 -0.00044351083 -0.009990973 -0.008671486 0.010073207 0.0051365043
gruyere -0.0056445827 0.0046431525 0.007469128 0.0018003656 0.00026131887 -0.004037799 -0.0015551377 -0.0062514185 -0.00858404 -0.0067014983 0.009121595 -0.0048872475 -0.00831753 -0.0056832363 0.0020031722 0.003112602 0.004629155 -0.008796706 -0.0007148675 -0.0027658574 0.006985055 0.009020139 -0.00474844 -0.008102913 -0.009270774 0.0059104045 0.007940738 -0.0007294442 0.005019148 -0.0049150055 0.008860577 0.008782655 -0.002677454 0.00021069034 0.0013225486 0.007139704 0.0015333596 -0.0024101033 -0.0016167848 0.006637572 0.0047916165 -0.0075074933 0.0014624636 -0.008814224 0.003145813 0.0055995383 -0.0017470855 -0.0030145373 -0.0039191777 0.0067945835
macaroni -0.00943581 0.0029443118 0.008069108 -0.002078393 0.008047479 -0.009136683 -0.005296984 -0.006391833 0.008063683 0.004220704 4.5306097e-05 -0.00631539 -0.0075396444 0.003144519 -0.005250766 -0.008674661 3.1370804e-05 0.0004633201 -0.0056959516 0.0044232556 -0.007549722 0.009243005 -0.009329256 0.006635153 0.007907699 0.0074432176 -0.00072210416 -0.007327296 -0.0049827816 0.008747458 0.0033206143 -0.009618992 0.0065209777 -0.009193357 0.0035809684 -0.0020880569 0.006993872 -0.005537795 -0.0024714498 -0.007934788 0.009806668 -0.006674497 -0.009367325 0.010007294 -0.0028434016 0.005179342 0.007116889 -0.004525264 -0.0038293526 -0.004765151
mayonnaise 0.0059525203 -0.007909652 0.002973802 0.003951103 0.004878457 -0.0063277506 -0.001821045 -0.0068738195 0.005863387 -0.0050628963 0.0039146557 -0.00021651093 -0.0023434018 0.008098936 -0.0020464743 0.007492003 0.0046072206 -0.005321612 0.006094862 0.00535708 -0.0044741617 -0.008370058 -0.009636014 0.0058372496 0.008343712 0.0043871924 -0.003904782 -0.009357287 0.0071889223 -0.0005878782 0.009715834 0.0005780729 -0.0033769049 0.006840398 0.008132938 -0.0058366014 -0.0035890085 -0.007064908 -0.0005133637 0.0019241282 -0.009560552 0.005448005 0.006940049 0.008745251 -0.004497087 0.009961827 0.009301841 -0.004813537 -0.0017174254 0.0076565854
salad dressing 0.0014508569 -0.0026083307 0.009841461 -0.008547513 -0.009120825 -0.0036873245 -0.008769296 -0.009977243 0.008565762 -0.0040120655 -0.0037089626 0.0039217756 0.008510943 0.0037563248 -0.00242167 -0.0083119 0.008895504 -0.0048446753 -0.0050157267 -0.0016283601 -0.0035236727 -0.0077131977 0.003254662 0.0012696598 0.0021506248 0.00894723 -0.0068908404 0.0006222137 -0.0021282884 0.006871761 0.00992781 -0.008886016 -0.0017042815 -0.008148958 0.009213095 -0.008344764 -0.0060698544 -0.004018673 -0.0070677535 -0.0051969294 -0.005707677 -0.0051976903 0.005779017 0.0046248734 0.0014729059 0.0047982205 0.009724098 -0.0025718864 0.0013716546 0.002855254
maca 0.0025518085 -0.00811635 0.008430617 0.0054945652 0.007944657 -0.0065946365 0.0024443709 -0.0021424736 -0.0095759155 -0.0032612274 0.002768666 0.0085667 -0.0071351216 -0.0013176975 0.008577556 -0.007006249 0.0043474566 -0.007922215 0.0034105664 0.0036584667 -0.00176459 1.9373e-05 0.005086115 0.0007139018 -0.0048638424 0.0020951733 -0.005017283 -0.0032925028 -0.00035291124 -0.0062571513 -0.0020287614 -0.008284987 0.00095118233 0.0021871773 0.00020113502 -0.00041784233 6.455208e-05 0.0020016024 -0.0016126931 -0.007542502 -0.00027303884 -0.008364688 -0.004817511 0.0023795688 -0.00039156846 -0.008790178 0.005971848 -0.0030099023 0.0100084515 0.0001695422
cool whip -0.0022637045 -0.0017979344 -0.009108821 0.0009843862 0.005274046 -0.006846955 -0.009183181 0.00208785 0.0028790801 -0.008330547 0.009061721 -0.006146771 -0.007855747 0.0051199556 -0.00956517 -0.0012517605 -0.0024618348 -0.00052700756 0.0034603255 0.006030656 -0.0025672012 0.008954988 -0.0009258472 0.001923771 -0.001867752 0.0034672122 0.0045215334 0.009192462 0.004585279 0.0098981755 0.0019022025 0.0033540435 0.0078045735 0.0032208401 -0.007555122 0.008202099 -0.005359983 0.007227148 0.00970951 0.008627278 0.0034727475 0.0048826123 0.00058519706 0.00568384 -0.0072109103 -0.007322937 -0.007410248 -0.0039836788 0.006592461 0.005224106
watermelon -0.0055352086 0.0039996677 -0.0009924991 0.0094933575 -0.00209659 0.004977012 0.0027809357 -0.0068000737 -0.004028462 0.00030590213 0.006573771 -0.0041479194 -0.0063372185 0.0060686585 -0.00373658 -0.0060342425 -0.0013086372 -0.008412249 -0.00664637 0.009327884 -0.0068567223 -0.0015558442 0.006059029 0.007385397 -0.0045853504 0.0050716074 0.009311369 0.0059093144 -0.007330132 -0.0089906575 -0.0036095302 -0.0069195046 0.009296909 -0.007766237 0.009343583 0.0022426292 -0.0049331267 0.0032791495 0.00061504205 -0.00427052 0.00221301 0.006441719 0.00028547077 0.0016488261 -0.006997555 -0.0048475033 0.0024836692 -0.0023132379 -0.0069604 0.003693513
melon 0.005442106 -0.008020154 0.009886009 -0.0016904862 0.0030985777 -0.004222112 -0.006572355 -0.008263669 0.0061678374 0.0047188425 0.004258568 0.004614294 -0.0022223678 -0.003703353 0.009999995 -0.004721085 -0.005068399 0.0036716752 -0.0040671416 -0.0036843754 0.003232193 0.0023004569 0.008017862 0.002436236 0.0055008465 0.0028710056 0.009619915 0.0019820167 -0.0051098214 -0.0030347363 -0.0077752788 -0.006690041 -0.008343397 0.007393106 0.0020706898 -0.007435556 -0.007976077 0.0072739404 0.0074582547 0.00086883514 -0.006932465 0.0065375706 -0.004634645 -0.0015865316 0.006653247 0.009305222 0.003485717 0.0042589586 0.0045957696 0.0021919166
cornstarch -0.0055818856 0.0026669223 -0.0067211823 0.0045808423 0.008817042 -0.0046356563 0.002445592 -0.0017421577 -0.0016750653 -0.0054675373 -0.007575838 0.003955589 0.0013483783 0.001399567 0.0060094655 -0.0058291005 0.0065208585 -0.009732132 0.005033085 0.009286837 -0.0029785798 0.0011288981 0.0036404924 0.009874135 0.0015080884 0.00148725 -0.0042546 0.007243625 -0.003420062 0.0015662356 0.005250583 0.0049332087 0.0073801256 -0.008593355 -0.0061825034 -0.00619082 -0.0032153146 0.0031878294 0.0002415036 -0.0046454035 -0.004230019 -0.006147805 -0.008692337 -0.007300506 0.0063753496 0.0012318398 0.00749128 0.0041819983 0.008880714 0.00089784845
liquid 0.00014841039 0.009594949 -0.009658564 0.0037342773 0.0002691907 -0.009601321 0.00614147 -0.0048769033 -0.0015817796 -0.0014828674 -0.009909535 -0.0042390223 0.008681561 0.0041531054 0.009257321 0.0006570347 8.9817484e-05 -0.0071788277 0.0061771222 -0.009330868 0.00012527866 -0.007825014 -0.0049082544 0.0073419944 0.004869146 0.008104492 -0.0026482733 0.008649625 -0.004781949 -0.00030315167 -0.00807118 0.007041158 -0.00858487 0.0033409754 0.0005069293 -0.005521642 -0.007324177 -0.007871787 0.0063528046 0.007877823 0.009457556 0.0043763453 -0.005954177 -0.0008187287 -5.8998477e-05 -0.008923291 -0.0044351937 -0.0031379245 0.00085352623 0.0002039606
starch 0.0056398297 0.007475151 -0.008335318 -0.0050590336 -0.0005999355 0.0068911477 -0.008158093 0.003689861 0.0030952033 0.0039651375 -0.004928393 -0.0018600688 -0.00045087564 0.007064061 -0.005873006 -0.001599291 -0.0049543227 -0.0017375137 0.0075057894 -0.0014991463 -0.00019188809 -0.009169439 -0.009876639 0.0015255201 -0.009718398 -0.0016931768 -0.0044153635 -0.008092133 0.0031236673 0.009566875 -0.0037285832 0.0062451293 0.010051694 0.0047133095 -0.0051337727 0.0006423557 -0.006669624 0.0045516 0.008259992 0.008576068 0.00982091 0.0042252033 0.0076449704 0.005580954 -0.0026758441 -0.007576471 0.007400605 0.006650381 -0.0040072193 0.009070516
kombu -0.009264533 -0.0036927043 -0.0040213293 -0.004230907 -0.009919431 0.0013432518 0.009434074 -0.006125331 0.0062074643 0.0028755036 -0.0042353002 -0.0058313734 -0.00011164265 1.143321e-05 -0.008933433 6.37018e-05 0.0075911866 0.0015547446 -0.0009914258 0.0016754015 -0.008425602 -0.004836484 0.009070823 -0.0068208026 -0.00945174 -0.004071341 0.0002872861 0.007323959 0.009459368 0.008473132 0.0036771023 0.009176608 -7.304457e-05 0.0034104846 -0.008106037 -0.0061935107 0.0043179803 0.0070413332 -0.0027239884 -0.0021818655 -0.0075477203 -0.009461847 -0.008455478 0.009788063 0.007921189 0.00090233283 -0.0019634464 0.0018868742 -0.0010970357 -0.0015981697
rhubarb -0.00010595437 -0.00582142 -0.0039526783 0.0073558777 0.0028835454 -0.005391663 -0.005972697 0.0060776826 -0.007532597 0.0044462834 -0.008638104 -0.009278754 -0.0019208427 0.0020276802 0.004471412 -0.004165509 0.007400269 0.009235428 0.0012164423 -0.0028722086 0.0077267587 0.0058270535 -0.0064635365 -0.0020645708 0.009463591 -0.0069279307 -0.006112606 -0.000916888 -0.007256997 0.00090607343 0.007392308 0.009356206 -0.009375551 0.0037181862 -0.009636273 0.008800266 0.0063167997 0.0010183037 0.009106398 0.0023886727 -0.008783152 -0.003937268 -0.0074290894 0.008691338 -0.0045453776 -0.0066204243 -0.0034753934 -0.0059238817 0.0062968284 0.008985057
strawberry -0.0016091804 0.00092862494 -2.7162828e-06 0.0019435915 0.007125203 -0.0041567404 0.004775117 -0.0019502079 -0.005929258 -0.005721994 -0.008830448 -0.0075331777 -0.007774514 0.007423019 -0.0035383771 0.00917424 0.008684502 0.0028943277 0.008735442 -0.0078105675 -0.0096995635 0.006044496 0.0058748554 -0.0054048025 -0.0015561451 -0.0064655794 -0.003445385 0.00031872038 0.004907783 0.0099843815 0.002195278 -0.00503987 0.009395166 0.007425349 0.0088586155 0.009795755 -0.0043937364 2.1051757e-05 0.0068347654 0.006198449 -0.003180914 -0.0020583195 -0.009692403 -0.0045906072 -0.0030628976 -0.0024275354 0.0026640208 -0.00019348899 -0.007907343 0.0034036138
strawberries 0.002600821 0.0061506974 -0.008090852 0.004754656 1.8588988e-05 -0.0033050335 0.0065170415 -0.00034019773 0.0050807125 -0.0016805512 0.0051842015 0.0021803891 -0.00942038 -0.0062100138 0.0033627301 -0.007315013 -0.005596848 0.005628981 -0.0024154752 -0.009728637 -0.003798831 0.0063499957 -0.0043374468 -0.0020539907 -0.0039971694 0.008801212 -0.0047896947 0.0012775407 -0.0031843842 -0.004846961 0.006195565 6.35955e-05 -7.19005e-05 -0.0005565988 0.0018488974 -0.007878359 -0.003138703 -0.00709027 0.003714341 -0.0044768215 0.0044837478 -0.0069514005 0.008460908 0.00412197 -0.00774852 0.0073395343 0.007980245 0.0020119501 -0.0026963966 0.0017132545
zucchini 0.0037793526 0.003919084 -0.0010865844 0.0038485182 0.0033155323 0.0047387592 0.009433522 0.002225169 0.0039014532 0.007453309 -0.004806357 0.0039122384 0.00095209555 0.0072436174 0.009846382 -0.004787582 0.006261432 -0.0062118378 -0.010006198 0.0009808494 -0.0073522488 0.0002756153 0.0032217638 0.0098958155 -0.008384372 -0.007170838 -0.005684502 -0.0060080527 0.0029581431 0.006944896 -0.0060366825 4.740967e-05 -0.0007172175 -0.001477397 0.0063101426 -0.004961753 0.0052384264 -5.607059e-05 0.001346732 -0.0011788234 0.00550201 0.001190809 -0.005699934 0.001905035 -0.0038961133 -0.004201937 -0.0049464027 -0.008782107 -0.0070211925 -0.008900232
walnuts -0.003549891 -0.008070285 0.0010003485 0.0065915617 0.009736026 0.0099751465 0.009973067 -0.00960482 -0.0050799674 -0.0069706175 -0.0022969956 0.009949018 -0.00035920355 -0.00663964 0.0072738193 0.0055177044 0.0022744243 -0.009761921 -0.009605574 -0.009838833 0.004542739 0.0071414867 -0.00913015 0.007667351 -0.0071290266 0.007679309 -0.006108366 -0.0039422126 0.00051089295 -0.007417711 0.009613139 0.0055226437 -0.0016561698 -0.0026297932 -0.0080504855 0.0026437526 0.0019074051 -0.007514505 -0.008010689 -0.0021553426 -0.0063799815 -0.005380386 -0.0024659818 -0.0023631523 -0.010069206 0.004565361 0.0031186857 -0.0062903813 0.009850798 0.0039452673
greens 0.0005129998 0.00781724 0.00416814 0.002560852 -0.007255958 -0.0016880761 -0.007547277 0.0037459922 0.003559084 -0.008321353 0.003511698 0.0069890185 0.009152279 -0.008463451 0.008253814 -0.0038013218 -0.0018122575 0.0038447746 -0.007143017 -0.00636797 0.002438033 0.0040952456 0.00045300814 0.010079715 -0.0047364407 -0.0036890523 0.0052655 -0.008635608 0.009483703 0.003266464 0.007991357 -0.005804708 0.004255054 0.009894884 -0.008874191 0.0013073811 -0.00044108648 -0.0050681047 0.0053704213 0.007033419 0.0028632595 -0.0013155707 -0.0016753341 -0.00024569445 0.0026567285 -0.006908184 0.008632122 -0.006440794 0.00048335723 0.0023032548
kiwi 0.0032499523 0.009020376 -0.0059229378 -0.006740768 0.0023746565 0.0073313997 -0.0042033186 -0.005900773 -0.00569655 0.0063182684 0.0021442831 0.009194605 9.478707e-05 -0.009322725 -0.0007547614 -0.0046776445 0.009079301 -0.0069835573 0.0046484293 0.0026424604 -0.0072153015 0.00893827 -0.0015801039 0.0017404162 -0.00168566 -0.002469768 0.008493898 0.007828411 0.005040362 0.00076297176 0.0018978241 -0.0066487757 0.0048682904 -0.004280523 0.004549548 -0.00453441 -0.007964717 0.007334492 -0.009729183 -0.0035317559 -0.007635248 0.0050669457 0.009214689 0.007182875 0.009482773 -0.0008532368 0.0019484665 0.008122774 -0.0065393033 0.0070759673
salmon 0.007724372 0.0041624215 -0.009010374 -0.008174621 -0.008527245 -0.002214023 -0.0031375575 0.002574381 0.004527916 0.005261299 -0.00072193175 0.005512836 0.0014912284 -0.0015980337 0.0013428389 -0.00094095827 -0.0077325855 0.0018007669 0.0077529573 -0.009511168 0.0056949905 0.0023090777 0.006558134 0.003711509 0.006254713 -0.00790552 -0.0053306594 -0.009323707 -0.0043369653 -0.007941223 0.0068292613 0.009233735 -0.008335113 -0.0077241138 0.001640049 -0.009689738 -0.009304311 0.0044382475 -0.0027221376 -0.000574178 -0.0071289497 0.007587548 0.006505355 0.0025692366 0.0046209246 -0.0019668466 -0.009327236 0.00279982 -0.00355373 -0.0038381645
italian dressing 0.0029742273 -0.0049239118 -0.005643985 -0.005097721 0.0066787833 0.0031302115 0.00713471 0.002316231 0.0010506582 -0.005187393 0.0070752585 0.0031046884 -0.0074407887 -0.0044579525 -0.00854567 -0.0042302227 0.0017070706 -0.0048020985 0.00071372895 0.002700085 -0.0049876794 -0.00034822893 0.0072403345 -0.0016369559 0.002275692 -0.009674588 0.0017452452 0.0047540925 -0.007903383 -0.007121952 4.926242e-05 0.006876848 -0.0043419874 0.0048756353 0.0018440397 -0.002376157 0.002088902 0.0015294899 0.006729298 -0.008452518 -0.0021037401 -0.00525923 -0.008180926 7.853125e-05 -0.0043115052 -0.006007327 -0.008753456 -0.0050573656 0.008455253 -0.0013150026
mixed salad green 0.006747793 0.0009905869 0.0017954253 -0.0063081784 -0.0069680368 -0.0060325684 0.008038356 0.0028134885 0.0009997785 0.0071560484 0.007199838 -0.00049826136 0.009777345 0.00717549 0.005448455 0.0100582335 0.008621242 -0.0070926878 0.0062421276 -0.0015298924 0.00013542607 -0.0033731575 0.009779201 0.008792982 -0.00466725 -0.0018714578 -0.0053252038 -0.009600345 -0.0010724872 0.007588716 0.009289262 0.0061087883 0.00057038676 0.00013393095 -0.0010239651 0.008019886 -0.0074535757 0.0032636854 -0.009507567 -0.0076817586 -0.007014191 0.00066728285 0.010059158 0.0045506535 0.008648553 0.006777612 -7.6804914e-05 -0.0064319763 -0.0019772144 0.008126476
tenderloin -0.0074177543 -0.00997291 0.00099107 -0.00436078 -0.0012509145 -0.006513086 0.0017971052 0.009329236 -0.0060593467 -0.00083079305 -0.0031328774 -0.008038832 -0.0046022204 -0.006129536 0.007439308 0.0031833365 0.009625648 -0.004878093 -0.007453844 -0.0035712814 -0.0034856885 -0.008970096 0.00898522 -1.5107037e-05 0.00065975357 -0.0057104547 -0.0033014088 -0.0015962757 0.00909525 -0.0017324255 -0.004396861 -0.0013449064 0.009612785 0.004698438 0.002483823 -0.009672611 -0.0013292931 -0.0022440855 -0.00822602 0.005665394 0.0069618938 -0.0063654818 0.008432786 0.0031610678 -0.0014380037 -0.0057845754 -0.0048422716 0.00031459966 0.0019900955 4.9597867e-05
fennel -0.003143093 -0.0022783251 0.009520013 0.0026994518 -0.0002922729 0.003946276 -0.0028053052 0.009183885 0.004488609 0.005807953 0.0019194564 0.0014216526 -0.00985549 0.004603166 -0.0075285044 0.0007596591 0.0011097277 0.00743502 -0.0018327534 0.004008919 -0.0055529084 -0.009528026 -0.00774563 -0.0006644927 -0.0037127815 -0.0059964047 0.006531675 0.008313856 0.00081725314 0.0055887434 -0.00033261004 0.004985423 0.0032482124 -0.009480534 0.0024828154 -0.007931756 0.0051187356 0.0069776624 0.0036984487 -0.009776975 0.0079232175 0.0014991474 -0.0022673279 -0.008518986 0.009111473 -0.0014971447 -0.00065577164 0.0028232022 0.0071532214 0.0019725163
brandy 0.003462362 -0.0092599355 0.0063310782 0.0045902254 -0.0046308483 -0.008122737 -0.006782083 -0.001226851 0.0029095334 0.0030004699 0.0059185782 0.0016483288 -0.0023447296 -0.006845852 -0.0085382 0.0059451405 -0.009816077 0.005005083 0.0065492154 -0.007114256 0.006353283 -0.009598491 -0.0019065175 -0.0029247324 -0.0025307299 -0.0022518695 -0.00805171 0.0043713865 0.0059003565 0.0033873015 -0.004735619 -0.0042996635 0.0014643528 0.004048374 -0.003685708 -0.006033018 0.002679434 -0.00026685814 -0.009454202 0.0029646377 0.0015853824 -0.0021714955 0.0047372277 0.0077971467 0.008500433 -0.009793507 0.0040855044 0.0015774233 -0.0067028063 0.003744358
liqueur -0.00651474 0.006740322 0.009891825 0.0032098505 -0.009856097 0.0034457655 -0.00075229263 0.0041895327 0.0031722116 0.0077994363 -0.00659444 -0.0012472704 -0.0002622259 0.0022392564 -0.0048637954 0.0067615523 0.009760785 -0.0009104883 0.0040766415 -0.0057335384 -0.0069309548 0.003861814 0.0058444506 0.002297695 -0.0076863547 -0.007016537 -0.005443525 0.0059685307 0.0022507824 -0.0053434693 -0.0036450098 0.006292658 0.006015714 -0.009013635 -0.007835095 -0.0014751509 0.0041327938 -0.008034364 -0.0064051324 0.008623488 0.0010105749 -0.0093056625 -0.0036115567 0.0094123995 -0.004484025 0.002566645 -0.008219711 0.0022907285 0.009086831 0.0038160211
sprite -0.008544562 -0.004677936 -0.0031403818 0.0014914715 0.004149721 -0.0032215677 -0.008775066 0.007886285 -0.0027522962 0.0053870995 0.006303133 0.0058509842 0.009997123 -0.00020598857 -0.00067802414 0.001537155 0.0077617415 0.0037818893 0.0068186196 -0.004839 -0.0046289624 0.0040978496 -0.005523102 0.005927282 0.008167575 -0.0019597027 0.0017154409 0.006263755 0.0067599714 0.006343083 0.007975452 0.007825356 0.0028328132 -0.009328116 0.0005521582 0.009098894 0.003107792 0.00357617 0.00395662 -0.005005758 0.00020491862 -0.0070212698 -0.008932668 -0.00023798912 -0.00968633 0.007188182 -0.0017714679 0.0012145317 -0.0067736506 -0.0033875443
bran -0.008494817 0.0043632477 -0.0016083957 0.005076565 0.009320016 -0.0052998816 0.0060891425 -0.0005407518 0.0042954986 -0.007196342 0.0061719418 0.007897703 0.0024886036 -0.0077321706 -0.009707153 -0.0030427827 0.003973888 -0.004073151 0.0008690256 -0.0068574883 0.004617354 0.0069997483 0.001978995 0.007002755 0.006875861 -0.002612442 -0.007438855 -0.003629041 -0.005188781 0.009523268 0.0013219847 0.005468243 0.0026254593 -0.0054074107 -0.0028464692 -0.0058478215 0.002498151 0.00723016 -0.005392594 0.0023189355 -0.004218426 -0.0058254893 0.0058452515 -0.005721205 0.0004784426 -0.0021550874 0.009387996 -0.0005203779 -0.00041507508 0.0076159355
grand marnier 0.006409989 0.0027861528 -0.0043813423 -0.0017878438 -0.0052881557 0.0031169388 -0.004451326 0.001421717 -0.004771113 0.0042802677 0.008211547 7.516146e-05 0.010020191 0.0017583852 0.0042668246 0.005308089 -0.009574193 -0.0056899823 -0.0016095063 -0.00087916676 0.0029802725 0.00944371 -0.001106991 -0.0055535543 0.0033537224 0.003369581 -0.0049007097 0.008058496 -0.004441825 0.003624333 0.0050250078 0.009683365 -0.0047784694 -0.0056623844 0.005122913 -0.0099591315 -0.00019338388 -0.006643774 -0.0060327714 -0.0080321375 0.008436368 -0.003729441 0.005123984 0.0037025542 0.004124324 -0.0027066735 -0.0018378807 -0.0027442756 0.006336487 -0.005417194
candy 0.0027554089 0.004616657 -0.007815013 -0.006000673 0.008159183 -0.0052969973 0.0038340904 -0.009463932 -0.00086540024 0.0076036905 -0.0095364805 0.0047784597 -0.00034651044 -0.0073689045 0.0056946715 -0.00360981 0.004624521 0.0065347212 -0.009151843 0.005731413 -0.0025845764 -0.0055321627 0.008451172 -0.0068006795 -0.0039503872 0.009361144 0.0036371597 0.008701316 -0.0034914275 -0.00414593 -0.008691312 0.0059343823 0.008157506 -0.0090754125 0.0025758191 -0.009722031 -0.009898514 0.0025391816 -0.008120279 -0.006374726 -0.0019980988 0.0064727967 -0.0029072468 0.0040976293 -0.008666529 0.0023534028 -0.008987985 0.00945425 -0.0015591711 -4.764281e-05
sesame -0.008510448 0.0026400099 -0.0056880577 0.00771384 -0.008456508 -0.0013779906 -0.00035260594 0.0067618806 0.005460602 0.005456643 -0.005283644 -0.0073763914 0.0018760549 -0.003294627 0.006238573 -0.0045539173 0.009883192 0.0052608293 -0.007875692 0.009160458 0.0031224666 0.0047005825 0.0028749744 -0.005320524 0.009195257 0.000100019366 -0.009303668 -0.002431497 0.009170771 0.009283318 0.00032251127 -0.00298613 0.00018298216 0.003879957 0.0080027245 -0.0022238286 -0.0014158773 -0.0076464405 0.0019526089 -0.007344703 -0.0024865624 -0.0070845634 0.0052564405 -0.008097589 -0.0045355004 -0.006643087 -0.003926524 -0.0005241613 0.009462083 0.008500597
medium cheddar 0.0026221592 0.0024851093 0.010047573 -0.00067795534 -0.007588234 0.0037957102 -0.0019128362 -0.0057797716 0.0064200806 0.00648979 0.0040582065 -0.008728979 -0.0004457884 -0.0046949075 0.008641269 -0.009352696 -0.0020614527 -0.0096720485 -0.0073944177 0.0021198785 -0.007501793 -0.0040763025 -0.0068178438 -0.0035813765 0.0033897455 -0.009834629 -0.008514079 0.004596829 -0.00717479 0.0020864932 -0.00057476497 0.0028199824 -0.0001426827 -0.00729224 -0.0042498806 0.0077486658 -0.007615565 -0.0064480673 -0.0036344756 0.0030223778 -0.0026853324 0.008065364 0.0067741275 0.006833725 -0.006897116 -0.001163101 0.0072125806 0.009402111 -0.0003567837 0.008853975
hamburger -0.008510501 -0.009071405 -0.0057283486 -0.0015412195 -0.0020830773 0.0071860217 -0.003797092 0.0046834233 0.00084083027 -0.0040458106 -0.004242257 0.0045659416 0.0029079602 -0.0048024086 0.008601256 -0.0024831973 -0.004228418 0.008023421 -0.0059885 0.007029534 0.0016589996 -0.0058522243 0.008554704 -0.009787115 -0.0044857855 -0.008031565 -0.006247658 -0.00072749454 -0.0011778667 0.0019346552 0.002702271 0.009803754 -0.0067768334 0.003710681 0.009415791 0.0047695423 0.007143236 0.00049496745 0.0039933687 -0.008541308 -0.0024903796 -0.0065556723 -0.009527925 -0.0055674524 0.0062928074 -0.009737529 -0.0029148213 -0.0041412944 0.010026618 -0.005664936
broccoli 0.0043044644 -0.0056298836 0.009686787 -0.0020055128 0.001698255 0.00970052 0.009704987 -0.008975669 -0.00878288 0.0073276847 -0.003959937 -0.006484455 0.007901193 0.005524812 0.0003474467 0.0045981673 -0.00433841 0.007833077 0.00028607686 0.00012601938 0.00012356082 -0.009746611 0.008335626 0.008121302 0.002993371 0.0022045542 0.0060546095 -0.007768804 0.0029811054 -0.0056652436 0.0029048014 -0.009543452 -0.0071189436 0.0087255305 0.009131739 0.006000722 -0.007092619 0.0054764096 -0.004359563 -0.009817969 0.0042874236 -0.0064037517 -0.0030104038 -0.0012860041 -0.0036413814 -0.004679388 0.0026051458 -0.0047374563 0.008406603 0.0073704496
oregano 0.0041521573 0.0061955056 -0.006183183 -0.0028483523 -0.006780715 -0.0076988423 0.005261507 0.00373438 -0.007886538 0.005580825 -0.005176352 0.0047183037 -0.002125523 -0.008855805 0.008039833 -0.007934369 0.0010586904 -0.0077218115 0.0038811313 -0.008798382 0.00045308273 0.006304962 0.0096964855 -0.0004306531 0.005473502 -0.0041490225 0.00298346 -0.0010479038 0.0032398475 0.007628508 -0.0072698584 -0.0018430704 0.0021733006 0.0043418324 -0.0069619264 -0.0087085 -0.00249138 0.0025680896 0.008056235 0.0034977624 0.0029221585 0.0072007673 -0.004424404 -1.4020025e-05 -0.0037817366 -0.0029793005 -0.0059770225 -0.00046164994 0.009068349 0.0028674155
tortilla -0.001157307 0.00034458959 0.0043172725 0.008680833 0.0079046935 -0.006941032 -0.0031450288 0.008432242 0.008691687 -0.0063431594 -0.008798489 0.00017034613 0.0010594516 0.007718154 0.0017434035 0.00016537617 0.0020174687 -0.0025923813 -0.009355462 0.005365645 0.009260204 -0.009133363 0.0010772346 0.0049796277 0.009914958 0.004618597 0.0038245786 -0.0016113311 -0.0037559706 0.006228215 -0.00015259406 0.006654122 -0.0037192672 -0.007915928 0.008800806 -0.00514195 -0.005844667 0.008587297 0.009796993 -0.0060097207 0.009880086 -0.009125896 0.003268675 0.009400886 -0.0024568911 -0.00761781 -0.008830627 -0.008540866 0.0045155184 0.009527024
asparagus 0.0017336443 -0.009608331 -0.00078079524 -0.008782237 0.003341064 -0.00083673897 -0.008407506 0.0017391258 -0.0028390998 0.0023427075 -0.0071703373 0.0070917537 -0.0029982545 -0.0004069074 -0.0067244614 -0.005280187 -0.008404127 -0.0014989538 0.009205327 0.0034806372 -0.008643376 -0.0070466013 -0.0048977016 -0.0020247346 -9.5600735e-05 -0.0027733957 -0.007824759 -0.0068024066 -0.0028056095 -0.0012280922 0.0057884525 -0.0026854312 -0.004831339 0.006811021 -0.00451126 -0.004638184 0.0045278217 -0.0066704433 0.00443525 -0.004591856 0.00879766 -0.009893208 0.006439055 0.009495842 -0.005745291 -0.007590427 -0.000288424 0.007568353 0.0018568197 0.0017045693
pear -0.0072341394 0.009506832 -0.004293366 -0.0007115772 0.0011374117 -0.008288648 0.009870939 -0.006347854 -0.0028229195 -0.00045460925 0.005254725 -0.004123406 0.00016857855 -0.00038990457 -0.0034208337 0.006918304 0.00051806733 0.009281752 0.006441107 -0.009641384 0.0044025327 0.00090477493 0.008787601 0.0046715434 -0.0043402263 0.0019903942 -0.0040909415 -0.0040123323 0.0070537743 -0.008326768 0.006080048 0.009723055 -0.0043702726 -0.005494143 0.0059645297 0.008281124 0.005431218 -0.005338854 -0.0010732426 -0.008605259 0.008333686 0.008108774 0.0056062136 -0.0002309441 -0.0024591691 -0.0022393477 0.0064076316 0.0031602068 -0.0053951317 -0.0053177015
marinade -0.005938601 0.009716359 0.008285734 0.00771234 -0.0033373544 0.002212137 0.00040492788 0.0039456966 0.008197562 0.0063125635 0.008036997 -0.009512222 0.008440185 0.005191195 -0.0055122627 -0.008878589 0.0005336607 0.004458526 -0.002320184 -0.009057046 0.002373102 -0.0002907765 -0.008657266 -0.002913833 0.0013426555 0.005712697 0.003918391 -0.009044894 0.0067010773 0.0058444305 0.008202634 0.005980902 -0.006803552 -0.0055619823 0.0025202478 -0.0015246177 -0.007522522 0.0041587194 -7.593473e-05 -0.0025767686 -0.0072921393 0.0074533788 0.009954063 0.007820537 0.0029057944 -0.0095301075 -0.00075574627 -0.005768202 -0.008884261 0.009548385
sirloin -0.00893292 0.001695107 -0.0038184435 0.0066060675 -0.0013769824 0.006721977 -0.0022819133 -0.0040155062 0.004819916 0.0012768606 -0.0020083496 0.0001797673 -0.002932547 -0.007318935 0.0041910415 0.009242545 -0.0027204799 0.006703277 0.0017924182 0.0099929515 0.008934269 0.0033145237 0.0043814415 0.0068505295 -0.0025373658 -0.0051531657 0.008565335 -0.005470044 0.010051021 -0.004739727 -0.009238364 0.009468536 0.001868298 -0.0075621796 0.0028310886 -0.007879981 0.0070828786 0.00046693764 -0.0064121885 -0.009181265 -0.0018278718 0.0038576608 0.0012620179 -0.007384263 -0.0081681665 -0.002219372 0.0017380505 0.009462536 0.0035380675 0.008275649
vinaigrette 0.0028930989 0.0009632438 0.00922635 -0.009135946 0.0057215528 -0.009119976 -0.0001625131 0.0071322834 0.0016399034 -0.004092591 0.0035826906 0.005769427 -0.008870245 0.006943189 0.00063675974 0.00652476 -0.009591499 -0.0093338825 0.0039183116 -0.001985226 -0.009410112 0.009973503 0.0031758018 0.0037672191 0.0005507445 0.0058702766 0.0012136027 -0.0043001026 -0.0014198023 0.0024482037 -0.004465335 0.0048785666 0.004482806 -0.0072267144 -0.0040204567 -0.0025737288 -0.0082605835 -0.0098953685 0.0076097213 0.0018762542 -0.008019453 -0.00496161 0.0090387575 -0.0062027294 0.0011384727 0.0020024376 0.0025295282 -0.005660803 0.009877015 0.0008366369
lentils 0.004756695 0.001878097 -0.006670557 -0.0041811555 -0.004481462 0.0037016044 -0.0017839848 -0.00029174998 0.009307778 -0.0068204002 -0.0062975637 0.005342136 -0.009180077 -0.004351278 -0.002405789 0.0067205927 -0.0042104116 0.005247759 0.008130052 0.003333035 0.00352843 0.005175696 0.00072066137 -0.006065381 0.007498942 -0.007911443 -0.003805934 -0.0076632714 -0.00799839 0.0058290064 -0.0003539279 -0.00037576183 0.008135687 -0.00557088 -0.0023554 0.0068442677 -0.0063535073 -0.0045826384 -0.010069829 -0.006359719 0.001579566 0.009824977 0.00548874 -0.0026264698 0.008585809 -0.00645764 0.005470968 0.0070831063 -0.0029241662 -0.0085922815
berbere 0.0023145224 0.0024056775 0.005890108 0.0059814267 -0.0023516647 0.0071895462 -0.0087522715 0.006337447 0.0063686348 -0.0080617005 0.00695279 0.004583604 0.005948543 -0.0013297099 0.007817215 -0.008100781 0.006205937 -0.008909235 -0.0028158354 -0.008091911 -0.00727466 0.004472448 0.005147872 0.006378018 0.0068744863 -0.0021989087 -0.009608882 -0.008833246 0.0020961773 0.00066471525 0.0011620476 0.006980336 -0.0046040537 0.0033748841 -0.0031163984 -0.0071851285 0.007531679 0.0008657584 0.0037871182 0.007375674 0.008609216 -0.0042898366 -0.00057537784 -0.00092115224 -0.004393796 0.0056996574 0.0031665857 0.0054609994 -0.007453932 0.009608462
saltine 0.0073458455 -0.0026474483 0.008371243 -0.0020005503 -0.002341462 -0.0034999654 -0.0046096216 -0.0076398174 -0.0043048197 0.00959619 -0.0013296837 0.0068015023 0.00093859294 0.0074165557 0.00013248307 0.006639009 -0.0061671915 0.0033584011 -0.0023753752 0.0037836754 0.008843084 0.00051253056 -0.0040788148 -0.009126517 0.009817599 0.008322988 -0.008778216 0.0062428843 -0.004365344 -0.0069377623 0.0042696814 0.005598707 0.0036001515 -0.002169256 0.004170871 0.002710657 -0.0032490264 -0.0019258481 0.0022781922 -0.0033873105 -0.005456995 -0.0028098817 -0.0067318757 0.008858819 0.0032279866 -0.0084919175 -0.0026685293 0.0015215497 -0.003716005 -0.007939219
teriyaki sauce 0.009349981 -0.0061069005 -0.00088183506 0.0068928013 0.0047037588 0.0022858812 -0.009943599 0.006922277 -0.0027271886 -0.0003655723 -0.0040231 -0.009098717 -0.007082147 0.0013689152 0.0072252355 -0.0015099328 0.008915288 -0.010029148 -0.0041484167 -0.008879544 -0.0046386886 -0.0010162308 -0.009876697 0.0019340386 -0.00956829 -0.0045165727 0.005954073 0.0070522856 0.008760085 0.002896047 -0.0033868675 0.008075927 -0.004825024 0.009164516 0.003979236 0.006341408 0.0031449383 -0.008943878 0.000671788 0.005554348 0.0038862103 -0.003647578 0.008910841 -0.0027932695 -0.0068212333 -0.009063799 0.008918448 -0.006074018 -0.007064654 -0.0031889023
cookie -0.0049104323 0.005411985 0.004233009 0.005139121 0.0033354736 -0.0008271148 -0.007801216 0.003369044 0.0009851586 0.00031395067 -0.0048827585 0.0019842002 0.0029704284 -0.008948629 -0.0026532805 0.0049758623 -0.0050803255 0.001352509 -0.0004041961 0.0044800453 0.0003501876 -0.008925553 -0.0017322146 -0.0030189594 -0.0056039975 0.0034390206 0.004132748 0.007206265 0.005751346 0.009169566 -0.003026469 -0.009158401 0.0026216027 0.00699435 -0.0046103518 -0.008564356 0.0036515892 0.007912646 0.0066135917 -0.0057966327 -0.0050960565 -0.0010087056 0.0019681153 0.004758073 -0.008511564 -0.005761045 0.004201815 -0.0007081613 -0.0016955874 -0.0070701926
stevia -0.0022313048 0.004528567 0.0012310578 -0.0013386535 0.0054297745 -0.006886816 -0.009076661 0.009305579 0.009862353 0.004662503 -0.0032674181 0.009109524 0.00011044265 -0.0056051053 0.0031060458 0.0061393953 -0.0018895579 0.0017290409 -0.008492737 -0.00025633728 0.00940038 0.0020121515 -1.0743691e-05 0.009523739 0.0005467703 -0.0087451 0.00876246 -0.0007537843 -0.009689247 0.0024470286 0.007132156 0.0062985835 0.00032491446 -0.0019916208 0.003744081 -0.0029270183 -0.004860697 0.0019992099 0.00267461 0.000844914 0.00035058343 -0.00044254685 -0.00057192944 -0.005771353 0.0029579042 -0.0072504818 -0.008485968 0.006616504 -0.005719274 0.008754691
squash 0.007772742 -0.0046770414 0.0040168976 0.002077118 0.0043807817 0.0084847985 0.0045270054 -0.007554954 -0.0038261707 -0.0052447915 0.004775766 0.00031558872 -0.0013942658 0.009678911 -0.008449426 0.0052081924 0.007292967 0.0065256166 0.00057213305 -0.0006643277 0.0055791386 -0.003952933 0.009507635 -0.006761893 -0.003421658 0.004439726 -0.0022692438 -0.0004810123 -0.007838181 0.008841166 -0.006903755 0.0045008752 -8.730514e-05 0.00249837 0.0049078697 -0.00066244544 0.00073617947 -0.008317062 0.006323681 0.0030857932 0.0057706865 -0.008389726 -0.0035061026 -0.004697675 0.006196798 0.0029000102 -0.00983502 0.0024964367 -0.007845476 0.008341193
fillets 0.00855385 -0.0029670098 0.005024368 0.0044638845 0.009479414 0.0027824952 0.0045691333 -0.0027576496 -0.005588647 0.00956878 0.0019532014 0.007398915 0.009617096 -0.009500355 0.0051533235 -0.008213058 -0.0010984674 0.004169887 0.0014671531 0.007447636 0.00084329495 0.0022642154 -0.005333235 0.00039572976 -0.006005166 0.00026362817 -0.00075311156 -0.004667061 -0.0019126864 -0.0060059195 -0.0068292925 -0.0020984067 -0.003370573 -0.0039465963 -0.004952597 -0.003875179 -0.009643573 -0.0005951145 -0.0002502925 0.0025371066 0.0040138937 -0.0013735198 0.0018785617 -0.002863553 -0.009138746 -0.0052408716 -0.005160158 -0.001862631 -0.0073131113 -0.002846461
wrap 0.0011665002 0.00079771905 -0.0027039414 0.004058355 -0.0038855474 0.00329487 -0.0018063096 -0.0017606952 0.0019405172 0.008155318 0.0039015564 0.0034234188 -0.0039970884 0.0019809948 -0.0014179596 0.006898682 -0.0071822954 0.0077366354 -0.0061325696 0.0052118856 -0.0027592566 -0.0030611036 -0.0037360338 0.008165932 -0.0024164524 0.007865936 -0.004193661 -0.008253087 0.009431695 -0.00203162 -0.00978307 0.002037899 -0.0015131694 -0.0052374154 0.0008253761 -0.0019944455 0.0077390787 0.004923883 0.0020120381 -0.004733765 0.004244323 0.0044307923 0.0069278064 -0.004952859 0.0072602252 0.0024664886 0.0053366334 -0.0096674785 -0.00012496319 0.0019861686
halibut -0.00066244195 -0.009640233 -0.0003774117 -0.009760258 -0.0010737396 0.00086147815 0.0008131636 0.006666294 0.0032249594 -0.0007760755 0.008657522 0.0022931828 -0.004642222 0.009513609 -0.0077033816 -0.00455204 0.0034110623 0.003045398 0.00084910623 -0.0010414781 0.008161206 -0.0049849357 0.009784211 0.0062692137 -0.00064395333 0.009603557 -0.0018352438 -0.0019539804 -0.007895866 -0.0047334502 -0.0031833877 -0.0061008586 0.0038073137 0.0038223953 -0.0039274637 0.0032494622 0.008090848 0.008089584 0.008126936 0.007330445 0.005324512 0.0014957404 0.0004836875 -0.0012912909 -0.0010338284 0.00051649363 -0.004827537 0.008385075 -0.0066144015 0.0035087792
foie gras -0.003304606 0.0018575356 -0.0064018313 -0.0038579728 -0.0043846946 -0.0009565858 -0.0045663533 0.0029362587 -0.0046566543 -0.0062221945 0.00762369 0.0048869485 -0.0019005034 -0.004594946 0.004660851 -0.0018088372 0.009716308 -0.003960442 0.0014620681 0.008096976 0.0007812765 -0.008424346 -0.005660629 0.0047783414 0.00022894428 0.0066854064 0.0023945512 -0.00055969734 0.0017995491 0.0064374115 0.0056321207 0.00837917 -0.0074828165 -0.008207164 -0.0044865003 0.008885319 0.004036923 0.004142571 -0.0046205744 -0.0047719344 -0.0010358837 0.008604138 0.0029757817 -0.0025559936 -0.006114554 -0.007962969 0.009265986 0.0044469372 -0.0038756009 0.004915517
truffle 0.007076593 0.007700081 -0.0010713394 0.003124762 -0.0038782223 0.007545749 -0.005907822 0.0022133547 -0.008582921 0.00040125762 -0.006303465 0.0036636475 0.0032058682 -0.004811571 0.0030580172 0.0008624969 0.009702364 0.0012356373 -0.0023585777 -0.0066697644 -0.009027219 -0.008879172 -0.004698433 -0.0020229889 -0.008481187 -0.0010126783 0.002492284 -0.009263506 -0.0043389047 -0.0028009666 -0.008099571 -0.0054655597 0.006238754 -0.005621228 -0.001916621 -0.0049336543 -0.00879754 0.0012521911 -0.008870997 0.0044455603 0.0081849545 -0.006301611 0.004620805 0.009246083 0.0022842914 0.0076830355 0.007641296 0.0024589007 -0.006915623 -0.0052892575
wafers -0.007808833 0.0018496922 -0.005889397 -0.00922132 -0.002050737 0.0015296153 0.0047997404 -0.0021089662 0.00024247632 -0.0021646854 -0.0069282902 -0.008440844 -0.0055694696 -0.0055148127 -0.0076298728 0.008742182 0.0014306307 -0.0044342666 -0.0033289401 0.0067853816 0.0034955498 0.0018718784 0.0045946524 -0.0009185063 0.0027870853 -0.0050888914 -0.008681145 0.00056514895 -0.0034898603 0.0013422014 0.0009871117 -0.00087823614 -0.0066360836 -0.0071298187 -0.004835406 0.006565603 0.004213249 0.0071267304 -0.0027662944 -0.0012941154 -0.0010946646 0.0012027248 0.009182069 0.008511136 -0.009718708 0.00975376 0.0071697147 -0.009046148 0.004091761 -0.008001997
lemonade 0.0002947961 -0.0055089337 0.000503319 -0.005085529 0.008494448 0.0020375252 0.00330315 -0.008322553 -0.003099182 -0.007330214 0.0031998109 -0.0035992034 -0.0035050632 0.005035008 -0.0080195805 0.00020289564 -0.009576715 0.0052920873 0.00208074 -0.0013559078 0.0052273623 0.006791869 0.00014471199 0.0023771361 0.008047483 0.00084848254 -0.00952177 0.0050340462 -0.0025368612 -0.009861467 -0.005136892 -0.0060891486 -0.0033414548 -0.007399331 -0.0010948576 0.0018856241 0.0049774144 0.0027234624 0.0022356492 0.0082626175 -0.009180517 0.001880584 0.0042922916 -0.0096831005 -0.0037036887 0.0066668326 0.0027582983 -0.0030875313 0.007953438 -0.0049014655
chips -0.0058395914 -0.008119318 0.008225389 -0.003956604 0.0026692532 0.008854147 -0.006383334 0.0011715902 0.008318703 -0.002619052 -0.0015186813 0.0042221393 0.009445869 -0.008007333 -0.007783255 0.004347485 -0.004664479 -0.001141434 0.0010429798 -0.009615165 -0.005008365 0.007389382 -0.0041478183 -0.009427198 -0.008673605 -0.0048771123 -0.006182394 -0.0044651665 0.0053893337 0.009050263 -0.007822813 -0.008531215 -0.0010742497 -0.00063715817 -0.0038207786 0.007439193 -0.00010187346 0.006177234 0.0036485703 -0.009678184 -0.0028894942 -0.0060875122 0.0045921584 0.0007814662 -0.007068331 0.0032938519 -0.0027285074 0.003846904 0.0048889145 -0.0052659446
chocolate -0.0038872794 -0.009446835 0.008273229 -0.0031366546 -0.0016061355 -0.004650155 0.0031876327 0.009146041 0.007858186 -0.0065110573 -0.008128173 -0.00558073 -0.008195064 0.0038173066 0.0042416668 -0.00093881297 -0.002436882 0.00916947 0.009454332 -0.0069062733 -0.008370783 0.00724762 0.0026602275 0.0043041375 0.002964678 0.00886415 -0.009352198 -0.005702901 -0.0033175675 -0.004331953 -0.004387124 0.0016025889 0.004766399 -0.00083032163 -0.00472929 0.0064719864 0.0010993881 -0.004206924 0.004012892 -0.0033541983 0.0010893288 -0.0015551437 -0.0027177418 0.0086981505 -0.005232143 0.008834096 0.009832964 1.51183085e-05 -0.005844263 0.0062196087
cola -0.009147332 -0.0011953517 0.005549197 0.0009462015 -0.0098672155 -0.0027024287 0.00055834115 0.0064574755 0.0007933105 0.0022728078 0.0045962604 0.0085375635 -0.009390523 0.0028510885 0.007854149 0.008388053 -0.0057074325 -0.002177023 0.007973028 -0.0063494304 0.007889681 -0.0020767113 0.009572043 0.005088588 -0.0065132333 3.956068e-05 -0.007730112 -0.009791888 -0.0068432842 0.0071061966 -0.004190317 -0.0018683778 -0.0020566366 0.009120835 -0.008737496 0.0066491337 -0.0012137959 -0.009742867 -0.004396272 0.0015538848 0.008824992 0.0047552707 0.0046891076 0.005288561 -0.00014103063 0.0066513685 0.005854356 0.0048233517 0.001536618 0.006844246
raspberries 0.0058238995 0.0065724025 -0.003234722 0.0055272365 0.0072557353 0.009347162 0.0055266405 0.009057794 0.0038176326 -0.008469251 0.0058802725 -0.00764706 -0.0026564787 -0.0072769965 5.5586737e-05 0.0043096207 -0.0058182203 -0.004585811 -0.0024411313 -0.00074336474 -0.00973018 0.0062300195 -0.0076372754 0.0026167308 0.0027317333 -0.007622954 0.008657534 0.00020899215 -0.0017819593 -0.0017349604 0.005692131 0.007915099 0.0006372938 0.00089235435 -0.0008899029 0.003558328 0.0075987815 -0.00974606 -0.0055922614 -0.008021977 -0.009366233 -0.0011664119 0.007776019 -0.009290815 -0.008133717 0.0040983725 -0.0032710254 -0.007161197 -0.0047057094 -0.0048430106
pectin -0.009816687 -0.0074430974 -0.003154149 -0.0020818105 0.0063060517 0.0022588854 -0.0043001096 0.0010335305 0.0026775901 0.0049052318 0.0036521526 -0.0012632443 0.008092223 0.006415084 0.009277076 -0.0045726076 -0.0049300445 -0.0042999825 0.0042866436 -0.0065365187 0.0017264801 0.0066929893 0.0042992244 -0.0037505024 -0.0012377499 -0.007467231 -0.003922436 0.0033711963 0.007157604 -0.009817507 -0.001282574 0.008457977 -0.008886427 0.0028454822 -0.0046674996 -0.008939323 -0.0042421385 0.009027773 0.008745308 0.0005711849 0.0043951427 -0.0015666748 0.0018555743 0.009219594 0.0021629948 0.0058286767 -0.0069714286 0.008654491 0.00070464826 -0.0033033332
certo -0.0016046206 -0.005317605 -0.003159446 -0.005624866 -0.007516015 -0.009742649 0.007846271 -0.0017772152 -0.0060802293 -0.0076347557 -0.007077272 0.0071016937 -0.006677021 0.0011978539 -0.0020947629 0.007813158 -0.00036247759 -0.0039105057 0.0023647826 0.007456441 0.007488905 -0.0031420654 0.0077559496 0.0003698498 -0.008526852 0.0033987362 -0.0052635083 0.007220495 -0.001352723 -0.008833497 -0.0019980527 0.009708034 -0.009513101 -0.008190137 -0.00096047175 0.002986325 0.0022643097 0.008713445 -0.009946557 -0.009223055 0.0036345972 0.00613823 0.004459625 0.0050434414 -0.01001503 0.009377426 -0.0022890898 0.007322927 -0.0062227077 -0.007918712
